tree
version=v4
num_class=4
num_tree_per_iteration=4
label_index=0
max_feature_idx=24
objective=multiclass num_class:4
feature_names=Column_0 Column_1 Column_2 Column_3 Column_4 Column_5 Column_6 Column_7 Column_8 Column_9 Column_10 Column_11 Column_12 Column_13 Column_14 Column_15 Column_16 Column_17 Column_18 Column_19 Column_20 Column_21 Column_22 Column_23 Column_24
feature_infos=[-3.8444054330966271:24.321473884077015] [-1.7534575554301051:12.253861360048802] [-2.125835114954056:3.0852152723060984] [-6.3777796864913299:4.1510949328859903] [-3.3316726868310149:8.5359539818904473] [-2.8566255888002798:8.5433507611846498] [-1.5589072298164521:10.340046549094515] [-1.5424136436605773:10.999033976231274] [-0.72299302040355906:4.2559952940030774] [-1.2529517007404583:5.7094144975935972] [-0.54679864590947735:3.3005556819355202] [-1.8258906320130204:10.724455466305489] [-1.6948203150419339:7.9647005594454781] [-4.2361433672698308:7.1916525961500657] [-0.58432294151171971:3.5147112668107345] [-1.1102503000816084:3.7900537501004674] [-0.68446591727582695:5.1398166468936131] [-2.6754605719551248:11.05686268006143] [-3.7650364061072952:3.0964388730853623] [-6.7176078807129702:6.402737450898897] [-1.0233494397681036:8.890349098539021] [-1.1764995484067295:19.398306865258469] [-4.9238298969218439:4.6416552914135991] [-0.6771241224067478:4.9614506870132482] [-2.7293305698101702:4.9686520398259999]
tree_sizes=1098 611 609 1906 3446 3491 3474 3392 3439 3489 3473 3381 3449 3475 3481 3379 3447 3495 3469 3377 3436 3487 3478 3381 3438 3484 3461 3365 3440 3488 3445 3374 3449 3491 3462 3390 3451 3500 3475 3423 3437 3489 3489 3405 3451 3489 3473 3416 3441 3500 3479 3423 3433 3502 3468 3424 3449 3499 3472 3432 3446 3496 3485 3407 3437 3501 3471 3430 3456 3502 3486 3436 3463 3518 3483 3402 3445 3510 3482 3425 3451 3501 3493 3449 3461 3513 3501 3443 3476 3526 3484 3446 3479 3513 3509 3437 3479 3521 3507 3454 3489 3516 3512 3457 3497 3517 3514 3461 3496 3522 3509 3477 3512 3529 3503 3487 3506 3529 3507 3483 3501 3540 3516 3489 3502 3539 3524 3491 3515 3540 3531 3498 3508 3532 3528 3499 3505 3542 3525 3500 3515 3543 3530 3508 3520 3555 3536 3514 3519 3556 3536 3505 3528 3567 3537 3515 3525 3561 3543 3514 3529 3567 3540 3502 3527 3566 3551 3525 3536 3571 3552 3532 3528 3567 3546 3526 3537 3576 3548 3530 3531 3581 3555 3533 3534 3587 3558 3540 3552 3585 3566 3556 3566 3593 3582 3564 3571 3601 3576 3558 3569 3607 3583 3570 3580 3617 3587 3558 3576 3626 3596 3575 3576 3618 3606 3577 3592 3617 3614 3585 3593 3631 3603 3579 3592 3638 3616 3579 3596 3643 3628 3583 3612 3641 3622 3580 3598 3646 3625 3580 3603 3647 3621 3584 3620 3643 3626 3601 3606 3657 3624 3608 3629 3661 3631 3599 3637 3656 3635 3612 3637 3672 3639 3609 3640 3667 3651 3616 3640 3659 3647 3622 3647 3664 3640 3627 3636 3670 3648 3631 3648 3669 3648 3649 3657 3681 3657 3644 3649 3700 3674 3643 3674 3682 3675 3651 3675 3680 3667 3647 3669 3439 3681 3662 3679 2884 3351 3661 3218 2640 2988 3569 2992 2425 2545 3112 2762 2086 2308 2993 2544 1742 2095 2545 2197 1514 1858 2305 1853 1510 1625 2069 1740 1278 1512 1851 1733 1161 1512 1612 1389 1049 1164 1388 1267 929 1048 1498 1162 814 1051 1268 1042 819 931 1045 924 703 821 929 931 705 824 927 818 591 589 930 820 476 706 818 703 477 590 931 590 472 591 704 704 477 593 699 586 476 591 587 588 477 475 700 585 361 361 593 472 361 359 592

Tree=0
num_leaves=10
num_cat=0
split_feature=5 2 2 10 2 1 20 6 21
split_gain=2296.74 145.459 85.9631 87.391 69.2958 22.9331 110.758 4.57279 7.30435
threshold=-0.89388888716842907 0.19784072894823437 2.0833735032089371 1.664620275126969 1.1952193426373074 -0.034507709972840757 -0.1354888214739749 3.2604535902658838 -0.32610255687672979
decision_type=2 2 2 2 2 2 2 2 2
left_child=1 -1 3 5 -5 7 -7 -2 -9
right_child=2 -3 -4 4 -6 6 -8 8 -10
leaf_value=-1.4862943611198907 -1.4862943611198907 -1.0862943611198905 -1.0862943611198905 -1.4862943611198904 -1.0862943611198905 -1.4862943611198907 -1.107346992698838 -1.3529610277865574 -1.4862943611198907
leaf_weight=9.4999999999999982 642 211.25 5.7499999999999991 7.5000000000000027 10.249999999999998 41 9.4999999999999982 6.7500000000000027 10.499999999999998
leaf_count=38 2568 845 23 30 41 164 38 27 42
internal_value=-1.38629 -1.10351 -1.47143 -1.47447 -1.25531 -1.47995 -1.41501 -1.48493 -1.43412
internal_weight=0 220.75 733.25 727.5 17.75 709.75 50.5 659.25 17.25
internal_count=3816 883 2933 2910 71 2839 202 2637 69
is_linear=0
shrinkage=1


Tree=1
num_leaves=5
num_cat=0
split_feature=9 6 20 21
split_gain=2228.22 447.352 182.429 0.195812
threshold=1.3002791314935773 -0.31391617230087437 0.073994432920374845 -0.52788035257484034
decision_type=2 2 2 2
left_child=-1 2 3 -2
right_child=1 -3 -4 -5
leaf_value=-1.4862943611198907 -1.1062943611198905 -1.4862943611198907 -1.4862943611198907 -1.0862943611198905
leaf_weight=668 4.9999999999999991 35.25 11.999999999999998 233.75
leaf_count=2672 20 141 48 935
internal_value=-1.38629 -1.15273 -1.10584 -1.08671
internal_weight=0 286 250.75 238.75
internal_count=3816 1144 1003 955
is_linear=0
shrinkage=1


Tree=2
num_leaves=5
num_cat=0
split_feature=5 20 2 14
split_gain=2364.59 343.504 149.904 0.189079
threshold=-0.88393257594573493 0.073994432920374845 0.19784072894823437 3.1833960893809361
decision_type=2 2 2 2
left_child=1 2 -1 -4
right_child=-2 -3 3 -5
leaf_value=-1.0862943611198905 -1.0862943611198905 -1.0862943611198905 -1.4862943611198907 -1.4672467420722715
leaf_weight=9.4999999999999982 206 22.75 710.5 5.2499999999999991
leaf_count=38 824 91 2842 21
internal_value=-1.38629 -1.46891 -1.48092 -1.48615
internal_weight=0 748 725.25 715.75
internal_count=3816 2992 2901 2863
is_linear=0
shrinkage=1


Tree=3
num_leaves=19
num_cat=0
split_feature=6 11 10 1 7 6 12 6 11 6 21 4 9 0 13 3 11 1
split_gain=1865.71 194.07 150.906 80.3489 79.09 146.493 68.1872 43.6974 124.971 4.40856 7.47692 2.11691 1.9451 1.71163 1.68001 0.585997 0.184041 0.184959
threshold=0.66025145639758931 0.12318818814342204 1.664620275126969 1.0000000180025095e-35 -1.138940023659379 -0.21262091276314285 0.88308336742742732 0.2211069862368559 0.580645626086571 3.2604535902658838 -0.32610255687672979 4.3393039718316322 1.3990461743653075 0.075606949766901924 2.6542287336984196 0.60920053179286571 0.20361639239978016 -0.15237432427564052
decision_type=2 2 2 2 2 2 2 2 2 2 2 2 2 2 2 2 2 2
left_child=4 -2 3 9 5 -1 -5 11 -9 16 -11 14 -10 -8 15 -6 -3 -18
right_child=1 2 -4 6 7 -7 13 8 12 10 -12 -13 -14 -15 -16 -17 17 -19
leaf_value=-1.4862943611198907 -1.4862943611198907 -1.1062943611198905 -1.4862943611198907 -1.4862943611198904 -1.4862943611198907 -1.0862943611198905 -1.0862943611198905 -1.4862943611198907 -1.0862943611198905 -1.2247558995814292 -1.0862943611198905 -1.4311219473267871 -1.1662943611198906 -1.1662943611198906 -1.4291515039770335 -1.456664731490261 -1.0862943611198905 -1.1053419801675095
leaf_weight=23.5 16.25 4.9999999999999991 11.249999999999998 10 599.75 14.999999999999998 5.75 33 7.7499999999999982 6.5000000000000027 9.7499999999999982 7.2499999999999991 5 5 5.2499999999999991 6.7499999999999991 176 5.2499999999999991
leaf_count=94 65 20 45 40 2399 60 23 132 31 26 39 29 20 20 21 27 704 21
internal_value=-1.38629 -1.1521 -1.12894 -1.11093 -1.4698 -1.33045 -1.29834 -1.47787 -1.38356 -1.09173 -1.14168 -1.48484 -1.11767 -1.1235 -1.48548 -1.48596 -1.08737 -1.08685
internal_weight=0 250.75 234.5 223.25 703.25 38.5 20.75 664.75 45.75 202.5 16.25 619 12.75 10.75 611.75 606.5 186.25 181.25
internal_count=3816 1003 938 893 2813 154 83 2659 183 810 65 2476 51 43 2447 2426 745 725
is_linear=0
shrinkage=1


Tree=4
num_leaves=31
num_cat=0
split_feature=1 5 10 2 1 6 3 6 21 2 5 4 11 14 4 13 17 0 11 4 7 23 23 2 2 23 0 1 3 2
split_gain=1658.87 116.648 82.8832 44.8487 23.9579 70.4809 11.3202 4.44471 6.4399 0.158738 0.0127484 0.00163406 0.000797087 0.000341759 0.000211606 0.000106508 4.76149e-05 0.000182623 4.04252e-05 3.43965e-05 1.48624e-05 7.37203e-05 7.04146e-06 6.36205e-06 3.97583e-06 1.15991e-05 7.42232e-06 5.61967e-06 4.73666e-06 7.35881e-06
threshold=0.85190905453575561 -0.58806482737421562 1.664620275126969 1.1952193426373074 -0.034507709972840757 1.1829731661878511 -0.71654558801386714 3.2604535902658838 -0.32610255687672979 1.518466770773043 -0.89388888716842907 3.7993691684209101 0.12318818814342204 2.791658572363394 3.7993691684209101 1.9422854763501574 0.79996466756813012 0.4688026754721511 2.0460246536384346 -0.2718189217629387 2.5946321122360847 -0.65015321570984586 -0.65012890683511582 1.3098088663561136 1.1216759143284352 -0.64776592588032889 0.1093283534378713 -0.89865334007722952 0.60920053179286571 0.71625689607307408
decision_type=2 2 2 2 2 2 2 2 2 2 2 2 2 2 2 2 2 2 2 2 2 2 2 2 2 2 2 2 2 2
left_child=2 6 4 -4 7 9 -2 14 -9 12 11 13 -6 15 16 -8 18 -18 20 -20 23 -22 -23 24 27 26 -26 -1 -29 -30
right_child=1 -3 3 -5 5 -7 10 8 -10 -11 -12 -13 -14 -15 -16 -17 17 -19 19 -21 21 22 -24 -25 25 -27 -28 28 29 -31
leaf_value=-0.096367055832040915 0.096371826928037183 -0.09645088075535338 -0.09647873999354746 0.22582200352220647 -0.096463842180393208 0.22955053567234351 0.22582200352220647 0.030085285275244306 -0.096478739993547516 -0.076891782842212944 0.22976965137264582 0.22753908433711345 -0.097883360846455783 0.22656870312191255 -0.09716151007736118 0.2262419725784382 -0.096456754027739178 -0.097183666788844603 -0.096079321660146697 -0.096461949559160098 -0.096907122852325236 -0.09661036579727969 -0.096478739993547516 -0.096585051065211786 -0.096585567461831848 -0.096606688429292847 -0.096480987583802358 -0.096477613942694482 -0.096314391562625459 -0.096478739993547502
leaf_weight=4.8298518806695929 6.9181345403194419 11.990379318594931 6.4610574245452908 13.013222575187681 16.376978561282165 9.0917048156261426 225.36535459756851 6.8702421933412579 9.6915861368179304 4.91314873099327 8.7933469712734205 5.892438828945159 5.2154373675584784 6.4957909882068625 4.6869155913591376 6.205018311738967 13.145294710993769 4.6889411360025397 4.5624371767044067 4.843654051423071 4.898194193840026 4.6306403428316107 33.22829532623291 5.7845431715250006 7.1728039830923072 8.5631806552410108 125.99786992371082 361.11626453697681 4.5953331738710386 6.6918094754219055
leaf_count=21 26 52 28 44 71 31 762 27 42 21 30 20 22 22 20 21 57 20 20 21 21 20 144 25 31 37 546 1565 20 29
internal_value=0 0.208494 -0.0843951 0.118891 -0.0904708 -0.0107049 0.222575 -0.0950803 -0.043977 -0.0931152 0.226029 0.225894 -0.0968067 0.225853 -0.0964922 0.225833 -0.0964869 -0.0966479 -0.096482 -0.0962764 -0.0964854 -0.0965421 -0.0964948 -0.0964808 -0.0964796 -0.0964939 -0.0964866 -0.0964742 -0.0964756 -0.0964118
internal_weight=0 271.66 671.069 19.4743 651.595 35.5973 259.67 615.998 16.5618 26.5056 252.752 243.959 21.5924 238.066 599.436 231.57 594.749 17.8342 576.915 9.40609 567.509 42.7571 37.8589 524.752 518.967 141.734 133.171 377.233 372.403 11.2871
internal_count=3816 933 2883 72 2811 145 881 2666 69 114 855 825 93 805 2597 783 2577 77 2500 41 2459 185 164 2274 2249 614 577 1635 1614 49
is_linear=0
shrinkage=0.1


Tree=5
num_leaves=31
num_cat=0
split_feature=11 6 8 3 21 4 0 4 11 14 11 4 2 0 21 19 0 1 23 1 7 13 10 16 17 0 0 3 1 14
split_gain=1658.55 311.609 78.2196 0.135638 0.0043158 0.00051055 0.000266381 6.66938e-05 5.88355e-05 8.78023e-05 5.1237e-05 2.18032e-05 2.07971e-05 3.50413e-05 2.02649e-05 1.35034e-05 1.83362e-05 5.91912e-06 4.66668e-06 8.52942e-06 3.87731e-05 1.24137e-05 6.579e-06 3.68981e-06 1.07667e-05 3.13255e-06 1.08848e-05 2.93978e-06 2.93694e-06 2.84971e-06
threshold=1.0651816280040198 -0.35311920425226545 -0.70787539059760185 0.21649919552966052 -0.52520355867215507 2.2021300428782262 -2.7453441710703657 4.3393039718316322 1.0047108013988295 1.463931829027959 1.9504995907322014 -1.4856939579930921 1.2736226645103967 0.054031454031753585 -0.38639481259259006 1.736783331368837 0.56551479764715717 -1.2928493191813624 -0.65007536787048892 -0.15237432427564052 0.55475892963767326 -0.028334443762974285 -0.37158379951964599 -0.65385238574331173 0.56717902227690342 0.24002156695105789 -0.0032297074537094845 0.55795083149434099 -1.0516149011694862 2.791658572363394
decision_type=2 2 2 2 2 2 2 2 2 2 2 2 2 2 2 2 2 2 2 2 2 2 2 2 2 2 2 2 2 2
left_child=7 2 3 -2 -5 10 -6 8 11 -10 -3 12 28 -14 -11 17 -17 -13 19 -19 22 -22 -21 24 25 26 -20 -25 -1 -27
right_child=1 5 -4 4 6 -7 -8 -9 9 14 -12 15 13 -15 -16 16 -18 18 23 20 21 -23 -24 27 -26 29 -28 -29 -30 -31
leaf_value=-0.096570584368104562 0.21189510026390895 -0.096484458001910689 -0.08498164351787614 0.22845088911931094 0.22650109565032983 -0.097311899684781086 0.22582200352220647 -0.096148729630381152 -0.097024474913377623 -0.096683974817507901 -0.09611723697005306 -0.096367055832040915 -0.096487505716390531 -0.09686255310028434 -0.09647873999354753 -0.09628717090749854 -0.096478739993547516 -0.0964794840664146 -0.096464260719533457 -0.09649451202526968 -0.096599152453973547 -0.096822721897691325 -0.096361778991436109 -0.0964808130159161 -0.096318940480456097 -0.096477123701483869 -0.096294273518664639 -0.096403922763200978 -0.096478739993547502 -0.096396471925854585
leaf_weight=4.6259130537509945 7.0954672694206229 22.616872489452366 8.3519074618816358 6.4685087203979483 5.9061431288719168 8.4704518616199476 262.6304919719696 5.9479587972164145 4.6729086637496975 7.1908467411994978 4.566706731915473 4.8298518806695929 4.8468802720308286 5.1257124245166779 14.537379205226895 8.9524297416210192 11.306850492954252 98.07147678732872 20.99049906432629 19.852684736251831 5.3236997276544571 4.6553184241056424 4.5993621200323132 267.45579646527767 5.2831097394227973 89.989313438534737 4.5908075869083396 5.0666626542806616 14.075875103473665 4.6051966249942771
leaf_count=20 24 98 36 22 20 36 888 26 20 31 20 21 21 22 63 39 49 425 91 86 23 20 20 1159 23 390 20 22 61 20
internal_value=0 0.182369 0.216617 0.225546 0.225898 -0.096634 0.225837 -0.096482 -0.0964852 -0.0966312 -0.0964228 -0.0964786 -0.0965636 -0.0966803 -0.0965467 -0.0964742 -0.0963941 -0.0964773 -0.0964783 -0.0964945 -0.0965373 -0.0967034 -0.0964695 -0.0964729 -0.0964587 -0.0964648 -0.0964338 -0.0964794 -0.0965015 -0.0964732
internal_weight=0 326.107 290.453 282.101 275.005 35.654 268.537 616.597 610.649 26.4011 27.1836 584.247 28.6744 9.97259 21.7282 555.573 20.2593 535.314 530.484 132.503 34.4311 9.97902 24.452 397.981 125.459 120.176 25.5813 272.522 18.7018 94.5945
internal_count=3816 1144 990 954 930 154 908 2672 2646 114 118 2532 124 43 94 2408 88 2320 2299 574 149 43 106 1725 544 521 111 1181 81 410
is_linear=0
shrinkage=0.1


Tree=6
num_leaves=31
num_cat=0
split_feature=5 20 2 14 0 13 15 13 3 23 4 17 0 6 0 4 1 19 7 4 6 0 7 21 6 1 0 8 6 21
split_gain=1677.25 260.833 114.701 0.193979 0.00668414 0.00160217 0.00103502 0.000203627 0.0001871 0.000514088 6.31998e-05 6.38391e-05 0.000163995 2.16813e-05 5.6531e-05 3.9897e-05 2.64209e-05 6.91417e-05 4.02241e-05 1.81802e-05 1.75221e-05 9.09127e-06 5.95995e-06 6.73652e-06 5.94128e-06 4.88742e-06 3.04511e-06 2.91373e-06 1.6149e-06 2.41478e-06
threshold=-0.88393257594573493 0.073994432920374845 0.19784072894823437 3.1833960893809361 -0.34402535917882943 0.83060527319899435 -0.28863934189036339 1.8035695121542976 0.60920053179286571 -0.64922596088998996 4.9766511054035947 0.79996466756813012 0.71192701812042714 0.1712526414144829 1.0528044481059922 1.5875413195875281 1.0000000180025095e-35 -0.33152164366695053 1.1627734894850132 3.7993691684209101 5.330138717571324 0.1093283534378713 4.3116502165560151 -0.45129436667418843 0.78143752067898953 -0.15237432427564052 -2.7453441710703657 -0.71075495849136272 3.3447272717406471 -0.25415296728987508
decision_type=2 2 2 2 2 2 2 2 2 2 2 2 2 2 2 2 2 2 2 2 2 2 2 2 2 2 2 2 2 2
left_child=1 2 -1 10 -3 8 7 -7 -2 -10 11 13 -13 19 16 -16 20 -18 -19 22 21 27 26 -24 -23 28 -4 -15 -26 -30
right_child=5 4 3 -5 -6 6 -8 -9 9 -11 -12 12 -14 14 15 -17 17 18 -20 -21 -22 24 23 -25 25 -27 -28 -29 29 -31
leaf_value=0.22582200352220647 0.22582200352220647 0.22921308343786709 -0.096396424984722145 -0.076530491002905932 0.22582200352220647 0.22582200352220638 0.22766921236284743 0.22663306958174043 0.22582200352220641 0.22690088858395496 -0.09681363116667227 -0.09641746679655476 -0.097183666788844575 -0.096635923621160205 -0.096512483157458973 -0.096880718139853245 -0.096280230538066808 -0.096550027784441883 -0.096854100165283549 -0.096299994481572032 -0.096670294639941201 -0.096377073916543807 -0.096643749617110863 -0.096478739993547544 -0.096478739993547516 -0.096569889792552419 -0.096478221761543762 -0.096525041022557906 -0.096573382810306543 -0.09647873999354753
leaf_weight=11.238692224025725 201.70494991540909 8.5102506875991839 4.6051585525274268 4.9017492383718482 18.336813628673553 6.5066112875938433 7.9518948197364798 5.9043759703636169 15.379263043403627 6.1959261596202841 6.2732870131731024 6.9104448109865171 4.6889411360025406 4.8653627336025238 5.0808146744966489 6.9906118512153625 5.047059282660487 8.784594655036928 8.6187233328819257 5.7418216466903678 5.3332694768905631 5.2914058268070212 4.6346106827259064 5.3072971701621992 156.91139459609985 6.4742170572280875 388.81187587976456 4.6203977763652784 4.6261720061302185 6.4610574245452863
leaf_count=38 682 29 20 21 62 22 27 20 52 21 27 30 20 21 22 30 22 38 37 25 23 23 20 23 680 28 1685 20 20 28
internal_value=0 -0.0787562 -0.0909634 -0.0963497 0.226897 0.225929 0.226779 0.226208 0.225852 0.226132 -0.0964977 -0.0964947 -0.0967272 -0.0964905 -0.0965151 -0.0967257 -0.0965034 -0.0966061 -0.0967006 -0.0964767 -0.0964915 -0.0964865 -0.0964792 -0.0965557 -0.0964815 -0.0964846 -0.0964773 -0.0965819 -0.0964813 -0.0965182
internal_weight=0 699.066 672.219 660.98 26.8471 243.643 20.3629 12.411 223.28 21.5752 656.079 649.805 11.5994 638.206 229.105 12.0714 217.034 22.4504 17.4033 409.101 194.583 189.25 403.359 9.94191 179.764 174.473 393.417 9.48576 167.999 11.0872
internal_count=3816 2992 2901 2863 91 824 69 42 755 73 2842 2815 50 2765 992 52 940 97 75 1773 843 820 1748 43 779 756 1705 41 728 48
is_linear=0
shrinkage=0.1


Tree=7
num_leaves=31
num_cat=0
split_feature=6 11 10 6 11 1 0 7 2 1 2 8 4 13 13 1 3 6 1 4 19 15 3 15 7 21 11 14 4 7
split_gain=1372.38 123.43 93.8105 69.5547 135.543 43.9108 43.8419 40.6144 64.4058 3.27025 4.93689 2.83048 2.10364 0.668093 0.394782 0.0978697 0.459185 0.164202 0.0785767 0.0554266 0.00125007 0.000327266 0.000146389 2.35822e-05 6.13482e-06 7.13579e-06 4.35442e-06 3.37132e-06 5.43357e-07 3.87636e-08
threshold=0.66025145639758931 0.12318818814342204 1.664620275126969 0.14011573308107902 0.580645626086571 0.09545487113347477 0.22201904170195763 -1.1974536873519106 0.88183545091702731 -0.18040149706524192 1.3036395969365391 -0.7080126740410928 4.3393039718316322 2.5036645794749721 -0.80094577369590292 -0.2597634448984214 0.40238981499967447 4.3167649290111081 -1.3564968393127972 2.2021300428782262 -0.97957023834016355 -0.26509234690150513 0.60306912551344982 -0.54244933232322456 4.3116502165560151 -0.49317460266920393 2.473270478262044 3.1833960893809361 -1.0000000180025095e-35 2.6811013847774521
decision_type=2 2 2 2 2 2 2 2 2 2 2 2 2 2 2 2 2 2 2 2 2 2 2 2 2 2 2 2 2 2
left_child=3 28 5 7 23 9 -7 8 -1 14 -11 19 13 22 -3 17 -17 18 -16 -6 -20 -22 24 -5 26 -26 27 29 -2 -9
right_child=1 2 -4 4 11 6 -8 12 -10 10 -12 -13 -14 -15 15 16 -18 -19 20 -21 21 -23 -24 -25 25 -27 -28 -29 -30 -31
leaf_value=-0.096478739993547502 -0.096478739993547516 0.19879027680367919 -0.096478739993547516 -0.096710356184276286 0.22808568216903932 0.20145119955543192 -0.097387664678000932 -0.096478739993547516 0.22582200352220647 0.10294083609248517 0.22958903187406518 0.15123226734472148 -0.040875567141519416 -0.061409076701308511 0.21607699523921134 0.19480038764775848 0.22582200352220647 0.2406066217228808 0.22726333158193635 0.23993964991447347 0.22657982498459056 0.22582200352220647 -0.096991830318732458 -0.096478739993547516 -0.096646908109358512 -0.096478739993547544 -0.096395273335672549 -0.096404758159256393 -0.096437485388861321 -0.096487943899306261
leaf_weight=15.46038740873337 10.383842289447783 5.8144085705280295 10.383842289447783 5.1058681458234778 11.472430795431142 10.912268877029421 8.9240064024925214 525.42241984605789 10.351427048444746 5.6613016128540021 6.7449902296066284 5.7406530678272238 6.972308710217475 5.483998864889144 8.5384783744811994 5.8733786344528225 25.434935033321381 7.4314701259136191 6.4847473204135886 6.0113199055194846 5.905074179172515 162.96103724837303 5.6100281924009314 31.613030970096588 4.6349891573190689 5.5380492210388166 6.4451660811901084 6.2183514684438697 4.6099105626344672 4.6161282211542121
leaf_count=67 45 20 45 22 39 38 38 2277 35 20 23 20 29 23 29 20 86 26 22 21 20 551 24 137 20 24 28 27 20 20
internal_value=0 0.18283 0.198279 -0.079606 0.0230793 0.21002 0.0670086 -0.0899206 0.032775 0.221798 0.171796 0.212157 -0.0954676 -0.0961425 0.224514 0.225185 0.220002 0.226034 0.225445 0.232161 0.225901 0.225849 -0.0964836 -0.0965109 -0.0964784 -0.0965554 -0.096477 -0.096478 -0.0964661 -0.0964788
internal_weight=0 286.064 271.07 656.697 59.9433 260.686 19.8363 596.753 25.8118 240.85 12.4063 23.2244 570.941 563.969 228.444 222.629 31.3083 191.321 183.889 17.4838 175.351 168.866 558.485 36.7189 552.875 10.173 542.702 536.257 14.9938 530.039
internal_count=3816 1003 938 2813 239 893 76 2574 102 817 43 80 2472 2443 774 754 106 648 622 60 593 571 2420 159 2396 44 2352 2324 65 2297
is_linear=0
shrinkage=0.1


Tree=8
num_leaves=31
num_cat=0
split_feature=1 5 10 2 3 1 6 6 21 4 8 13 4 15 4 14 13 12 3 4 11 0 4 18 1 2 6 4 8 1
split_gain=1276.41 107.647 58.5879 30.7724 17.9851 13.4569 41.0512 4.46958 5.92779 0.0292418 0.0229612 0.0149805 0.0116559 0.000892435 0.000672482 0.00060616 0.000610147 0.000125406 0.000409542 0.000245202 0.000108708 7.26958e-05 7.04966e-05 3.80615e-05 1.83035e-05 1.464e-05 5.4845e-05 5.12126e-05 1.4226e-05 1.01881e-05
threshold=0.51468203734382922 -0.58806482737421562 1.664620275126969 1.1952193426373074 -0.72235557968445929 -0.034507709972840757 1.6143252015785587 3.2604535902658838 -0.32610255687672979 0.76362293574563622 -0.71039178733874186 -0.049825828552579575 4.3393039718316322 -0.30824381125245898 3.7993691684209101 2.791658572363394 2.011878989878777 0.88189222513929444 0.099233981700725712 0.25588546967205711 2.0460246536384346 2.3982804871532513 -0.2718189217629387 -0.48232757021735739 -0.25416501596188418 1.1216759143284352 0.55859250188756271 -2.2051626235374497 -0.71075495849136272 0.37133403203496873
decision_type=2 2 2 2 2 2 2 2 2 2 2 2 2 2 2 2 2 2 2 2 2 2 2 2 2 2 2 2 2 2
left_child=2 4 5 -4 -2 7 13 14 -9 10 -6 -12 15 23 17 16 -11 20 24 -20 21 25 -22 -7 28 -1 27 -27 -19 -25
right_child=1 -3 3 -5 9 6 -8 8 -10 12 11 -13 -14 -15 -16 -17 -18 18 19 -21 22 -23 -24 29 -26 26 -28 -29 -30 -31
leaf_value=-0.093475953968319536 -0.0054278389833737313 -0.093439160842489627 -0.093475622539617609 0.18426536315670194 0.18427373798274907 -0.09376899240311759 0.1880258638655351 0.030364982882360742 -0.093434085564720923 0.18426544485732038 0.18746080252508215 0.19424560508081751 0.18819596826817347 -0.09515685218109321 -0.094745903719088365 0.18527567486049951 0.18522970276205877 -0.093649636157824998 -0.093686292209470723 -0.094694154339486053 -0.092832368323755576 -0.093848760080686211 -0.093406785087845279 -0.093324790926608836 -0.093714364747021148 -0.09347410787433906 -0.093493551467293129 -0.093918780082003092 -0.093481299830641157 -0.093525557969956458
leaf_weight=370.66118203103542 5.0628328770399085 14.99455191195011 5.9205271899700191 12.228654861450194 8.6886296570301074 4.9085032343864485 7.0305039584636679 6.8591008186340323 8.8686365187168104 240.06777215003967 6.3984176814556122 6.6224605739116651 7.9900639653205863 4.4193393737077722 4.3661264181137076 6.42496234178543 6.7465950846672049 5.7413625270128241 4.4698382467031461 5.2481450438499451 4.1267005205154419 5.5628693103790274 4.4302842915058118 4.8365589380264264 4.4744224101304999 4.440174862742424 89.916361436247826 6.2155543416738492 39.970893681049347 5.2945541441440582
leaf_count=1753 20 71 28 38 27 23 22 27 42 746 20 21 25 20 20 20 21 27 21 24 20 26 21 23 21 21 425 29 189 25
internal_value=0 0.167785 -0.0833146 0.0936622 0.181386 -0.0887417 -0.0190803 -0.0920057 -0.0394435 0.184728 0.188255 0.190912 0.184435 -0.0939075 -0.0935098 0.184317 0.184292 -0.0934999 -0.0936364 -0.0942306 -0.093483 -0.0934894 -0.0931298 -0.0935404 -0.0935213 -0.0934851 -0.093519 -0.0937335 -0.0935024 -0.0934297
internal_weight=0 302.996 609.99 18.1492 288.002 591.841 26.4895 565.352 15.7277 282.939 21.7095 13.0209 261.229 19.459 549.624 253.239 246.814 545.258 59.9047 9.71798 485.353 476.796 8.55698 15.0396 50.1867 471.233 100.572 10.6557 45.7123 10.1311
internal_count=3816 971 2845 66 900 2779 113 2666 69 880 68 41 812 91 2597 787 767 2577 282 45 2295 2254 41 71 237 2228 475 50 216 48
is_linear=0
shrinkage=0.1


Tree=9
num_leaves=31
num_cat=0
split_feature=9 6 20 21 1 3 4 20 5 9 4 0 15 7 1 19 19 4 13 23 13 6 8 11 1 3 2 14 1 3
split_gain=1295.97 198.412 75.8699 0.116402 0.00174362 0.00167213 0.000827952 0.000199264 0.00017226 0.000171624 0.000146121 0.000108382 6.08955e-05 4.34814e-05 0.000136055 0.000164434 5.23758e-05 3.43177e-05 2.37659e-05 3.40495e-05 1.76243e-05 1.34561e-05 1.26088e-05 1.07343e-05 1.25785e-05 1.01165e-05 8.95885e-06 7.87092e-06 7.82511e-06 1.38697e-05
threshold=1.3002791314935773 -0.31391617230087437 0.073994432920374845 -0.52788035257484034 -0.67886754850921238 0.21649919552966052 2.7023696016606076 0.11501663376854222 -2.0196698074059367 1.2370998336830683 4.3393039718316322 -2.7453441710703657 0.3510216921615838 1.1627734894850132 -0.18040149706524192 -0.13878979259098423 -0.33152164366695053 1.9112354782351799 2.5036645794749721 -0.64922596088998996 0.75218518048865413 4.3167649290111081 -0.71075495849136272 1.0235462060644951 -0.18141904356769026 -2.3866350579877733 0.52985922402305119 3.1833960893809361 -0.25416501596188418 0.41742335470879982
decision_type=2 2 2 2 2 2 2 2 2 2 2 2 2 2 2 2 2 2 2 2 2 2 2 2 2 2 2 2 2 2
left_child=8 2 3 -2 -5 -6 7 12 -1 10 13 -7 17 18 20 16 -16 -3 21 -20 22 23 -15 25 -25 -10 -4 -27 -24 -30
right_child=1 6 26 4 5 11 -8 -9 9 -11 -12 -13 -14 14 15 -17 -18 -19 19 -21 -22 -23 28 24 -26 27 -28 -29 29 -31
leaf_value=-0.094020462160434831 0.17073705403081335 -0.093485355198012376 -0.093463801913473157 0.18587069686112745 0.18580004059587918 0.18468157821610937 -0.094965449504084698 -0.092969989202370665 -0.093315868695112561 -0.093972394572155088 -0.092958925608106216 0.18426637778325344 -0.093990471029962872 -0.093647810807211643 -0.093267301726509932 -0.094160323296087201 -0.093711265660219284 -0.093813475259992285 -0.093468001174900159 -0.09315430712572334 -0.093288766037953996 -0.093340545544200959 -0.093479405822658873 -0.093485809733394279 -0.093680235361237929 -0.093473610080655661 -0.093654074116508154 -0.093357183408215916 -0.093710069328059295 -0.093476802907483503
leaf_weight=6.0200918316841117 6.4131845235824576 10.99855639040471 5.9169381856918317 7.3766106963157645 7.382035791873931 6.4315376281738272 4.8350641280412665 4.9770179241895667 4.2054595798254004 7.0655682384967795 5.4033371806144705 279.64955139160156 4.72799427807331 5.315754920244216 4.1971387565135965 7.1264972239732733 7.2427763938903817 4.488275632262229 8.4557007998228055 5.8568816334009162 4.1967787295579901 7.7886524796485892 84.58935372531414 8.8837032467126829 5.3203804641962043 376.97753293812275 4.2534598112106323 5.8974174857139579 4.2611034214496595 6.343667596578598
leaf_count=28 20 52 28 23 23 20 22 24 20 33 26 869 22 25 20 33 34 21 40 28 20 37 400 42 25 1783 20 28 20 30
internal_value=0 0.151931 0.175173 0.184068 0.184352 0.184314 -0.0937668 -0.0935368 -0.0934884 -0.0934827 -0.0934764 0.184276 -0.0936763 -0.0934815 -0.0935338 -0.0937833 -0.0935484 -0.0935804 -0.0934663 -0.0933396 -0.0934895 -0.0934707 -0.0934979 -0.0934733 -0.0935586 -0.0934701 -0.0935434 -0.0934718 -0.0934896 -0.0935705
internal_weight=0 347.45 317.423 307.253 300.84 293.463 30.0269 25.1918 565.148 559.128 552.062 286.081 20.2148 546.659 123.273 18.5664 11.4399 15.4868 423.386 14.3126 104.707 409.073 100.51 401.284 14.2041 387.08 10.1704 382.875 95.1941 10.6048
internal_count=3816 1144 1003 955 935 912 141 119 2672 2644 2611 889 95 2585 582 87 54 73 2003 68 495 1935 475 1898 67 1831 48 1811 450 50
is_linear=0
shrinkage=0.1


Tree=10
num_leaves=31
num_cat=0
split_feature=5 20 2 14 2 4 13 6 4 15 18 3 13 1 3 4 6 22 1 1 11 19 1 6 11 6 13 13 1 11
split_gain=1270.99 208.751 93.0989 0.204396 0.0139196 0.00746279 0.00211385 0.000652631 0.000245375 0.00023429 0.000175391 0.000141422 8.5881e-05 0.000204777 7.28535e-05 0.000200699 3.78418e-05 0.000113223 8.17199e-05 0.00013845 0.000125571 8.14027e-05 3.85027e-05 3.43031e-05 1.82195e-05 1.62179e-05 1.32564e-05 8.94507e-06 8.76783e-06 7.60161e-06
threshold=-0.88393257594573493 0.073994432920374845 0.19784072894823437 3.1833960893809361 0.88183545091702731 -0.88445275791321898 2.5036645794749721 -0.79848060728595494 4.9766511054035947 -0.73679948381194704 -2.0401425348653746 0.63321858525996311 2.8722608330698129 -0.33935242639385099 0.60920053179286571 -0.26131159028221168 0.14011573308107902 0.36768063258315276 -0.18040149706524192 0.375920429971144 0.57394229078354497 -0.13878979259098423 0.76955385775967156 0.12434772158388822 0.21532992829338823 4.3167649290111081 -0.81469097080144226 0.94398772400322384 -0.67886754850921238 1.5879352258349386
decision_type=2 2 2 2 2 2 2 2 2 2 2 2 2 2 2 2 2 2 2 2 2 2 2 2 2 2 2 2 2 2
left_child=1 2 -1 8 7 -2 10 -3 9 -4 -7 12 16 -14 27 -16 23 -18 24 20 21 -20 -21 28 -19 26 -26 29 -11 -12
right_child=5 4 3 -5 -6 6 -8 -9 -10 11 14 -13 13 -15 15 -17 17 18 19 22 -22 -23 -24 -25 25 -27 -28 -29 -30 -31
leaf_value=0.18567855401354405 0.18780596775869929 0.18547294139368098 -0.0941671527674834 -0.072237244755253546 0.18990664661387124 0.18476855068396869 0.18605389480495249 0.18428385189881416 -0.094165425797968882 -0.093613238021940604 0.18426836065142721 -0.094038055174346241 -0.094316345527610312 -0.093454287769841465 0.1849279379954033 0.18426301961596589 -0.093950459575193379 -0.093664267475275453 -0.093738283136212061 -0.093585711446651607 -0.093483882764762896 -0.094296138568236654 -0.093244141686876558 -0.093205632417608486 -0.093651988538770783 -0.093338090771853344 -0.093484604497988927 0.18417900028579967 -0.093478333449552822 0.18437874419869338
leaf_weight=12.197590619325636 6.3916950523853293 6.421827018260962 5.4003973603248587 4.547548532485961 6.3644725084304801 7.716296672821044 7.0576910376548758 16.411623984575272 5.7936145067214957 4.8821292072534552 204.66802939772606 4.9443365186452857 4.3207709789276123 7.6066198348999006 6.4288264513015774 15.446783572435377 6.2247157096862784 5.7440335899591437 4.4771963506937054 7.2149779647588712 5.7035578638315192 6.2914408594369915 6.0820920765399933 4.6098393350839606 4.8909726887941352 7.3670371919870368 145.09476873278618 10.943034350872038 364.98987263441086 6.4348885416984549
leaf_count=38 20 20 25 21 20 24 22 51 27 23 636 23 20 36 20 48 29 27 21 34 27 29 29 22 23 35 686 34 1726 20
internal_value=0 -0.075517 -0.0878541 -0.0933581 0.185771 0.18443 0.184347 0.184618 -0.0935178 -0.0935115 0.184299 -0.0935055 -0.093501 -0.0937666 0.184284 0.184458 -0.0934955 -0.0935307 -0.0935171 -0.0936695 -0.0938633 -0.0940642 -0.0934295 -0.0934767 -0.0934893 -0.0934829 -0.0934901 0.184267 -0.0934801 0.184272
internal_weight=0 647.581 618.384 606.186 29.1979 265.087 258.696 22.8335 601.638 595.845 251.638 590.444 585.5 11.9274 243.922 21.8756 573.573 199.091 192.866 29.7693 16.4722 10.7686 13.2971 374.482 163.097 157.353 149.986 222.046 369.872 211.103
internal_count=3816 2992 2901 2863 91 824 804 71 2842 2815 782 2790 2767 56 758 68 2711 940 911 140 77 50 63 1771 771 744 709 690 1749 656
is_linear=0
shrinkage=0.1


Tree=11
num_leaves=31
num_cat=0
split_feature=6 11 10 7 2 1 0 6 4 4 1 13 6 1 0 19 22 3 13 9 13 1 3 6 1 5 3 6 1 19
split_gain=1062.43 162.814 65.3402 56.8806 67.6216 27.6058 32.7253 12.4428 40.0248 3.43508 2.14176 0.773337 0.525881 1.519 0.165543 0.246167 0.0168901 0.00569298 0.00438093 0.00260767 0.00247367 0.00140151 0.00524564 0.000479065 0.0003808 0.000172969 9.13629e-05 4.07399e-05 1.22616e-05 1.02563e-05
threshold=0.44679921802719463 0.12318818814342204 1.664620275126969 -1.1611539957098145 0.88183545091702731 0.09545487113347477 0.22201904170195763 0.14011573308107902 1.1364396503344298 4.9766511054035947 -0.15237432427564052 2.6542287336984196 3.3447272717406471 -0.3732931575725465 0.1093283534378713 -0.48338269851995969 0.46402845531722453 0.50409771031127903 -0.14617697033134677 0.32834464006420755 -0.81469097080144226 -0.25416501596188418 0.42120909974159942 0.12434772158388822 -1.2928493191813624 -2.0196698074059367 0.60306912551344982 0.83753100342044595 2.9001730610596712 -0.94377261769283505
decision_type=2 2 2 2 2 2 2 2 2 2 2 2 2 2 2 2 2 2 2 2 2 2 2 2 2 2 2 2 2 2
left_child=3 -2 5 4 -1 10 -7 9 19 11 12 23 14 -14 15 -3 -16 20 -6 28 -18 24 -23 25 -22 -5 -27 -26 -9 -29
right_child=1 2 -4 7 18 6 -8 8 -10 -11 -12 -13 13 -15 16 -17 17 -19 -20 -21 21 22 -24 -25 27 26 -28 29 -30 -31
leaf_value=-0.093474371828371927 -0.09346570104308291 0.18646169238402005 -0.09347604500592091 -0.094020509573919303 0.18421972596802572 0.16577624684348738 -0.094246776542766253 -0.093469276736816265 0.17579045617051353 -0.0024404510452530424 0.13820811042070766 -0.0520495062127036 0.20345083603266262 0.14156481345135918 0.18977368251693474 0.15901717713183011 0.18637881677382617 0.18685639223740763 0.18753214276140626 -0.096155223373999676 0.18496878802439767 0.18740539733576134 0.18426727898086329 -0.094515173207326164 0.18401581185998903 -0.093476923883157217 -0.09390053919767466 0.1841400738421094 -0.09365573277088024 0.18426584608528321
leaf_weight=17.760850861668587 26.633059933781624 6.7311508655548096 9.5152640193700773 6.0201011896133414 10.620445400476457 11.83694624900818 8.1884434819221479 11.415767744183549 7.3896740674972525 4.2104870826005927 11.172764539718626 4.5416591316461554 6.5060187876224544 10.159688919782637 6.3727481365203849 6.3528982698917371 6.4124751389026633 10.247913271188734 6.3982217013835898 4.8927687406539908 7.7140448093414298 7.0405216217041042 21.882785201072693 4.5787068903446189 7.0827320218086234 495.64515483379364 5.1441147178411475 6.7593804597854605 5.1036781817674628 158.97238525748253
leaf_count=84 126 21 45 28 33 38 38 54 24 18 36 20 21 32 20 20 20 32 20 22 24 22 68 21 22 2344 24 21 24 494
internal_value=0 0.143583 0.164423 -0.0809977 0.0430191 0.172786 0.059452 -0.0888551 -0.0248749 -0.0923979 0.181087 -0.093132 0.182914 0.165724 0.184081 0.173136 0.184697 0.184553 0.185465 -0.0941275 0.184444 0.184385 0.185031 -0.0934969 0.184281 -0.0934877 -0.0934813 0.184251 -0.0935269 0.184261
internal_weight=0 329.581 302.948 583.722 34.7795 293.433 20.0254 548.942 28.8019 520.14 273.408 515.93 262.235 16.6657 245.569 13.084 232.485 226.112 17.0187 21.4122 215.864 209.452 28.9233 511.388 180.529 506.809 500.789 172.814 16.5194 165.732
internal_count=3816 1100 974 2716 137 929 76 2579 124 2455 853 2437 817 53 764 41 723 703 53 100 671 651 90 2417 561 2396 2368 537 78 515
is_linear=0
shrinkage=0.1


Tree=12
num_leaves=31
num_cat=0
split_feature=1 5 10 2 3 1 6 6 18 3 3 10 4 5 14 7 22 3 17 2 11 0 4 20 2 1 1 7 23 11
split_gain=1013.22 79.114 50.0824 23.3504 13.0174 12.5119 45.7787 1.56585 2.23333 0.0252293 0.0118153 0.0110056 0.00120696 0.0009777 0.000864873 0.000702968 0.000268134 0.000260116 0.000166787 0.000543948 7.89041e-05 4.9636e-05 4.60474e-05 2.82663e-05 2.50821e-05 6.29823e-05 1.68213e-05 1.45462e-05 5.41494e-05 1.22429e-05
threshold=0.51468203734382922 -0.58806482737421562 1.664620275126969 1.1952193426373074 -0.72235557968445929 -0.15237432427564052 1.6143252015785587 3.3447272717406471 0.23734101131767213 0.22869332185734029 -0.70430724915420451 -0.08178371599581756 3.7993691684209101 -0.48769487124252214 2.791658572363394 -0.019516132394580707 -3.0465496168752462 -0.044213420130013732 0.79996466756813012 0.52638603453574784 2.0460246536384346 2.3982804871532513 -0.2718189217629387 -0.47990374035821265 1.2108958788467319 -0.2510801750838656 -1.4408327979197137 2.5946321122360847 -0.65013558441919594 2.0190586413837188
decision_type=2 2 2 2 2 2 2 2 2 2 2 2 2 2 2 2 2 2 2 2 2 2 2 2 2 2 2 2 2 2
left_child=2 4 5 -4 -2 7 13 12 -9 10 -6 -11 18 17 15 16 -12 -7 20 -20 21 24 -22 -15 26 -26 -1 29 -29 -28
right_child=1 -3 3 -5 9 6 -8 8 -10 11 14 -13 -14 23 -16 -17 -18 -19 19 -21 22 -23 -24 -25 25 -27 27 28 -30 -31
leaf_value=-0.091108762553737288 -0.0047317614192724624 -0.090856765171786799 -0.090891720011482158 0.15776843564852636 0.16211376734804148 -0.091658967651551737 0.1764387223061547 -0.093963937162519023 -0.0086599720640798544 0.16363895053442445 0.15837869445182839 0.15874784333998909 -0.092654435875898486 -0.09089503234057926 0.15893679880066827 0.15882393942964221 0.15776420701971849 -0.092649826007215663 -0.090865077116654105 -0.092244754469885892 -0.09034115231021228 -0.091225898303463643 -0.090828147408655635 -0.090582764460293216 -0.090928171759463591 -0.091381371897298919 -0.090896934142396704 -0.091210679970222946 -0.090903878367178781 -0.091030724814528952
leaf_weight=4.0750629454851142 4.9879409521818152 13.637838825583456 5.3861712962389019 12.635955989360808 6.6237083673477164 6.9386036694049835 8.331874728202818 6.7024562358856183 5.6616466641426086 11.556722968816759 7.3124101459980002 7.6428337693214408 4.0426311790943137 12.312921345233919 6.9777484536170951 6.6447302401065818 245.73668161034584 4.2858544588089007 9.9917171448469144 4.0022398680448523 3.7475517988204956 5.0677213966846457 4.0289702713489524 3.7913517504930487 14.06305053830147 3.9215699583291999 396.72067961096764 7.2087107598781577 28.483722299337387 6.9596166163682929
leaf_count=21 20 71 28 38 20 35 26 32 25 35 22 23 20 64 21 20 739 21 52 20 20 26 21 20 73 20 2062 37 148 36
internal_value=0 0.144659 -0.0805364 0.0834528 0.155456 -0.086006 -0.0287605 -0.0900509 -0.0549024 0.158188 0.157942 0.161692 -0.0909337 -0.0913209 0.157838 0.157809 0.157782 -0.0920373 -0.0909194 -0.0912597 -0.0909094 -0.0909146 -0.0905935 -0.0908215 -0.0909112 -0.091027 -0.0909065 -0.0909047 -0.0909658 -0.0908992
internal_weight=0 311.121 558.36 18.0221 297.483 540.338 35.6606 504.677 12.3641 292.495 273.295 19.1996 492.313 27.3287 266.672 259.694 253.049 11.2245 488.271 13.994 474.277 466.5 7.77652 16.1043 461.432 17.9846 443.448 439.373 35.6924 403.68
internal_count=3816 971 2845 66 900 2779 166 2613 57 880 822 58 2556 140 802 781 761 56 2536 72 2464 2423 41 84 2397 93 2304 2283 185 2098
is_linear=0
shrinkage=0.1


Tree=13
num_leaves=31
num_cat=0
split_feature=9 6 20 3 21 4 8 5 9 4 20 7 1 1 19 6 6 0 15 1 7 7 4 15 3 5 13 6 1 14
split_gain=1040.58 147.908 55.529 0.100947 0.00334238 0.00131259 0.000981106 0.000362599 0.000314526 0.00017756 0.00014779 8.19573e-05 0.000252279 0.000308773 7.70932e-05 6.64224e-05 5.80925e-05 4.98358e-05 4.26973e-05 3.92287e-05 3.33159e-05 3.3191e-05 3.00518e-05 2.86419e-05 2.5194e-05 2.15339e-05 1.97986e-05 3.90922e-05 1.26334e-05 9.28182e-06
threshold=1.3002791314935773 -0.31391617230087437 0.073994432920374845 0.21649919552966052 -0.52520355867215507 2.7023696016606076 -0.70790253147052307 -2.0196698074059367 1.2370998336830683 4.3393039718316322 0.11501663376854222 1.0512258438431707 -0.18040149706524192 0.375920429971144 -0.19095059973591602 5.330138717571324 3.2604535902658838 -2.7453441710703657 0.3510216921615838 0.66006712609738305 1.5080226518215669 0.87907904577410401 1.9112354782351799 -0.28863934189036339 0.26681797654474787 -0.48769487124252214 2.5036645794749721 0.25642080831548847 -0.67886754850921238 3.1833960893809361
decision_type=2 2 2 2 2 2 2 2 2 2 2 2 2 2 2 2 2 2 2 2 2 2 2 2 2 2 2 2 2 2
left_child=7 2 3 -2 -5 10 17 -1 9 11 18 15 23 14 -14 16 21 -6 22 -15 -16 26 -3 -13 -18 -25 29 -28 -19 -9
right_child=1 5 -4 4 6 -7 -8 8 -10 -11 -12 12 13 19 20 -17 24 28 -20 -21 -22 -23 -24 25 -26 -27 27 -29 -30 -31
leaf_value=-0.091721050257336345 0.14645925628121564 -0.090913306662327276 -0.090946987908082144 0.15996826627132962 0.15804263247636224 -0.092836224825867064 0.15883394804028989 -0.09088985303093132 -0.091600688553636248 -0.090298843589752376 -0.090452714287678093 -0.09115216195710639 -0.091269200974609804 -0.091064091769289729 -0.091596756352009492 -0.090510240853894822 -0.090928808405175046 0.15763285778323527 -0.091366230085064337 -0.090637030382223857 -0.092005683737055283 -0.090606136194416181 -0.091234875037534163 -0.090908467858226996 -0.091231154125713337 -0.090671063261550722 -0.090500818365928548 -0.090892340819625231 0.15776902622435263 -0.090759466041208534
leaf_weight=5.5474116504192343 7.974152296781539 10.011347740888604 9.2531170845031721 7.3046460449695578 6.649366855621337 4.4814595729112616 8.9655315279960615 342.5600561350584 6.4750272929668418 4.8777031898498526 4.5202086865901938 4.6652398258447638 4.1002518832683563 4.0678091496229154 3.9536372572183627 4.7324462682008734 4.6232924163341504 6.9835873246192923 4.3117208480834952 4.5644271671772003 4.0161273777484894 4.3641655892133704 4.0948837399482718 88.354302227497101 6.8240870833396912 3.9933956414461127 3.9741361737251264 7.1176219284534454 279.65355271100998 5.5480724126100531
leaf_count=28 24 52 48 22 20 22 27 1781 33 26 24 24 21 21 20 25 24 21 22 24 20 23 21 459 35 21 21 37 841 29
internal_value=0 0.131813 0.150532 0.157568 0.157855 -0.0912709 0.157803 -0.0909169 -0.0909082 -0.0908993 -0.0909651 -0.0909051 -0.090978 -0.0912949 -0.0916215 -0.0908825 -0.0908872 0.157772 -0.0910908 -0.0908383 -0.0918028 -0.0908803 -0.0910067 -0.0909104 -0.091109 -0.0908982 -0.0908836 -0.0907521 0.157766 -0.0908878
internal_weight=0 354.204 326.784 317.531 309.557 27.4196 302.252 514.359 508.812 502.337 22.9382 497.459 117.715 20.7023 12.07 379.744 375.011 293.287 18.418 8.63224 7.96976 363.564 14.1062 97.0129 11.4474 92.3477 359.2 11.0918 286.637 348.108
internal_count=3816 1144 1003 955 931 141 909 2672 2644 2611 119 2585 610 106 61 1975 1950 882 95 45 40 1891 73 504 59 480 1868 58 862 1810
is_linear=0
shrinkage=0.1


Tree=14
num_leaves=31
num_cat=0
split_feature=5 20 2 14 4 0 13 15 4 17 0 7 6 6 1 1 0 19 8 13 3 4 8 11 4 6 3 23 7 21
split_gain=998.626 170.967 77.1475 0.217602 0.0140993 0.00965387 0.0023504 0.000450567 0.000457852 0.00024513 0.000453642 0.000241359 8.62905e-05 9.70141e-05 0.000146699 0.000239879 0.00013397 0.00017187 0.000132024 6.72925e-05 3.92393e-05 0.000113547 3.12978e-05 2.7619e-05 2.63241e-05 2.15034e-05 2.12415e-05 1.64475e-05 1.11663e-05 1.33564e-05
threshold=-0.88393257594573493 0.073994432920374845 0.19784072894823437 3.1833960893809361 -0.88445275791321898 -0.34402535917882943 2.5036645794749721 -0.73679948381194704 4.9766511054035947 0.79996466756813012 0.71192701812042714 1.0512258438431707 5.330138717571324 0.1712526414144829 -0.18040149706524192 -0.034507709972840757 0.22201904170195763 -0.17830949195484852 -0.70834555616132222 -0.20356951028259818 0.60920053179286571 -0.26131159028221168 -0.71075495849136272 -0.10728714234436833 3.7993691684209101 3.3447272717406471 0.25930387462821353 -0.64661178881687487 4.3116502165560151 -0.45129436667418843
decision_type=2 2 2 2 2 2 2 2 2 2 2 2 2 2 2 2 2 2 2 2 2 2 2 2 2 2 2 2 2 2
left_child=1 2 -1 7 -2 -3 11 -4 9 12 -11 20 13 24 18 -16 17 -17 22 -18 -6 -22 -15 -7 28 27 -27 -24 -9 -30
right_child=4 5 3 -5 6 23 -8 8 -10 10 -12 -13 -14 14 15 16 19 -19 -20 -21 21 -23 25 -25 -26 26 -28 -29 29 -31
leaf_value=0.15928752537302937 0.16252031045779339 0.16157731465858882 -0.091897830005875591 -0.068110132849637642 0.15776640618203419 0.15758755861386931 0.15961366688600412 -0.09089667352133167 -0.091867545349943236 -0.090862330851214812 -0.092248148603543176 0.15838986775022079 -0.090481064510118461 -0.091164774203601709 -0.091689448556686648 -0.09082958796830122 -0.091000958927466402 -0.091662992607918797 -0.091355330736698326 -0.090474079290902926 0.15822976183119852 0.15776105638312926 -0.090904063730750176 0.15782715458221788 -0.090662845051337523 -0.090901677474956338 -0.091211791385500618 -0.091084862266860536 -0.09114929473247356 -0.090895244644861484
leaf_weight=12.619195222854612 6.6088938713073722 9.6002974808216113 4.9874383360147467 4.2027255445718756 228.44504761695862 7.6488806605339077 7.3059156835079184 323.23098909854889 5.3039804995059958 5.7633782178163511 4.0025538057088852 6.6465329229831687 4.3485220521688452 5.445554867386817 7.3407912105321911 4.6017820537090328 5.2169197499752045 5.3529152423143378 7.6407926529645911 4.5280348956584913 7.3134669065475491 17.623910188674927 132.79681846499443 12.968021333217619 4.7630963623523703 4.0409470051527006 4.8713393211364746 5.2298080772161475 3.8874848186969757 4.4249947369098646
leaf_count=38 20 29 25 21 687 23 22 1680 27 30 20 20 23 28 37 24 27 27 39 24 22 53 690 39 25 21 25 27 20 23
internal_value=0 -0.0727858 -0.0851886 -0.0907778 0.157958 0.158958 0.157845 -0.0909517 -0.090943 -0.0909339 -0.0914303 0.157795 -0.0909247 -0.0909284 -0.0909861 -0.0912015 -0.0910197 -0.0912777 -0.0909497 -0.0907561 0.157779 0.157899 -0.0909294 0.157738 -0.0908963 -0.0909206 -0.0910712 -0.0909109 -0.0908996 -0.0910141
internal_weight=0 594.817 564.6 551.981 273.944 30.2172 267.335 547.778 542.791 537.487 9.76593 260.029 527.721 523.372 187.066 27.0404 19.6997 9.9547 160.025 9.74495 253.382 24.9374 152.384 20.6169 336.307 146.939 8.91229 138.027 331.543 8.31248
internal_count=3816 2992 2901 2863 824 91 804 2842 2817 2790 50 782 2740 2717 969 139 102 51 830 51 762 75 791 62 1748 763 46 717 1723 43
is_linear=0
shrinkage=0.1


Tree=15
num_leaves=31
num_cat=0
split_feature=6 11 7 2 10 1 12 6 4 4 6 21 13 20 17 23 18 1 9 8 7 7 9 19 1 3 5 6 0 13
split_gain=850.043 121.482 49.6917 52.4371 48.1446 18.9803 29.059 11.3797 32.0172 3.3058 1.64813 3.17351 0.787569 0.616587 0.159273 0.231495 0.076173 0.0642823 0.011546 0.00438951 0.00232317 0.00211324 0.00173854 0.000555108 0.000455692 0.00143628 0.000363633 0.000297251 0.000178885 0.000134324
threshold=0.44679921802719463 0.12318818814342204 -1.1611539957098145 0.88183545091702731 1.664620275126969 1.0000000180025095e-35 0.88308336742742732 0.14011573308107902 1.1364396503344298 4.9766511054035947 3.2604535902658838 -0.32610255687672979 2.6542287336984196 -0.1987339489253043 -0.52797595339603287 -0.65470611175227988 -0.7705006605709892 -0.18040149706524192 1.4065597282007376 -0.71075495849136272 -1.2000540404757236 1.2841613286827391 0.32834464006420755 -0.12821282785642482 -0.25416501596188418 0.42905587112907756 -2.0196698074059367 0.12434772158388822 0.13713773814730451 -0.72263048876959746
decision_type=2 2 2 2 2 2 2 2 2 2 2 2 2 2 2 2 2 2 2 2 2 2 2 2 2 2 2 2 2 2
left_child=2 -2 3 -1 5 10 21 9 22 12 14 -12 26 -8 15 16 23 18 19 -16 -5 -7 -9 -3 28 -26 -4 -28 -21 -30
right_child=1 4 7 20 -6 6 13 8 -10 -11 11 -13 -14 -15 17 -17 -18 -19 -20 24 -22 -23 -24 -25 25 -27 27 -29 29 -31
leaf_value=-0.09089308878282612 -0.090876012242640664 0.15892814641289874 -0.091721092545775082 0.15765777914533718 -0.090893803095285663 -0.094211643739275736 0.16543419520076963 -0.090931850301777944 0.14929308803693062 -0.00080036423031656337 0.080205519586013269 0.15942866061036509 -0.047911985350695713 0.12310559367046361 0.1601491283947668 0.13477845896786894 0.14588669596660164 0.16618585303789318 0.16218116256608345 0.15820777573918676 0.16002768751441732 -0.090966156898029157 -0.093178498531312354 0.15783587376266395 0.15942415522953643 0.15775198981672325 -0.090898902736849946 -0.091747077151596398 0.15820497856957189 0.15774616956912518
leaf_weight=16.159414917230606 24.221067801117897 6.9774931669235274 5.5474203675985327 10.974042177200319 8.6570857018232328 4.17888543009758 7.5950867235660553 15.027914941310888 7.7087415009737006 4.142750769853591 8.2942153215408343 12.952430516481398 4.2979064881801596 6.2924288809299469 8.631211578845976 6.9124378263950339 6.6099324226379421 10.229518353939055 6.6272003650665274 9.6404701471328718 6.6385600566864005 3.858925923705101 4.4686256200075141 13.965348511934277 7.3074291646480587 17.291421085596085 455.63697172701359 4.1697426438331595 6.6484690904617301 158.61654841899872
leaf_count=84 126 21 28 33 45 20 23 78 24 18 26 39 20 20 26 21 20 31 20 29 20 20 22 42 22 52 2368 21 20 477
internal_value=0 0.124843 -0.0782124 0.0391957 0.141628 0.148279 0.0586714 -0.0861268 -0.023232 -0.0897382 0.155279 0.128502 -0.0905228 0.146255 0.157471 0.151141 0.155246 0.158441 0.158072 0.157941 0.158551 -0.0926535 -0.0914468 0.1582 0.157846 0.158249 -0.0909163 -0.0909066 0.157789 0.157765
internal_weight=0 335.508 534.772 33.772 311.287 302.629 21.9253 501 27.2053 473.795 280.704 21.2466 469.652 13.8875 259.457 34.4652 27.5528 224.992 214.763 208.136 17.6126 8.03781 19.4965 20.9428 199.504 24.5989 465.354 459.807 174.905 165.265
internal_count=3816 1100 2716 137 974 929 83 2579 124 2455 846 65 2437 43 781 104 83 677 646 626 53 40 100 63 600 74 2417 2389 526 497
is_linear=0
shrinkage=0.1


Tree=16
num_leaves=31
num_cat=0
split_feature=1 5 10 6 1 6 3 6 18 6 10 15 4 14 5 5 19 17 2 3 11 2 6 4 22 4 10 3 23 7
split_gain=820.667 60.542 42.9384 16.6687 11.431 37.6871 9.91277 1.60484 2.12724 0.0304887 0.0146381 0.00590424 0.00176857 0.00106987 0.000781453 0.000385489 0.000256855 0.000244568 0.000802725 0.00018087 5.83062e-05 3.4297e-05 6.99393e-05 4.58173e-05 4.84547e-05 3.01348e-05 2.70045e-05 1.67168e-05 1.60986e-05 8.76652e-06
threshold=0.51468203734382922 -0.58806482737421562 1.664620275126969 1.1588806535721969 -0.15237432427564052 1.6143252015785587 -0.72235557968445929 3.3447272717406471 0.23734101131767213 0.13619633610301385 -0.08178371599581756 -0.73679948381194704 3.7993691684209101 2.791658572363394 -0.48769487124252214 -1.1483941797123527 1.736783331368837 0.79996466756813012 0.60037400568373334 -0.56326998794595717 2.0460246536384346 1.1216759143284352 0.88671010492885471 -2.4836542623059343 0.36768063258315276 -0.2718189217629387 0.75366693949147912 0.50409771031127903 -0.26810352250657471 4.3116502165560151
decision_type=2 2 2 2 2 2 2 2 2 2 2 2 2 2 2 2 2 2 2 2 2 2 2 2 2 2 2 2 2 2
left_child=2 6 4 -4 7 14 -2 12 -9 11 -11 -8 17 15 19 16 -13 20 -19 -6 21 29 23 -23 -25 -22 -26 -24 -16 -1
right_child=1 -3 3 -5 5 -7 9 8 -10 10 -12 13 -14 -15 28 -17 -18 18 -20 -21 25 22 27 24 26 -27 -28 -29 -30 -31
leaf_value=-0.088670296994302206 -0.0036311172300462339 -0.088632384008092466 -0.074118014518038816 0.13954501628571284 -0.089397310544741454 0.15584599593656004 0.14263102667793878 -0.091696651555184222 -0.0062697342459448607 0.14580489435893357 0.14025407234833034 0.13954144295159696 -0.090888021094704036 0.14080593011367531 -0.088423893138321441 0.14033083646259226 0.14015734110189582 -0.088642674036703131 -0.090422672513704644 -0.090250158164041805 -0.088186531574477062 -0.088644047662493675 -0.08869375641946825 -0.089239792891611172 -0.089097323952565533 -0.088601270008549615 -0.088766023765638538 -0.088892928256631296 -0.088671722256464983 -0.088778492955694108
leaf_weight=283.90937879681587 4.8879335820674887 12.320459395647047 5.1991323977708843 12.264102488756178 5.942182183265686 8.4162092208862287 6.6414713859558097 6.1466338187456113 5.5440893769264221 12.594127237796785 7.6285498440265647 243.95511445403099 3.7262425124645224 7.3017687499523154 3.4286656826734534 6.6339918673038474 6.9645838737487784 9.201811730861662 3.4961307048797599 4.2762488722801208 3.3790654540061951 5.3827493935823467 103.74654017388821 5.0056836903095272 3.5459552258253089 3.6382805705070487 8.0360527336597425 4.3924317359924308 11.128403931856155 7.6915590763092032
leaf_count=1633 20 71 29 37 33 26 20 32 25 38 23 736 20 22 20 20 21 53 19 23 20 31 596 28 20 21 46 25 64 44
internal_value=0 0.128576 -0.0781502 0.0759335 -0.0836413 -0.0269786 0.137599 -0.0877581 -0.0511847 0.139965 0.143711 0.139686 -0.0887186 0.139612 -0.0890839 0.139578 0.139559 -0.0887003 -0.0891328 -0.0897542 -0.0886874 -0.0886922 -0.0887349 -0.0888976 -0.0889798 -0.0884016 -0.0888675 -0.0887018 -0.0886134 -0.0886732
internal_weight=0 308.928 507.498 17.4632 490.034 33.1917 296.608 456.843 11.6907 291.72 20.2227 271.497 445.152 264.855 24.7755 257.554 250.92 441.426 12.6979 10.2184 428.728 421.71 130.109 21.9704 16.5877 7.01735 11.582 108.139 14.5571 291.601
internal_count=3816 971 2845 66 2779 166 900 2613 57 880 61 819 2556 799 140 777 757 2536 72 56 2464 2423 746 125 94 41 66 621 84 1677
is_linear=0
shrinkage=0.1


Tree=17
num_leaves=31
num_cat=0
split_feature=9 6 20 21 4 3 1 5 9 4 20 11 2 19 7 13 18 4 20 6 13 1 4 14 21 3 16 1 14 11
split_gain=849.99 114.506 42.3493 0.110896 0.00178824 0.00172977 0.000621129 0.000595092 0.000479578 0.000174649 0.000103487 7.91611e-05 0.000167275 0.000247892 0.000114068 5.00141e-05 4.45967e-05 3.52732e-05 6.64198e-05 3.303e-05 2.61155e-05 2.45609e-05 2.10926e-05 1.93114e-05 1.71211e-05 2.00424e-05 1.17909e-05 1.14031e-05 1.03132e-05 5.97111e-06
threshold=1.3002791314935773 -0.31391617230087437 0.073994432920374845 -0.52788035257484034 2.7023696016606076 0.21649919552966052 -0.67886754850921238 -2.0196698074059367 1.2370998336830683 4.3393039718316322 0.073994432920374845 0.15067835903737017 1.2108958788467319 -0.14716542358952758 1.2728953053836758 2.6542287336984196 0.22740331075067838 -2.4836542623059343 0.070568028351943687 3.2604535902658838 -1.7552559602893851 -0.034507709972840757 -1.1513794705259406 -0.19250199570551721 -0.37490817089454481 0.25725854981089263 -0.66002490576610273 -0.19522562427379633 3.1833960893809361 0.25334102944223985
decision_type=2 2 2 2 2 2 2 2 2 2 2 2 2 2 2 2 2 2 2 2 2 2 2 2 2 2 2 2 2 2
left_child=7 2 3 -2 10 -5 -7 -1 9 11 17 15 19 16 -15 22 27 -3 -19 21 -8 26 -9 -18 -21 -26 -13 -14 -24 -28
right_child=1 4 -4 5 -6 6 20 8 -10 -11 -12 12 13 14 -16 -17 23 18 -20 24 -22 -23 28 -25 25 -27 29 -29 -30 -31
leaf_value=-0.089777769219325593 0.12655013815800209 -0.088648428193088574 -0.08870378909416507 0.14109475252366396 -0.091022598283128392 0.14046202745619643 0.13973460086651282 -0.088432151326745839 -0.089586207981064786 -0.088050067033286009 -0.088305234289188725 -0.088840701787913978 -0.088795819499232251 -0.088954323118660236 -0.089632289746926982 -0.088311599285331388 -0.088415317594083068 -0.088745979399425592 -0.089239264700176957 -0.088982059632300964 0.13954299134155265 -0.08846307475200009 -0.088662802221593159 -0.0887009076746713 -0.088576693074309099 -0.08886869835146996 -0.088556320338597977 -0.089028448238980179 -0.088509841120147634 -0.088683828797225972
leaf_weight=5.0894424468278876 6.6429228484630576 5.3839503526687684 8.3589095175266248 7.6361260414123526 4.1345786303281775 7.6225862801074973 7.2937121391296378 4.1178734451532355 5.9006002098321906 4.3750092089176169 4.2525348067283621 4.7344467043876639 4.0241404473781586 4.2301031202077848 6.0042309612035751 4.2649091929197303 3.4266224503517169 6.2824075669050234 4.8267784863710403 5.1194631010293952 287.37707710266113 5.149844452738761 261.21653772890568 7.6618189364671672 3.8064608573913556 6.1454685926437378 3.7915541231632224 4.423378407955175 4.4835420399904242 117.09191408753395
leaf_count=28 20 31 48 23 22 23 22 24 33 26 25 27 23 24 33 25 20 36 27 29 867 30 1503 44 22 35 22 25 26 673
internal_value=0 0.117636 0.133468 0.139334 -0.0891236 0.139608 0.139571 -0.0887024 -0.0886905 -0.0886788 -0.0887451 -0.088685 -0.0887374 -0.0889534 -0.0893521 -0.0886514 -0.0887445 -0.0888585 -0.0889603 -0.0886933 0.139548 -0.0886771 -0.0886567 -0.0886127 -0.0888335 -0.088757 -0.0886859 -0.0889176 -0.0886602 -0.0886798
internal_weight=0 349.812 324.931 316.572 24.8802 309.93 302.293 465.057 459.968 454.067 20.7457 449.692 175.609 29.7703 10.2343 274.083 19.536 16.4931 11.1092 145.839 294.671 130.768 269.818 11.0884 15.0714 9.95193 125.618 8.44752 265.7 120.883
internal_count=3816 1144 1003 955 141 935 912 2672 2644 2611 119 2585 1007 169 57 1578 112 94 63 838 889 752 1553 64 86 57 722 48 1529 695
is_linear=0
shrinkage=0.1


Tree=18
num_leaves=31
num_cat=0
split_feature=5 20 2 14 7 2 13 4 15 17 0 13 4 6 6 1 1 7 19 6 6 16 1 3 4 13 8 1 13 21
split_gain=802.278 142.253 64.8557 0.232788 0.0110261 0.00790503 0.00260772 0.00074303 0.00072038 0.000346785 0.000630896 0.000183373 0.000108205 7.88907e-05 0.000109549 0.000157054 0.00033789 8.85879e-05 8.91543e-05 8.52977e-05 3.01952e-05 2.5435e-05 2.1015e-05 2.0368e-05 5.79961e-05 1.91625e-05 1.89324e-05 1.85165e-05 1.81298e-05 1.73045e-05
threshold=-0.88393257594573493 0.073994432920374845 0.19784072894823437 3.1833960893809361 0.94576947024725022 0.88183545091702731 2.5036645794749721 4.9766511054035947 -0.73679948381194704 0.79996466756813012 0.71192701812042714 -0.13573686260631398 -0.68016761793733338 0.1712526414144829 1.1292433689611199 0.51468203734382922 -0.18040149706524192 1.2393720752441937 -0.053861903718454188 0.50129377448976153 3.2604535902658838 -0.6232086389244188 -0.034507709972840757 0.60920053179286571 -0.26131159028221168 -0.090626460502079662 -0.71075495849136272 2.4524615304426418 -0.24390232667878967 -0.39528130414616708
decision_type=2 2 2 2 2 2 2 2 2 2 2 2 2 2 2 2 2 2 2 2 2 2 2 2 2 2 2 2 2 2
left_child=1 2 -1 7 6 11 12 8 -4 13 -11 21 -2 27 15 16 19 -18 -19 -15 22 -3 -16 -14 -25 29 -21 -10 -24 -22
right_child=4 5 3 -5 -6 -7 -8 -9 9 10 -12 -13 23 14 20 -17 17 18 -20 26 25 -23 28 24 -26 -27 -28 -29 -30 -31
leaf_value=0.14111649034436857 0.13914404364087479 0.1393982888354971 -0.089975166345549251 -0.064139610080926099 0.14304354241021675 0.14363504513624079 0.1415028489607788 -0.089973564613075874 -0.088676775553362286 -0.088627204787705513 -0.090339447538679007 0.1401554278789961 0.13954398454608691 -0.089087215438069814 -0.088690509084458941 -0.088233255043996733 -0.089012960610010392 -0.089248316358602309 -0.089948795122340719 -0.088913529630812824 -0.088912551202149567 0.13964929611848739 -0.088659553242513622 0.1398763781587809 0.13954094439197903 -0.088971531435859674 -0.088704483970834705 -0.088475623295370801 -0.088345641779687151 -0.08862910509167668
leaf_weight=12.606258630752562 6.6260625422000876 6.95950216054917 4.5857680588960639 3.8767408877611151 9.6082639098167402 6.6254911720752707 6.9729502797126761 4.8340327888727179 299.31925384700298 5.203183099627493 3.669586256146431 6.9635342955589286 225.06257253885269 7.9796444177627555 87.194965720176697 3.7332588136196128 3.8895063549280149 3.5758920460939407 3.6939864605665207 4.9273476749658576 3.5192802399396887 9.6134871542453784 3.9967630058526993 7.2948836684227016 17.567414671182632 5.8228535801172248 35.87745675444603 4.6472997963428488 3.4091909378767005 5.5514175146818152
leaf_count=38 20 21 25 21 29 20 21 27 1721 30 20 21 679 45 501 22 22 20 20 28 20 29 23 22 53 33 206 27 20 32
internal_value=0 -0.0704585 -0.0828932 -0.0885488 0.139716 0.140584 0.139595 -0.0887398 -0.0887277 -0.0887159 -0.0893354 0.139725 0.139543 -0.0887044 -0.0887583 -0.0888626 -0.0889018 -0.0893982 -0.0896042 -0.0887882 -0.0886976 0.139544 -0.0886768 0.139553 0.139639 -0.08883 -0.0887297 -0.0886737 -0.0885151 -0.0887391
internal_weight=0 542.076 511.914 499.307 273.132 30.162 263.524 495.431 490.597 486.011 8.87277 23.5365 256.551 477.138 173.172 63.6771 59.9438 11.1594 7.26988 48.7844 109.494 16.573 94.6009 249.925 24.8623 14.8936 40.8048 303.967 7.40595 9.0707
internal_count=3816 2992 2901 2863 824 91 795 2842 2815 2790 50 71 774 2740 992 363 341 62 40 279 629 50 544 754 75 85 234 1748 43 52
is_linear=0
shrinkage=0.1


Tree=19
num_leaves=31
num_cat=0
split_feature=6 11 7 2 10 1 12 6 4 4 1 10 13 18 1 15 6 1 24 6 16 7 3 17 5 3 15 6 7 13
split_gain=691.592 93.8758 43.2835 41.7382 36.8788 13.7165 20.3727 10.3072 26.0711 3.20048 1.64383 3.40556 0.809138 0.238543 0.140505 0.688919 0.164007 0.0498622 0.00406259 0.0028884 0.0014104 0.00122315 0.00117916 0.000795832 0.000604893 0.000337032 0.00020438 0.00017919 0.000134448 7.31719e-05
threshold=0.44679921802719463 0.12318818814342204 -1.1611539957098145 0.88183545091702731 1.664620275126969 0.09545487113347477 0.88308336742742732 0.14011573308107902 1.1364396503344298 4.9766511054035947 -0.18040149706524192 0.60465077652448107 2.6542287336984196 1.7901941305126992 -0.2597634448984214 0.13010932519917875 4.3167649290111081 -1.3564968393127972 0.58751193426037129 3.2604535902658838 -0.66200358369428158 -1.2000540404757236 0.41742335470879982 -0.43414586503809233 -2.0196698074059367 -0.90974867032054663 -0.25758415447738614 0.12434772158388822 -0.21231058123407587 0.055061079990757801
decision_type=2 2 2 2 2 2 2 2 2 2 2 2 2 2 2 2 2 2 2 2 2 2 2 2 2 2 2 2 2 2
left_child=2 -2 3 -1 5 10 -7 9 20 12 13 -12 24 14 16 22 17 -3 19 23 -9 -5 -16 25 -4 -19 -25 -26 -24 -27
right_child=1 4 7 21 -6 6 -8 8 -10 -11 11 -13 -14 -15 15 -17 -18 18 -20 -21 -22 -23 28 26 27 29 -28 -29 -30 -31
leaf_value=-0.088670062672462857 -0.088647544971100736 0.13241724607512503 -0.089777805027627777 0.13943168289005797 -0.088669274157506972 -0.089693855255314245 0.12583033510418881 -0.088691482855920489 0.13066584133093703 0.00085882673644770515 0.14619468794970733 0.04881382764493291 -0.043835303461412921 0.11980763963418271 0.14120980798252245 0.10570835984534062 0.1535417112961803 0.13965038133855823 0.14210483628602424 0.14156898893992645 -0.090925651134482158 0.14115244792312312 0.13997235032681868 0.14007864145420298 -0.088674672341018917 0.14069119705835487 0.13952521222561384 -0.089367235222967273 0.13949048136436737 0.14025308270100231
leaf_weight=14.604803830385206 21.881359860301018 9.6033032834529859 5.0894505083560935 10.936794757843019 7.8236885815858832 6.7978585064411172 12.361029714345932 14.097421377897266 7.776024416089057 4.0678383111953726 8.3205904960632306 6.3181623369455329 4.0597225725650778 6.6032438278198233 6.6404457092285183 7.2525952756404868 8.6018722355365735 8.2874590158462542 7.3078576922416678 7.9702574610710135 3.5339141041040429 6.6380055844783774 10.279971837997438 6.9643904864788047 411.79696096479893 6.6373624503612509 159.42949715256691 3.7700948417186728 13.257641196250914 8.9559686183929426
leaf_count=84 126 29 28 33 45 38 38 81 24 18 25 20 20 20 20 22 26 25 22 24 19 20 31 21 2368 20 481 21 40 27
internal_value=0 0.111524 -0.0758124 0.036262 0.12568 0.13124 0.0493591 -0.0837529 -0.021867 -0.0874199 0.136795 0.104165 -0.0882654 0.138578 0.139053 0.133382 0.140002 0.13946 0.139789 0.139704 -0.0891393 0.140082 0.140033 0.139626 -0.0886942 0.140166 0.139548 -0.088681 0.139701 0.14044
internal_weight=0 331.295 486.371 32.1796 309.413 301.59 19.1589 454.191 25.4074 428.784 282.431 14.6388 424.716 267.792 261.189 37.4307 223.758 215.156 205.553 198.245 17.6313 17.5748 30.1781 190.275 420.657 23.8808 166.394 415.567 23.5376 15.5933
internal_count=3816 1100 2716 137 974 929 76 2579 124 2455 853 45 2437 808 788 113 675 649 620 598 100 53 91 574 2417 72 502 2389 71 47
is_linear=0
shrinkage=0.1


Tree=20
num_leaves=31
num_cat=0
split_feature=1 5 10 23 1 6 3 14 1 6 4 6 10 3 4 14 6 5 17 0 5 13 24 11 2 6 4 22 10 4
split_gain=673.476 47.6048 36.8711 13.4123 10.3436 31.5785 7.92763 4.90722 0.273798 0.0354752 0.0334664 0.0229169 0.0174532 0.00303927 0.00228895 0.00110696 0.000962028 0.000792532 0.000341648 0.00108239 0.000292649 0.000250865 9.13074e-05 3.95078e-05 2.95786e-05 7.29684e-05 4.54496e-05 3.74828e-05 2.60585e-05 1.83027e-05
threshold=0.51468203734382922 -0.58806482737421562 1.664620275126969 -0.64720591993179555 -0.15237432427564052 1.6143252015785587 -0.72235557968445929 1.6363103577188964 -0.18040149706524192 0.13619633610301385 0.3701022215227367 4.3167649290111081 -0.08178371599581756 -0.70430724915420451 3.7993691684209101 2.791658572363394 3.3447272717406471 -0.48769487124252214 0.79996466756813012 0.50232448125928431 -1.1483941797123527 1.9422854763501574 0.18987013067874151 2.0460246536384346 1.1216759143284352 0.88671010492885471 -2.4836542623059343 0.36768063258315276 0.75366693949147912 -0.2718189217629387
decision_type=2 2 2 2 2 2 2 2 2 2 2 2 2 2 2 2 2 2 2 2 2 2 2 2 2 2 2 2 2 2
left_child=2 6 4 10 7 17 -2 8 11 13 -4 14 -11 -8 16 20 18 22 23 -20 21 -15 -6 24 -1 26 -26 -28 -29 -25
right_child=1 -3 3 -5 5 -7 9 -9 -10 12 -12 -13 -14 15 -16 -17 -18 -19 19 -21 -22 -23 -24 29 25 -27 27 28 -30 -31
leaf_value=-0.086758278647273715 -0.0028910620107419696 -0.08672108491723543 0.11604347669720128 -0.086924974885701944 -0.087491392395893444 0.14137137797560903 0.12863463962151112 0.041104170843469956 -0.057961462965961691 0.1331905639082169 0.12637539623620672 -0.093068769503209053 0.12705260642112121 0.12637105228076081 -0.089401613769971161 0.127671338039237 -0.088412259528305878 -0.086711355172119142 -0.086724929049884603 -0.088943810040243168 0.12707078933624774 0.12698849728110165 -0.088147514626053414 -0.086346524715575412 -0.086727295109365762 -0.086783019810839815 -0.087320470759810587 -0.087213214622779908 -0.086870684755354574 -0.086691781578832089
leaf_weight=258.82489732652903 4.7929327487945548 11.065032869577406 6.1147001683712023 4.1033776998519889 3.2624189555645025 8.2761374413967115 6.4738874435424796 3.0273311287164679 3.2918920069932929 12.347059130668642 6.4336898326873779 5.9687906652688971 7.414563685655593 236.75596863031387 3.4214470982551566 7.1084279119968405 3.6844886243343344 13.079506799578667 7.9500453472137433 3.0387626439332962 6.447524517774581 6.7683834433555594 6.0620944201946259 3.0315709635615349 4.8333156555891064 95.903591364622116 4.5230201929807654 3.2048313915729505 7.2350920736789703 3.1111763566732398
leaf_count=1657 20 71 20 26 20 26 20 17 20 38 20 30 23 736 20 22 22 84 51 18 20 21 36 20 31 613 28 20 46 20
internal_value=0 0.116826 -0.0760564 0.0700193 -0.0815629 -0.0255515 0.124644 -0.0857435 -0.0866847 0.126801 0.121341 -0.0869183 0.130888 0.126495 -0.0868262 0.126441 -0.0868039 -0.0872135 -0.0867888 -0.0873385 0.126406 0.126388 -0.087918 -0.0867729 -0.0867771 -0.0868191 -0.0869939 -0.08708 -0.0869758 -0.0865214
internal_weight=0 299.174 458.382 16.6518 441.73 30.6802 288.109 411.05 408.023 283.316 12.5484 404.731 19.7616 263.554 398.762 257.08 395.341 22.404 391.656 10.9888 249.972 243.524 9.32451 380.667 374.525 115.7 19.7963 14.9629 10.4399 6.14275
internal_count=3816 971 2845 66 2779 166 900 2613 2596 880 40 2576 61 819 2546 799 2526 140 2504 69 777 757 56 2435 2395 738 125 94 66 40
is_linear=0
shrinkage=0.1


Tree=21
num_leaves=31
num_cat=0
split_feature=9 6 20 21 4 3 5 9 1 4 11 2 19 0 13 20 1 13 4 20 6 21 8 3 3 16 2 1 3 14
split_gain=702.427 91.0229 33.2305 0.109149 0.00219856 0.000928932 0.000826061 0.000656278 0.000361881 0.000151699 9.06189e-05 0.000217692 0.00022734 0.000175311 9.62249e-05 7.83138e-05 4.81722e-05 3.76572e-05 3.36968e-05 5.63986e-05 2.67811e-05 3.47943e-05 2.47287e-05 2.22583e-05 1.432e-05 1.40578e-05 9.5344e-06 8.89295e-06 8.85658e-06 9.41885e-06
threshold=1.3002791314935773 -0.31391617230087437 0.073994432920374845 -0.52788035257484034 2.7023696016606076 0.21649919552966052 -2.0196698074059367 1.2370998336830683 -0.67886754850921238 4.3393039718316322 0.15067835903737017 1.2398165428266348 -0.28524679192000607 0.20756177006855547 -0.10684643086946662 0.073994432920374845 -0.034507709972840757 2.6542287336984196 -2.4836542623059343 0.070568028351943687 3.1837970536454807 -0.38639481259259006 -0.71042704616350372 0.26213755406193728 0.58885376575001225 -0.66002490576610273 1.2108958788467319 -0.33397827126814689 -2.3866350579877733 3.1833960893809361
decision_type=2 2 2 2 2 2 2 2 2 2 2 2 2 2 2 2 2 2 2 2 2 2 2 2 2 2 2 2 2 2
left_child=6 2 3 -2 15 -5 -1 9 -7 10 17 16 22 14 -14 18 20 28 -3 -20 25 -22 27 -23 -10 -12 -27 -13 -8 -30
right_child=1 4 -4 5 -6 8 7 -9 24 -11 11 12 13 -15 -16 -17 -18 -19 19 -21 21 23 -24 -25 -26 26 -28 -29 29 -31
leaf_value=-0.088123727308074884 0.11330894665872822 -0.086730915110105167 -0.086781949874861777 0.12752664964321875 -0.089482947032128168 0.12708444098352276 -0.086577576891073579 -0.087883505559533545 0.12637272867118221 -0.086148350129772233 -0.086952164775717919 -0.086765440944388386 -0.087205070492729422 -0.08679405423206403 -0.087876462649858003 -0.086439755099108215 -0.086472841362028596 -0.0864254047399447 -0.086843926258436344 -0.087322540994706155 -0.087174447720481732 -0.086636874796070351 -0.086536603130117684 -0.086930512637720794 0.12651076454503041 -0.086767904069123047 -0.08692937143827062 -0.086995258273041734 -0.086746528842135115 -0.086589124038405532
leaf_weight=4.6486660838127127 6.4842027425765982 4.8344094306230572 7.5085699260234824 7.4285771250724784 3.7994345128536215 7.406689077615737 3.241647705435752 5.3507550507783881 278.2543820142746 3.9031369388103476 4.5839622765779486 3.5945197641849518 3.3680922091007224 3.4429120868444434 5.8292807787656775 3.8146334812045088 4.7433142364025107 3.8220541179180136 5.6524770110845584 4.3620022535324097 4.0016066133975974 3.8746788650751096 3.225968614220621 7.734615758061409 7.7241623699665061 106.58576630800962 3.7869218885898581 3.1674867272377014 235.22996969521046 3.8640075027942649
leaf_count=28 20 31 48 23 22 23 21 33 865 26 29 23 21 22 35 25 31 25 36 27 25 25 21 49 24 682 24 20 1507 25
internal_value=0 0.10719 0.121067 0.126146 -0.0872903 0.126422 -0.0867981 -0.0867832 0.126394 -0.0867688 -0.0867748 -0.0868339 -0.087121 -0.0874027 -0.0876306 -0.0868439 -0.0867859 -0.0867368 -0.0869477 -0.0870524 -0.0867973 -0.0869202 -0.0867644 -0.0868325 0.126376 -0.0867806 -0.0867734 -0.0868731 -0.0867418 -0.086744
internal_weight=0 337.27 314.807 307.298 22.463 300.814 417.999 413.351 293.385 408 404.097 157.939 22.6283 12.6403 9.19737 18.6635 135.311 246.158 14.8489 10.0145 130.568 15.6109 9.98798 11.6093 285.979 114.957 110.373 6.76201 242.336 239.094
internal_count=3816 1144 1003 955 141 935 2672 2644 912 2611 2585 1007 142 78 56 119 865 1578 94 63 834 99 64 74 889 735 706 43 1553 1532
is_linear=0
shrinkage=0.1


Tree=22
num_leaves=31
num_cat=0
split_feature=5 20 2 14 4 2 13 4 15 17 0 23 24 6 6 1 1 6 6 1 0 10 7 6 21 3 15 16 7 21
split_gain=654.633 119.519 55.0223 0.252725 0.00993089 0.00613664 0.00232362 0.00110315 0.000971163 0.000454029 0.000801301 0.000152075 0.000129371 9.27885e-05 0.000144461 0.000216763 0.000416825 8.6283e-05 7.362e-05 4.55213e-05 4.49204e-05 3.60199e-05 2.87308e-05 2.21588e-05 3.02875e-05 2.09297e-05 1.93608e-05 1.55856e-05 1.34194e-05 1.53875e-05
threshold=-0.88393257594573493 0.073994432920374845 0.19784072894823437 3.1833960893809361 -0.88445275791321898 0.88183545091702731 2.5036645794749721 4.9766511054035947 -0.73679948381194704 0.79996466756813012 0.71192701812042714 -0.65176779459840417 1.76115928581093 0.1712526414144829 1.1292433689611199 -0.23769783237149653 0.51468203734382922 0.90441931538262843 0.50129377448976153 -0.034507709972840757 0.20726567401905027 3.2993708553458356 0.94576947024725022 3.1837970536454807 -0.37490817089454481 0.26213755406193728 -0.2856665294590881 -0.65285745484474134 4.3116502165560151 -0.45129436667418843
decision_type=2 2 2 2 2 2 2 2 2 2 2 2 2 2 2 2 2 2 2 2 2 2 2 2 2 2 2 2 2 2
left_child=1 2 -1 7 -2 11 12 8 -4 13 -11 -3 21 28 15 18 17 -17 -15 23 -19 22 -6 -16 -25 -26 -20 -21 -10 -30
right_child=4 5 3 -5 6 -7 -8 -9 9 10 -12 -13 -14 14 19 16 -18 20 26 27 -22 -23 -24 24 25 -27 -28 -29 29 -31
leaf_value=0.12798754260155132 0.13041646530728751 0.12694945620686468 -0.088336856873719935 -0.060084111867077378 0.12638079372455777 0.13004188076381729 0.12822799672660398 -0.088416121277968329 -0.086755992600189902 -0.08670748160281487 -0.088734458854358683 0.12638439230855453 0.12676778947722223 -0.087172154992168738 -0.08677915184458436 -0.087281105048573074 -0.086311779909850658 -0.088073617871537266 -0.086995166985279704 -0.086669383069494732 -0.087553343786141283 0.12658587983621974 0.12617144872325617 -0.08713000885556417 -0.086628346508831139 -0.086921227987592609 -0.086778285621566711 -0.086364187379417215 -0.087058658550240156 -0.086756680018743232
leaf_weight=12.272460758686064 6.4576707780361167 6.7663771808147493 4.1981025934219351 3.5587987601757041 227.43528026342392 6.462481588125228 7.1182242929935446 4.3905375301837912 266.29993541538715 4.6691023111343366 3.3492745012044907 16.084735244512558 9.0175552666187269 6.5585362166166297 76.328534126281738 5.4777130335569364 3.3307336717844001 3.3680617958307266 4.7543963193893388 3.7258166968822479 3.2713779360055923 8.3701489865779859 6.7503268718719474 4.4702318310737601 3.7176662683486921 7.099262073636055 30.655069217085842 3.0373675748705855 3.1818659752607346 3.5925818085670462
leaf_count=38 20 21 25 21 707 20 22 27 1705 30 20 50 28 41 488 34 22 20 30 24 20 26 21 28 24 45 196 20 20 23
internal_value=0 -0.0684755 -0.0809173 -0.0866268 0.126543 0.127321 0.126446 -0.0868388 -0.0868231 -0.0868086 -0.0875541 0.126552 0.126396 -0.0867947 -0.0868562 -0.0869823 -0.0873025 -0.0875749 -0.0868644 -0.0867827 -0.0878173 0.126382 0.126375 -0.0868012 -0.0869111 -0.0868206 -0.0868074 -0.0865323 -0.0867595 -0.0868985
internal_weight=0 490.621 461.307 449.035 265.149 29.3136 258.692 445.476 441.086 436.888 8.01838 22.8511 251.573 428.869 155.795 57.4159 15.4479 12.1172 41.968 98.3789 6.63944 242.556 234.186 91.6157 15.2872 10.8169 35.4095 6.76318 273.074 6.77445
internal_count=3816 2992 2901 2863 824 91 804 2842 2815 2790 50 71 782 2740 992 363 96 74 267 629 40 754 728 585 97 69 226 44 1748 43
is_linear=0
shrinkage=0.1


Tree=23
num_leaves=31
num_cat=0
split_feature=6 11 7 2 10 1 0 6 4 4 13 18 19 6 1 0 3 22 24 1 20 16 5 19 13 0 1 17 6 12
split_gain=568.941 74.2001 37.5965 33.8143 29.0553 10.3114 24.7893 9.26307 21.4769 3.10954 0.836197 0.575288 0.548846 0.421221 1.22088 0.134235 0.184584 0.00419461 0.0034144 0.0017825 0.00204848 0.000925586 0.00084853 0.000737783 0.00056456 0.000308899 0.000184079 0.000166624 0.000108474 0.00010086
threshold=0.44679921802719463 0.12318818814342204 -1.1611539957098145 0.88183545091702731 1.664620275126969 -0.15237432427564052 0.22201904170195763 0.14011573308107902 1.1364396503344298 4.9766511054035947 2.6542287336984196 0.18597948895369956 -0.17186404558854718 3.3447272717406471 -0.3732931575725465 0.1093283534378713 -0.90974867032054663 0.46402845531722453 0.18987013067874151 -0.2597634448984214 -0.086953987665422075 -0.66200358369428158 -2.0196698074059367 -0.17830949195484852 -0.72263048876959746 0.69796307330826945 -1.2928493191813624 -0.52797595339603287 0.12434772158388822 -0.85054593814608614
decision_type=2 2 2 2 2 2 2 2 2 2 2 2 2 2 2 2 2 2 2 2 2 2 2 2 2 2 2 2 2 2
left_child=2 -2 3 -1 5 13 11 9 21 10 22 18 -8 15 -15 16 -3 -17 -7 24 -21 -9 -4 -5 -19 29 -26 -28 -24 -22
right_child=1 4 7 23 -6 6 12 8 -10 -11 -12 -13 -14 14 -16 17 -18 19 -20 20 25 -23 28 -25 26 -27 27 -29 -30 -31
leaf_value=-0.086755437916439374 -0.086724421006021762 0.12835265547945163 -0.088123758485263062 0.1261952828825596 -0.08679743598048939 0.13164996764043227 -0.096869995601813308 -0.086770661479653413 0.11685545837602709 0.0024455915541325094 -0.039821743935227381 0.097562013330448977 -0.045187407273008247 0.1425289728737735 0.08833744679791021 0.12915654423702594 0.1047197149411048 0.12724430838045273 0.1347319101296105 0.12859295480779265 0.12633738144366383 -0.088677694209729374 -0.086759171107460051 0.12752909168999074 0.12689767264609539 0.12740671741464643 0.12668988990062069 0.12636633582711568 -0.087327626382342011 0.12679325783408532
leaf_weight=13.119718387722971 19.640888243913651 6.4765885770320892 4.6486735194921485 9.9656118452548998 7.0441646575927725 6.8568821251392418 5.5541229546070099 12.662130042910576 7.6518810242414466 3.9885914325714102 3.8304035514593116 6.5702115446329108 3.2612915337085706 6.9184932708740261 10.416629880666731 6.4907293915748587 6.7485783696174604 8.7113175690174085 7.5559062063694 8.4188134372234327 8.0409966409206408 3.1853186935186395 369.91912147402763 7.1028208136558524 7.7345844507217398 6.4563737511634818 17.71223720908165 156.97660464048386 3.3875841051340094 12.241755455732347
leaf_count=84 126 20 28 31 45 21 29 81 24 18 20 21 18 21 32 20 21 27 23 26 25 19 2368 22 24 20 55 488 21 38
internal_value=0 0.101579 -0.0737355 0.0339611 0.1139 0.118723 0.0629676 -0.0816792 -0.0207242 -0.0853923 -0.0863099 0.122086 -0.0777499 0.125032 0.109965 0.126093 0.116293 0.12665 0.133266 0.126578 0.127233 -0.087154 -0.086781 0.12675 0.126458 0.126804 0.12642 0.126399 -0.0867643 0.126613
internal_weight=0 319.827 439.462 30.1882 300.186 293.142 29.7984 409.274 23.4993 385.774 381.786 20.983 8.81541 263.344 17.3351 246.009 13.2252 232.783 14.4128 226.293 35.1579 15.8474 377.955 17.0684 191.135 26.7391 182.423 174.689 373.307 20.2828
internal_count=3816 1100 2716 137 974 929 112 2579 124 2455 2437 65 47 817 53 764 41 723 44 703 109 100 2417 53 594 83 567 543 2389 63
is_linear=0
shrinkage=0.1


Tree=24
num_leaves=31
num_cat=0
split_feature=1 5 10 8 1 6 3 14 6 18 4 6 4 3 14 6 5 17 9 5 19 20 11 21 2 6 4 6 7 21
split_gain=557.911 38.1416 31.6746 11.0601 9.29458 27.8965 6.48143 4.8372 0.0332703 0.0329576 0.0172408 0.0154443 0.00278662 0.00159156 0.00109325 0.000855055 0.000730507 0.000430043 0.00130781 0.000230698 0.00022993 0.000177814 2.66473e-05 2.60381e-05 2.43892e-05 5.91336e-05 3.68631e-05 2.86013e-05 1.78336e-05 2.02712e-05
threshold=0.51468203734382922 -0.58806482737421562 1.664620275126969 -0.70672195295797369 -0.18040149706524192 1.6143252015785587 -0.72235557968445929 1.6363103577188964 0.13619633610301385 0.56441074903166044 0.2290845395627556 4.3167649290111081 3.7993691684209101 -0.70430724915420451 2.791658572363394 3.3447272717406471 -0.48769487124252214 0.79996466756813012 1.1106238392590064 -1.1483941797123527 1.736783331368837 -0.15765851241480697 2.0460246536384346 -0.16813951523014606 1.068062298782072 0.88671010492885471 -2.4836542623059343 0.50129377448976153 4.3116502165560151 -0.45129436667418843
decision_type=2 2 2 2 2 2 2 2 2 2 2 2 2 2 2 2 2 2 2 2 2 2 2 2 2 2 2 2 2 2
left_child=2 6 4 9 7 16 -2 11 13 -4 -10 12 15 -8 19 17 21 22 -19 20 -15 23 24 -6 28 26 -26 -28 -1 -30
right_child=1 -3 3 -5 5 -7 8 -9 10 -11 -12 -13 -14 14 -16 -17 -18 18 -20 -21 -22 -23 -24 -25 25 -27 27 -29 29 -31
leaf_value=-0.085105821876670637 -0.0018226630270303458 -0.085073788484191532 0.10679999050388672 -0.085447330061397014 -0.086139647585125531 0.12645095108653046 0.11820434241404441 0.042198422274338405 0.11754408916441027 0.11731480450141665 0.12362456902256445 -0.090564012360844048 -0.088155177530121753 0.11651002028528475 0.11783021996864694 -0.086747891781046693 -0.085101023642332699 -0.08507544629012799 -0.087637367709269887 0.11714799519886883 0.1171157974934568 -0.086872959315729859 -0.084906250987254905 -0.085729535294929521 -0.085078692098361233 -0.085134186215577085 -0.085579601253782028 -0.085287804112768081 -0.085472702266694095 -0.0851068128297221
leaf_weight=224.75274161249399 4.6762332618236533 9.8816468268632871 5.7909213453531247 3.7111960947513571 3.2997507750988007 8.5576343387365323 6.1742918193340293 3.0019519329071036 8.2898312509059924 6.1432254314422607 10.659071683883665 5.4196451753377906 3.1317102611064902 225.06293621659279 6.7856540381908408 3.354874536395072 13.242710120975971 7.0990094542503339 2.7700952589511871 6.138651341199874 6.4451354444026938 3.1145945191383397 5.4831963032484046 2.9163665622472763 4.3163871467113522 85.848456025123596 5.913499787449835 7.7764411717653275 2.8667359203100204 3.2093224972486487
leaf_count=1611 20 71 20 26 22 29 20 17 27 20 34 30 20 736 22 22 95 51 18 20 21 20 40 20 31 614 41 55 20 23
internal_value=0 0.107944 -0.0742306 0.0653261 -0.0797432 -0.0272936 0.114899 -0.0842174 0.116924 0.112213 0.120964 -0.0852659 -0.0851853 0.116619 0.116579 -0.085159 -0.0855785 -0.0851438 -0.0857945 0.116543 0.116527 -0.0862562 -0.0851249 -0.0859472 -0.0851285 -0.0851687 -0.0853335 -0.0854138 -0.0851104 -0.0852794
internal_weight=0 284.113 411.72 15.6453 396.075 31.1311 274.232 364.944 269.556 11.9341 18.9489 361.942 356.522 250.607 244.432 353.391 22.5734 350.036 9.8691 237.647 231.508 9.33071 340.167 6.21612 334.684 103.855 18.0063 13.6899 230.829 6.07606
internal_count=3816 971 2845 66 2779 186 900 2593 880 40 61 2576 2546 819 799 2526 157 2504 69 777 757 62 2435 42 2395 741 127 96 1654 43
is_linear=0
shrinkage=0.1


Tree=25
num_leaves=31
num_cat=0
split_feature=9 6 20 21 4 5 9 3 8 4 9 2 1 6 20 1 1 2 1 21 3 4 20 13 14 1 16 5 0 5
split_gain=585.355 73.7188 26.5876 0.111219 0.0025474 0.00105409 0.000845983 0.000518099 0.000235312 0.000123713 9.90972e-05 0.000184427 0.000144393 8.37649e-05 6.3923e-05 6.34716e-05 5.34022e-05 4.18466e-05 0.000128414 3.90016e-05 4.36827e-05 3.1793e-05 3.28562e-05 2.85897e-05 1.29657e-05 1.08481e-05 9.50454e-06 8.53532e-06 8.09262e-06 8.05874e-06
threshold=1.3002791314935773 -0.31391617230087437 0.073994432920374845 -0.52788035257484034 2.7023696016606076 -2.0567452435145239 1.2370998336830683 0.21649919552966052 -0.70790253147052307 4.3393039718316322 0.44017404023551926 1.3098088663561136 0.375920429971144 3.2604535902658838 0.073994432920374845 -0.034507709972840757 -0.034507709972840757 1.2108958788467319 -0.22681170123051514 -0.37490817089454481 0.25725854981089263 -2.4836542623059343 0.070568028351943687 2.8722608330698129 3.1833960893809361 -0.67886754850921238 -0.66002490576610273 -1.7600341536688191 -2.7453441710703657 -0.48769487124252214
decision_type=2 2 2 2 2 2 2 2 2 2 2 2 2 2 2 2 2 2 2 2 2 2 2 2 2 2 2 2 2 2
left_child=5 2 3 -2 14 -1 9 -5 25 10 23 13 15 16 21 -13 17 26 -19 -15 -21 -3 -23 24 27 -9 -12 -7 -27 -28
right_child=1 4 -4 7 -6 6 -8 8 -10 -11 11 12 -14 19 -16 -17 -18 18 -20 20 -22 22 -24 -25 -26 28 29 -29 -30 -31
leaf_value=-0.08685319267345247 0.10303018221061555 -0.085081699288035217 -0.085124612545344883 0.11739524421233523 -0.088179960048031233 -0.085271490598470057 -0.086457286202105521 0.11638419186806964 0.11705402936954089 -0.084530871084106479 -0.085274990057822964 -0.085533993022240684 -0.085005105364929653 -0.085653361859945334 -0.084818835925146288 -0.08611681877890881 -0.084794466370272437 -0.08514659529908726 -0.085900548138263019 -0.084982630533181336 -0.085463148828727797 -0.085243970149168125 -0.085629632386821197 -0.084777132270664052 -0.084910202102029694 0.11662943632155154 -0.085127520647605662 -0.085096450090751979 0.11651309631149864 -0.08496490246148182
leaf_weight=3.6394035369157782 6.2167751789093009 4.3173754960298565 6.7061150074005118 7.075285702943801 3.4799266308546057 2.8214133083820334 4.8334950208663932 6.4160207211971274 8.2747375667095167 3.4645884931087485 4.2385195046663275 3.5957029014825821 2.8940481394529343 4.3500748276710501 3.3994088619947425 3.8900264203548414 4.3488924875855437 9.6561741679906827 2.9489353895187369 3.039282485842703 5.0111499577760696 5.0738053321838397 3.9124364703893661 2.8547034785151473 3.7112285345792762 6.1208263635635367 84.827295720577226 220.41343729943037 258.0941034257412 3.1609511226415767
leaf_count=24 20 31 48 23 22 20 33 21 27 26 30 25 21 30 25 26 32 69 20 22 35 36 27 21 27 20 607 1581 844 23
internal_value=0 0.0992543 0.111744 0.116263 -0.0857186 -0.0851596 -0.085143 0.11655 0.116529 -0.0851256 -0.0851313 -0.0852004 -0.085605 -0.0851658 -0.0852058 -0.0858369 -0.0851378 -0.0851521 -0.085323 -0.0854121 -0.0852817 -0.0853047 -0.0854119 -0.0850916 -0.0850956 0.116513 -0.0851287 -0.0850987 0.116516 -0.0851217
internal_weight=0 319.087 298.904 292.198 20.183 373.699 370.06 285.981 278.906 365.226 361.762 131.961 10.3798 121.581 16.703 7.48573 109.181 104.832 12.6051 12.4005 8.05043 13.3036 8.98624 229.801 226.946 270.631 92.2268 223.235 264.215 87.9882
internal_count=3816 1144 1003 955 141 2672 2648 935 912 2615 2589 940 72 868 119 51 781 749 89 87 57 94 63 1649 1628 885 660 1601 864 630
is_linear=0
shrinkage=0.1


Tree=26
num_leaves=31
num_cat=0
split_feature=5 20 2 14 4 2 13 4 2 17 3 23 14 13 22 6 1 1 13 6 10 6 3 0 3 21 7 7 21 10
split_gain=540.364 101.185 46.9481 0.276612 0.0123265 0.00552249 0.00214059 0.00149688 0.00121836 0.000575228 0.00106236 0.000158612 0.000109099 0.000201346 0.000322842 0.000100231 0.000106409 0.000282401 0.000287146 7.65167e-05 5.18077e-05 4.73153e-05 4.57938e-05 2.61396e-05 2.45847e-05 3.94559e-05 2.30236e-05 1.73022e-05 1.99417e-05 1.49856e-05
threshold=-0.88393257594573493 0.073994432920374845 0.19784072894823437 3.1833960893809361 -0.88445275791321898 0.88183545091702731 2.5036645794749721 4.9766511054035947 0.22484339717975935 0.79996466756813012 -0.31280380127463164 -0.65176779459840417 1.463931829027959 0.051208543051676138 0.34225433100536562 0.1712526414144829 -0.18040149706524192 0.375920429971144 -0.13573686260631398 0.50129377448976153 -0.50067325173036681 3.3447272717406471 0.16902637764422115 0.1093283534378713 0.25725854981089263 -0.38379802012239345 1.3773539919292792 4.3116502165560151 -0.45129436667418843 3.2993708553458356
decision_type=2 2 2 2 2 2 2 2 2 2 2 2 2 2 2 2 2 2 2 2 2 2 2 2 2 2 2 2 2 2
left_child=1 2 -1 7 -2 11 12 8 -4 15 -11 -3 29 22 -15 27 19 18 -18 -17 -19 23 -14 -21 25 -23 -20 -10 -29 -6
right_child=4 5 3 -5 6 -7 -8 -9 9 10 -12 -13 13 14 -16 16 17 20 26 21 -22 24 -24 -25 -26 -27 -28 28 -30 -31
leaf_value=0.11813971548193503 0.12113215186804374 0.11714893470420505 -0.087033033319928274 -0.055940018779669969 0.11652491781526852 0.12012062318821695 0.1183606681330963 -0.087134769206670237 -0.085108581184775933 -0.085099104147689564 -0.08759614963778671 0.11655750701758137 0.11679179383925919 0.11755986623846795 0.11653409270515135 -0.085518277448816377 -0.085194700153566963 -0.084797214688191985 -0.085998338558840107 -0.085358715140183658 -0.085326973618829946 -0.085504688175159133 0.11650076671670087 -0.0851327564280496 -0.085563599427777276 -0.084981820292158616 -0.086375902637381485 -0.085471171149913372 -0.085108265731376823 0.11667047934306854
leaf_weight=11.712507575750349 6.1833282113075247 6.4455588757991835 3.5346855819225302 3.2563497424125663 189.30431941151619 6.1795614361762992 6.80300548672676 3.9763458073139182 238.20827075839043 4.4625290632247925 2.7560684829950324 15.294338375329971 7.0461827516555813 6.1561766862869245 6.1168429851531982 6.4615688174962989 5.1776175200939178 5.2992269918322563 3.1174530535936373 5.4018527418375006 2.8328816443681699 2.8720390647649765 23.238677769899368 98.001476421952248 4.0385595858097076 2.9009248465299589 3.351272851228714 2.8664178103208542 3.2096745371818534 7.3471213579177848
leaf_count=38 20 21 23 21 619 20 22 27 1707 32 18 50 23 20 20 45 37 39 21 38 20 20 76 701 28 21 22 20 23 24
internal_value=0 -0.0667705 -0.0792131 -0.084967 0.116722 0.117483 0.116612 -0.0852043 -0.0851848 -0.0851681 -0.0860525 0.116733 0.116562 0.116707 0.117049 -0.0851514 -0.0852191 -0.085434 -0.0857497 -0.0851836 -0.0849818 -0.0851645 0.116568 -0.0851446 -0.0853743 -0.0852419 -0.0861939 -0.0851128 -0.0852795 0.11653
internal_weight=0 441.357 413.438 401.725 252.196 27.9195 246.012 398.469 394.493 390.958 7.2186 21.7399 239.209 42.5579 12.273 383.739 139.455 19.7785 11.6463 119.676 8.13211 113.215 30.2849 103.403 9.81152 5.77296 6.46873 244.284 6.07609 196.651
internal_count=3816 2992 2901 2863 824 91 804 2842 2815 2792 50 71 782 139 40 2742 992 139 80 853 59 808 99 739 69 41 43 1750 43 643
is_linear=0
shrinkage=0.1


Tree=27
num_leaves=31
num_cat=0
split_feature=6 11 7 2 1 12 6 1 21 4 19 16 13 3 13 19 7 19 7 0 23 4 0 1 7 5 10 1 18 13
split_gain=472.222 102.008 21.295 20.2493 10.8099 22.701 3.23165 3.27098 7.00079 3.02891 1.2877 1.1136 1.09627 0.544658 0.180158 0.687808 0.0439966 0.19388 0.0323291 0.00723539 0.00239214 0.00189676 0.00132517 0.0011456 0.00126866 0.00107943 0.000947843 0.000762246 0.00044469 0.000382661
threshold=0.14011573308107902 0.12318818814342204 -1.1974536873519106 0.88183545091702731 -0.15237432427564052 0.88308336742742732 3.3447272717406471 -0.3732931575725465 -0.28272818122921523 4.9766511054035947 -0.257258337967668 -0.63929177979158347 2.8722608330698129 0.40583171416986513 0.83060527319899435 1.0088509911471635 3.0538915201788357 -0.56675961519049212 1.2608871519589486 1.4023740303829928 -0.65044156065078129 1.5875413195875281 0.1093283534378713 -0.2597634448984214 -0.11538370560952618 -2.0567452435145239 0.57690978872972953 -0.18141904356769026 1.0812706638397402 -0.64625468852558099
decision_type=2 2 2 2 2 2 2 2 2 2 2 2 2 2 2 2 2 2 2 2 2 2 2 2 2 2 2 2 2 2
left_child=2 21 3 -1 6 13 11 -8 -9 12 -7 14 25 18 16 -16 19 -18 -6 22 -12 -2 -3 29 -25 -4 -17 -26 -19 -24
right_child=1 4 9 -5 5 10 7 8 -10 -11 20 -13 -14 -15 15 26 17 28 -20 -21 -22 -23 23 24 27 -27 -28 -29 -30 -31
leaf_value=-0.085107585096235602 -0.085081057576232827 0.11785830214561716 -0.08685321945240744 0.11637629756923765 -0.098844113897453401 0.067782149185766513 0.12872788308130223 -0.049098669403076528 0.10171250173484062 0.0039518150326044105 0.12187996913120831 0.072931877152406357 -0.023733015141511216 -0.040780397255591135 0.079864692183190242 0.11798712212930243 0.095749695935019821 0.11656587964163197 -0.08505219988791525 0.12002559237444331 0.12441604307819024 -0.08777787196993464 0.11717636161434693 0.11668335450058842 0.11728225095146186 -0.085121759220963752 0.11649441056440278 0.1188348120850688 0.11755818581127703 0.11655605205713554
leaf_weight=9.3494366854429263 28.268568634986881 10.798128753900526 3.639409363269805 10.692738115787504 3.8346534818410891 5.8421235233545348 6.7359280288219479 5.052014872431756 7.8779413998126957 3.9051391482353202 7.2459068894386318 6.3320401906967154 2.9322292655706397 2.8545046597719193 6.6750405132770565 6.1575946807861337 5.4541174322366741 14.989388257265093 3.0525351166725159 7.1558996438980094 7.6418689489364562 2.8730804473161689 10.750132262706755 15.001109927892687 6.4548026919364929 337.14692397415638 13.759156852960587 6.1994031369686109 6.463509112596511 132.75458118319511
leaf_count=67 203 35 24 35 19 21 21 24 28 18 23 23 16 18 25 20 20 49 22 23 24 19 35 49 21 2414 45 20 21 434
internal_value=0 0.0869111 -0.0778427 0.0223865 0.104846 0.0484001 0.111249 0.0722235 0.0427873 -0.0836214 0.107569 0.114332 -0.0846164 -0.0775087 0.115412 0.107645 0.116368 0.112585 -0.0927313 0.116907 0.123182 -0.0853299 0.116784 0.116716 0.117305 -0.0851403 0.116956 0.118043 0.116865 0.116603
internal_weight=0 330.224 367.666 20.0422 299.082 30.4716 268.611 19.6659 12.93 347.624 20.7299 248.945 343.719 9.74169 242.613 26.5918 216.021 26.907 6.88719 189.114 14.8878 31.1416 181.958 171.16 27.6553 340.786 19.9168 12.6542 21.4529 143.505
internal_count=3816 1242 2574 102 1020 127 893 73 52 2472 68 820 2454 59 797 90 707 90 41 617 47 222 594 559 90 2438 65 41 70 469
is_linear=0
shrinkage=0.1


Tree=28
num_leaves=31
num_cat=0
split_feature=1 5 10 8 1 6 3 14 4 5 4 6 7 4 3 14 6 5 17 11 22 20 0 7 11 7 23 2 6 4
split_gain=465.21 30.9832 27.8891 9.1742 8.33715 23.4253 5.51715 4.62658 0.0383933 0.0337737 0.0177942 0.0115559 0.00325157 0.00320492 0.000891771 0.000917926 0.000634118 0.000568358 0.000492982 0.0014623 0.000145093 8.49601e-05 4.39214e-05 2.19354e-05 2.1836e-05 1.72537e-05 4.05641e-05 1.6268e-05 3.5525e-05 4.16739e-05
threshold=0.51468203734382922 -0.58806482737421562 1.664620275126969 -0.70672195295797369 -0.18040149706524192 1.6143252015785587 -0.72235557968445929 1.6363103577188964 0.39262953167288289 -0.89388888716842907 -0.14869782561181558 4.3167649290111081 -0.01004320158998989 3.7993691684209101 -0.70430724915420451 2.791658572363394 3.3447272717406471 -0.48769487124252214 0.79996466756813012 0.46288341290127738 -3.0465496168752462 -0.15765851241480697 2.3982804871532513 1.2393720752441937 2.0460246536384346 3.3527929826280789 -0.65013296689387667 1.068062298782072 0.50129377448976153 -2.2051626235374497
decision_type=2 2 2 2 2 2 2 2 2 2 2 2 2 2 2 2 2 2 2 2 2 2 2 2 2 2 2 2 2 2
left_child=2 6 4 8 7 17 -2 11 -4 12 -11 13 14 16 -8 20 18 21 22 -20 -16 23 24 -6 25 27 -27 -1 29 -29
right_child=1 -3 3 -5 5 -7 9 -9 -10 10 -12 -13 -14 -15 15 -17 -18 -19 19 -21 -22 -23 -24 -25 -26 26 -28 28 -30 -31
leaf_value=-0.083688294573362798 -0.0014276340777988478 -0.083656116011131709 0.111109015899852 -0.083975758047252852 -0.084327917632280147 0.11632508572082574 0.11023069111409814 0.040552828649247058 0.09946103645110449 0.11080810973572219 0.11830445330407968 -0.088654253383968484 0.11100491302785012 -0.087108895129158551 0.10941298311113751 0.1102157430254308 -0.085188208642501234 -0.083685879945851582 -0.083655724168197512 -0.086509015735252923 0.10892683242070436 -0.085214799136478891 -0.084070804556288237 -0.084724634806334631 -0.083495516851218546 -0.084106472789115969 -0.083719109822269044 -0.083680979954845414 -0.083723003938545149 -0.08421826469509168
leaf_weight=198.58455101400614 4.5780929625034323 8.7810493037104589 5.8438587188720685 3.3009953573346129 2.6225134283304214 8.2014005184173566 5.7880703508853903 3.0174931883811942 5.4865569919347763 6.6688584685325623 6.0293470025062543 4.9304654300212851 8.4265482723712903 2.8583893626928321 6.3210095167160025 5.7963585257530204 3.0162159800529471 11.776773892343044 6.3072875887155515 2.5113086253404617 213.31038773059845 2.7833519503474271 3.3325051665306082 2.9746295958757401 4.8602414876222602 3.6034990251064292 10.822417989373205 2.6033540293574333 75.532586894929409 3.240652658045291
leaf_count=1601 20 71 20 26 20 29 20 17 20 23 20 30 29 20 22 20 22 95 51 18 746 20 26 22 40 28 87 21 607 25
internal_value=0 0.101055 -0.0725631 0.0627281 -0.0781616 -0.0261606 0.107368 -0.0826959 0.105469 0.109342 0.114368 -0.0838502 0.109075 -0.0837755 0.109005 0.108974 -0.0837452 -0.0841338 -0.0837313 -0.0844683 0.108941 -0.0847633 -0.0837098 -0.0845388 -0.0837058 -0.0837092 -0.0838159 -0.0837037 -0.0837414 -0.0839789
internal_weight=0 265.7 368.211 14.6314 353.58 28.3587 256.919 325.221 11.3304 252.341 12.6982 322.203 239.642 317.273 231.216 225.428 314.415 20.1573 311.398 8.8186 219.631 8.38049 302.58 5.59714 299.247 294.387 14.4259 279.961 81.3766 5.84401
internal_count=3816 971 2845 66 2779 186 900 2593 40 880 43 2576 837 2546 808 788 2526 157 2504 69 768 62 2435 42 2409 2369 115 2254 653 46
is_linear=0
shrinkage=0.1


Tree=29
num_leaves=31
num_cat=0
split_feature=9 6 20 3 1 21 5 9 6 1 19 4 3 7 1 1 13 21 20 3 6 14 22 13 23 15 5 7 23 0
split_gain=490.828 60.5954 21.5831 0.121441 0.00287412 0.00255829 0.00128533 0.00106685 0.000190996 0.000147261 9.54224e-05 9.26782e-05 7.91117e-05 6.52774e-05 0.000186702 0.000262915 7.77632e-05 5.36944e-05 3.60342e-05 3.39532e-05 2.67909e-05 1.55788e-05 1.54177e-05 1.05396e-05 1.9476e-05 9.66299e-06 5.80278e-06 5.06037e-06 1.33745e-05 4.76816e-06
threshold=1.3002791314935773 -0.31391617230087437 0.073994432920374845 0.21649919552966052 -0.45887261152661479 -0.52520355867215507 -2.0567452435145239 1.2370998336830683 3.2604535902658838 -0.67886754850921238 -0.24315026658918606 4.3393039718316322 0.60306912551344982 1.0512258438431707 -0.18040149706524192 0.375920429971144 -0.10684643086946662 -0.37490817089454481 0.073994432920374845 0.22636231700315229 0.2211069862368559 3.1833960893809361 0.3711323151607353 2.6542287336984196 -0.64954474708796572 -0.28863934189036339 -1.7600341536688191 0.68083150451633745 -0.64903316980456416 -2.7453441710703657
decision_type=2 2 2 2 2 2 2 2 2 2 2 2 2 2 2 2 2 2 2 2 2 2 2 2 2 2 2 2 2 2
left_child=6 2 3 -2 -3 -5 -1 8 11 -7 17 13 18 21 25 16 -16 -10 20 -17 -6 23 -22 26 -25 -15 -8 -28 -29 -11
right_child=1 4 -4 5 12 9 7 -9 10 29 -12 -13 -14 14 15 19 -18 -19 -20 -21 22 -23 -24 24 -26 -27 27 28 -30 -31
leaf_value=-0.085713846190927534 0.095591422358277986 -0.087451658122191106 -0.083700180409443117 0.11096606370588032 -0.083660274592502165 0.10941237545640813 -0.083835452927970996 -0.085286433553133992 -0.084644177904642084 0.10902406322879861 -0.083691537298712093 -0.083150351529380995 -0.084353385189827504 -0.083885014549309897 -0.084122294574682899 -0.083838794017291274 -0.084755625828529232 -0.084106164842738917 -0.083433686456550943 -0.083342518780641195 -0.084170725095568708 -0.083468678059034407 -0.083841075121152353 -0.083680271030377604 -0.083328567911426121 -0.08370188951569979 -0.083684972703481797 -0.083411449304381213 -0.083725129270911289 0.10893175194910146
leaf_weight=3.3106281235814086 6.935945361852645 2.6144757866859463 5.9604209288954726 6.4241345524787894 4.3306653872132284 6.5981112420558921 2.510384388267993 4.3655785992741576 2.9444912895560265 5.7248846292495719 3.717048726975916 3.060932293534278 2.7461848109960547 3.0298134908080092 3.3443885520100594 2.7608516067266464 4.6125651299953443 5.0133691728115082 2.6531346365809432 2.7535253241658211 2.5858367457985878 3.5249225422739974 3.1435406729578972 4.586162306368351 2.3976811021566382 58.857289738953114 216.26146615296602 2.4142973348498344 3.1105003729462615 247.6367791891098
leaf_count=24 24 18 48 22 35 23 20 33 22 20 30 26 21 24 26 22 34 39 22 23 20 29 25 37 20 474 1744 20 25 866
internal_value=0 0.0930655 0.104549 0.108655 -0.0843852 0.108995 -0.0837533 -0.0837336 -0.0837127 0.108946 -0.0841098 -0.0836979 -0.0838667 -0.0837033 -0.0837843 -0.0841217 -0.0844894 -0.0843052 -0.0837615 -0.083591 -0.083848 -0.0836773 -0.0839899 -0.0836805 -0.0835595 -0.0837109 -0.0836843 -0.0836826 -0.0835881 0.108934
internal_weight=0 297.354 279.28 273.32 18.0738 266.384 332.576 329.265 324.9 259.96 11.6749 313.225 15.4594 310.164 75.3584 13.4713 7.95695 7.95786 12.7132 5.51438 10.06 234.805 5.72938 231.28 6.98384 61.8871 224.297 221.786 5.5248 253.362
internal_count=3816 1144 1003 955 141 931 2672 2648 2615 909 91 2524 123 2498 603 105 60 61 102 45 80 1895 45 1866 57 498 1809 1789 45 886
is_linear=0
shrinkage=0.1


Tree=30
num_leaves=31
num_cat=0
split_feature=5 20 2 14 4 2 13 4 2 17 3 1 3 15 13 6 19 6 6 1 1 15 3 24 20 1 18 14 7 21
split_gain=449.585 86.2415 40.226 0.353903 0.00991017 0.00661695 0.0021603 0.00187977 0.00143613 0.00066 0.00119501 0.000288059 0.000523891 0.000898764 0.00015527 0.000155188 7.98733e-05 5.97489e-05 0.000149004 0.000153004 0.000302887 9.4709e-05 5.38018e-05 4.77406e-05 4.64524e-05 4.21023e-05 2.64339e-05 2.03352e-05 1.94033e-05 2.27932e-05
threshold=-0.88393257594573493 0.073994432920374845 0.19784072894823437 3.217142903407002 -0.88445275791321898 0.88183545091702731 2.5036645794749721 4.9766511054035947 0.22484339717975935 0.79996466756813012 -0.31280380127463164 -0.40541289600537905 0.14441322408906829 -0.39791319041009515 -0.14110022440551367 3.2604535902658838 -0.24315026658918606 0.1712526414144829 1.1292433689611199 -0.17146279029984404 0.51468203734382922 0.23797185294670342 0.25835541061766348 1.76115928581093 -0.19131930645556969 -0.034507709972840757 1.1341417721945988 0.52320039423471221 4.3116502165560151 -0.45129436667418843
decision_type=2 2 2 2 2 2 2 2 2 2 2 2 2 2 2 2 2 2 2 2 2 2 2 2 2 2 2 2 2 2
left_child=1 2 -1 7 -2 14 11 8 -4 15 -11 12 13 -6 26 17 22 28 19 21 24 -19 -17 -13 -21 -20 -3 -23 -10 -30
right_child=4 5 3 -5 6 -7 -8 -9 9 10 -12 23 -14 -15 -16 16 -18 18 25 20 -22 27 -24 -25 -26 -27 -28 -29 29 -31
leaf_value=0.11056875886143845 0.11323419045424848 0.10886610571366449 -0.085881438495128248 -0.046567402207232572 0.10892916970816631 0.11302020714459389 0.11086470005750426 -0.086078559232322521 -0.08369335991943197 -0.083682474955924513 -0.08647512251673041 0.10894832467466851 0.10896173665016454 0.11069429563303608 0.10957394247015502 -0.08398584350948958 -0.08371653838326909 -0.083739555249730757 -0.083715923441328097 -0.084217034155883358 -0.08332759800438895 -0.084338636386203494 -0.084529708094672196 0.10921651920729103 -0.08473144164942592 -0.083419577559290123 0.10915057840972278 -0.084006058370009851 -0.084100694122600156 -0.083690253569136439
leaf_weight=11.005121678113936 5.8159494102001181 7.1436219215393102 3.2203993126749983 2.5710388720035544 5.7189306020736694 5.8347521126270285 6.4087868630886069 3.592323623597621 212.20768471807241 3.9675508812069893 2.4964033514261237 186.76128503680229 18.592512339353561 5.8205980062484759 7.1938317120075235 3.1770772710442543 3.4770884886383993 27.54032351821661 62.303236283361912 2.5978973656892768 2.6287934035062781 3.0126360431313506 4.2549604028463364 6.8818170726299277 5.4135763943195334 5.1937651857733718 6.0184969007968903 4.7172207683324814 2.5729062333703041 2.8537143096327773
leaf_count=38 20 25 23 18 20 20 22 27 1710 32 18 653 65 20 25 25 28 221 501 20 22 23 32 24 40 43 21 37 20 23
