{"learner":{"attributes":{"scikit_learn":"{\"_estimator_type\": \"classifier\"}"},"feature_names":[],"feature_types":[],"gradient_booster":{"model":{"gbtree_model_param":{"num_parallel_tree":"1","num_trees":"400"},"iteration_indptr":[0,4,8,12,16,20,24,28,32,36,40,44,48,52,56,60,64,68,72,76,80,84,88,92,96,100,104,108,112,116,120,124,128,132,136,140,144,148,152,156,160,164,168,172,176,180,184,188,192,196,200,204,208,212,216,220,224,228,232,236,240,244,248,252,256,260,264,268,272,276,280,284,288,292,296,300,304,308,312,316,320,324,328,332,336,340,344,348,352,356,360,364,368,372,376,380,384,388,392,396,400],"tree_info":[0,1,2,3,0,1,2,3,0,1,2,3,0,1,2,3,0,1,2,3,0,1,2,3,0,1,2,3,0,1,2,3,0,1,2,3,0,1,2,3,0,1,2,3,0,1,2,3,0,1,2,3,0,1,2,3,0,1,2,3,0,1,2,3,0,1,2,3,0,1,2,3,0,1,2,3,0,1,2,3,0,1,2,3,0,1,2,3,0,1,2,3,0,1,2,3,0,1,2,3,0,1,2,3,0,1,2,3,0,1,2,3,0,1,2,3,0,1,2,3,0,1,2,3,0,1,2,3,0,1,2,3,0,1,2,3,0,1,2,3,0,1,2,3,0,1,2,3,0,1,2,3,0,1,2,3,0,1,2,3,0,1,2,3,0,1,2,3,0,1,2,3,0,1,2,3,0,1,2,3,0,1,2,3,0,1,2,3,0,1,2,3,0,1,2,3,0,1,2,3,0,1,2,3,0,1,2,3,0,1,2,3,0,1,2,3,0,1,2,3,0,1,2,3,0,1,2,3,0,1,2,3,0,1,2,3,0,1,2,3,0,1,2,3,0,1,2,3,0,1,2,3,0,1,2,3,0,1,2,3,0,1,2,3,0,1,2,3,0,1,2,3,0,1,2,3,0,1,2,3,0,1,2,3,0,1,2,3,0,1,2,3,0,1,2,3,0,1,2,3,0,1,2,3,0,1,2,3,0,1,2,3,0,1,2,3,0,1,2,3,0,1,2,3,0,1,2,3,0,1,2,3,0,1,2,3,0,1,2,3,0,1,2,3,0,1,2,3,0,1,2,3,0,1,2,3,0,1,2,3,0,1,2,3,0,1,2,3,0,1,2,3,0,1,2,3,0,1,2,3,0,1,2,3,0,1,2,3,0,1,2,3,0,1,2,3,0,1,2,3],"trees":[{"base_weights":[-0E0,1.8795635E0,-5.6704897E-1,-1.8688524E-1,5.981125E-1,-6.027461E-1,8.4162897E-1,-6.238123E-1,5.376624E-1,-1.8367347E-1,5.633588E-1,-6.608225E-1,-2.4742268E-1,-1.9948094E-1,-3.3898305E-2,-6.342944E-1,5.424E-1,-1.6595745E-1,3.6E-1,-1.9746837E-1,-1.7142858E-2],"categories":[],"categories_nodes":[],"categories_segments":[],"categories_sizes":[],"default_left":[0,0,0,0,0,0,0,0,0,0,0,0,0,0,0,0,0,0,0,0,0],"id":0,"left_children":[1,3,5,-1,-1,7,9,11,-1,-1,-1,13,15,-1,17,19,-1,-1,-1,-1,-1],"loss_changes":[1.5272979E3,9.611316E1,5.5865692E1,0E0,0E0,5.531671E1,4.276824E1,1.4680908E1,0E0,0E0,0E0,2.4782715E0,7.827974E1,0E0,5.3893976E0,1.100254E0,0E0,0E0,0E0,0E0,0E0],"parents":[2147483647,0,0,1,1,2,2,5,5,6,6,7,7,11,11,12,12,14,14,15,15],"right_children":[2,4,6,-1,-1,8,10,12,-1,-1,-1,14,16,-1,18,20,-1,-1,-1,-1,-1],"split_conditions":[-8.9005643E-1,7.546499E-2,1.382158E0,-1.8688524E-1,5.981125E-1,2.093759E0,9.5853853E-1,-1.5351835E-1,5.376624E-1,-1.8367347E-1,5.633588E-1,1.6489557E0,1.1465356E0,-1.9948094E-1,8.0578005E-1,-1.3453509E-1,5.424E-1,-1.6595745E-1,3.6E-1,-1.9746837E-1,-1.7142858E-2],"split_indices":[5,2,10,0,0,2,2,1,0,0,0,14,6,0,2,20,0,0,0,0,0],"split_type":[0,0,0,0,0,0,0,0,0,0,0,0,0,0,0,0,0,0,0,0,0],"sum_hessian":[1.431E3,3.31125E2,1.099875E3,1.425E1,3.16875E2,1.07325E3,2.6625E1,1.064625E3,8.625E0,1.125E1,1.5375E1,9.68625E2,9.6E1,9.6225E2,6.375E0,8.1375E1,1.4625E1,4.875E0,1.5E0,7.8E1,3.375E0],"tree_param":{"num_deleted":"0","num_feature":"25","num_nodes":"21","size_leaf_vector":"1"}},{"base_weights":[-0E0,-1.9980104E-1,1.5651666E0,1.8647664E0,-1.9612592E-1,5.9749395E-1,-1.8947369E-1],"categories":[],"categories_nodes":[],"categories_segments":[],"categories_sizes":[],"default_left":[0,0,0,0,0,0,0],"id":1,"left_children":[1,-1,3,5,-1,-1,-1],"loss_changes":[1.4937683E3,0E0,2.8558215E2,1.2070703E2,0E0,0E0,0E0],"parents":[2147483647,0,0,2,2,3,3],"right_children":[2,-1,4,6,-1,-1,-1],"split_conditions":[1.3395318E0,-1.9980104E-1,-3.5521638E-1,3.9870802E-1,-1.9612592E-1,5.9749395E-1,-1.8947369E-1],"split_indices":[9,0,6,15,0,0,0],"split_type":[0,0,0,0,0,0,0],"sum_hessian":[1.431E3,1.00425E3,4.2675E2,3.76125E2,5.0625E1,3.58125E2,1.8E1],"tree_param":{"num_deleted":"0","num_feature":"25","num_nodes":"7","size_leaf_vector":"1"}},{"base_weights":[-0E0,-5.4775935E-1,5.980575E-1,-6.2752295E-1,5.8291817E-1,5.633588E-1,-6.651157E-1,-1.9981325E-1,-3.1578946E-1,3.529412E-2,-1.4482759E-1],"categories":[],"categories_nodes":[],"categories_segments":[],"categories_sizes":[],"default_left":[0,0,0,0,0,0,0,0,0,0,0],"id":2,"left_children":[1,3,-1,5,-1,-1,7,-1,9,-1,-1],"loss_changes":[1.5647958E3,2.245567E2,0E0,1.03910065E2,0E0,0E0,1.381836E-1,0E0,4.0055516E-1,0E0,0E0],"parents":[2147483647,0,0,1,1,3,3,6,6,8,8],"right_children":[2,4,-1,6,-1,-1,8,-1,10,-1,-1],"split_conditions":[-8.0662113E-1,3.9870802E-1,5.980575E-1,7.546499E-2,5.8291817E-1,5.633588E-1,3.5147114E0,-1.9981325E-1,9.519126E-1,3.529412E-2,-1.4482759E-1],"split_indices":[5,15,0,2,0,0,14,0,1,0,0],"split_type":[0,0,0,0,0,0,0,0,0,0,0],"sum_hessian":[1.431E3,1.123125E3,3.07875E2,1.089E3,3.4125E1,1.5375E1,1.073625E3,1.069875E3,3.75E0,1.125E0,2.625E0],"tree_param":{"num_deleted":"0","num_feature":"25","num_nodes":"11","size_leaf_vector":"1"}},{"base_weights":[-0E0,-5.56213E-1,1.5593895E0,3.824176E-1,-6.090216E-1,-1.9211824E-1,1.7133735E0,-1.9424462E-1,5.7405406E-1,-6.552371E-1,3.3027522E-2,1.830294E0,-1.8857144E-1,-6.594595E-1,-1.6216215E-1,-1.9591837E-1,1.7018634E0,1.9511997E0,5.084746E-1,-6.626801E-1,-8E-2,-1.7419355E-1,3.6E-1,5.6778526E-1,-1.20000005E-1,1.9640375E0,-1.20000005E-1,1.6065574E0,-1.8688524E-1,-1.9978087E-1,-6.461539E-2,-1.6097562E-1,3.176471E-1,5.9590095E-1,4.0884957E-1,-1.0588236E-1,5.362832E-1],"categories":[],"categories_nodes":[],"categories_segments":[],"categories_sizes":[],"default_left":[0,0,0,0,0,0,0,0,0,0,0,0,0,0,0,0,0,0,0,0,0,0,0,0,0,0,0,0,0,0,0,0,0,0,0,0,0],"id":3,"left_children":[1,3,5,7,9,-1,11,-1,-1,13,15,17,-1,19,21,-1,23,25,27,29,31,-1,-1,-1,-1,33,-1,35,-1,-1,-1,-1,-1,-1,-1,-1,-1],"loss_changes":[1.2429165E3,5.2588867E1,1.2871423E2,9.092374E1,2.9705353E1,0E0,9.7638306E1,0E0,0E0,1.8360596E0,7.9112465E1,5.2685913E1,0E0,1.6732483E0,5.96966E0,0E0,8.825951E0,1.0063599E1,3.7651573E1,1.1961365E0,3.8179626E0,0E0,0E0,0E0,0E0,1.3935547E0,0E0,6.041218E0,0E0,0E0,0E0,0E0,0E0,0E0,0E0,0E0,0E0],"parents":[2147483647,0,0,1,1,2,2,3,3,4,4,6,6,9,9,10,10,11,11,13,13,14,14,16,16,17,17,18,18,19,19,20,20,25,25,27,27],"right_children":[2,4,6,8,10,-1,12,-1,-1,14,16,18,-1,20,22,-1,24,26,28,30,32,-1,-1,-1,-1,34,-1,36,-1,-1,-1,-1,-1,-1,-1,-1,-1],"split_conditions":[6.716708E-1,-1.1449459E0,1.501213E-1,7.713847E-1,2.529616E-1,-1.9211824E-1,1.382158E0,-1.9424462E-1,5.7405406E-1,4.9071813E0,1.501213E-1,1.0089408E-1,-1.8857144E-1,6.4262897E-1,-1.4944011E0,-1.9591837E-1,-7.0793647E-1,1.6489557E0,2.1418008E-1,2.742423E0,-1.632131E-1,-1.7419355E-1,3.6E-1,5.6778526E-1,-1.20000005E-1,-1.5351835E-1,-1.20000005E-1,1.0024917E0,-1.8688524E-1,-1.9978087E-1,-6.461539E-2,-1.6097562E-1,3.176471E-1,5.9590095E-1,4.0884957E-1,-1.0588236E-1,5.362832E-1],"split_indices":[6,7,11,2,6,0,10,0,0,4,11,1,0,3,0,0,8,14,0,13,0,0,0,0,0,1,0,2,0,0,0,0,0,0,0,0,0],"split_type":[0,0,0,0,0,0,0,0,0,0,0,0,0,0,0,0,0,0,0,0,0,0,0,0,0,0,0,0,0,0,0,0,0,0,0,0,0],"sum_hessian":[1.431E3,1.05525E3,3.7575E2,5.5875E1,9.99375E2,2.4375E1,3.51375E2,3.375E1,2.2125E1,9.3225E2,6.7125E1,3.34875E2,1.65E1,9.24E2,8.25E0,4.8E1,1.9125E1,3.06375E2,2.85E1,9.1875E2,5.25E0,6.75E0,1.5E0,1.7625E1,1.5E0,3.04875E2,1.5E0,1.425E1,1.425E1,9.11625E2,7.125E0,4.125E0,1.125E0,2.9175E2,1.3125E1,1.125E0,1.3125E1],"tree_param":{"num_deleted":"0","num_feature":"25","num_nodes":"37","size_leaf_vector":"1"}},{"base_weights":[4.3402382E-4,-5.4954153E-1,1.0720053E0,-5.8602726E-1,5.926414E-1,1.1568986E0,-1.7747836E-1,-6.1220217E-1,-2.1068078E-1,-1.6711672E-1,3.4169352E-1,-1.5230288E-1,3.5251725E-1,-1.8502131E-1,2.9797645E-3,-1.8279701E-1,1.107666E0,-1.5000762E-1,2.7181172E-1,1.001511E-1,3.5094714E-1],"categories":[],"categories_nodes":[],"categories_segments":[],"categories_sizes":[],"default_left":[0,0,0,0,0,0,0,0,0,0,0,0,0,0,0,0,0,0,0,0,0],"id":4,"left_children":[1,3,5,7,9,11,-1,13,15,-1,-1,-1,-1,-1,17,-1,19,-1,-1,-1,-1],"loss_changes":[7.9916345E2,3.7691376E1,6.563867E1,8.40741E0,1.8370392E1,1.3833801E1,0E0,2.2666626E0,3.1244097E1,0E0,0E0,0E0,0E0,0E0,3.6036065E0,0E0,2.761116E-1,0E0,0E0,0E0,0E0],"parents":[2147483647,0,0,1,1,2,2,3,3,4,4,5,5,7,7,8,8,14,14,16,16],"right_children":[2,4,6,8,10,12,-1,14,16,-1,-1,-1,-1,-1,18,-1,20,-1,-1,-1,-1],"split_conditions":[5.188194E-1,1.382158E0,-8.0662113E-1,-1.5351835E-1,9.5853853E-1,-7.2848815E-1,-1.7747836E-1,1.6489557E0,1.1465356E0,-1.6711672E-1,3.4169352E-1,-1.5230288E-1,3.5251725E-1,-1.8502131E-1,8.0578005E-1,-1.8279701E-1,1.6593944E0,-1.5000762E-1,2.7181172E-1,1.001511E-1,3.5094714E-1],"split_indices":[1,10,5,1,2,3,0,14,6,0,0,0,0,0,2,0,6,0,0,0,0],"split_type":[0,0,0,0,0,0,0,0,0,0,0,0,0,0,0,0,0,0,0,0,0],"sum_hessian":[1.3540363E3,8.951134E2,4.5892282E2,8.67877E2,2.7236422E1,4.3693085E2,2.1991964E1,8.107109E2,5.716615E1,8.767243E0,1.846918E1,4.424141E0,4.325067E2,8.04775E2,5.935848E0,4.4306526E1,1.2859625E1,4.098999E0,1.8368495E0,1.4298325E0,1.1429792E1],"tree_param":{"num_deleted":"0","num_feature":"25","num_nodes":"21","size_leaf_vector":"1"}},{"base_weights":[-1.1038322E-3,-1.8541282E-1,9.760336E-1,1.1159229E0,-1.8193486E-1,3.514266E-1,-1.7425756E-1],"categories":[],"categories_nodes":[],"categories_segments":[],"categories_sizes":[],"default_left":[0,0,0,0,0,0,0],"id":5,"left_children":[1,-1,3,5,-1,-1,-1],"loss_changes":[8.178287E2,0E0,1.1690765E2,4.614148E1,0E0,0E0,0E0],"parents":[2147483647,0,0,2,2,3,3],"right_children":[2,-1,4,6,-1,-1,-1],"split_conditions":[1.3395318E0,-1.8541282E-1,-3.5521638E-1,3.9870802E-1,-1.8193486E-1,3.514266E-1,-1.7425756E-1],"split_indices":[9,0,6,15,0,0,0],"split_type":[0,0,0,0,0,0,0],"sum_hessian":[1.3546393E3,8.305925E2,5.2404675E2,4.817551E2,4.229164E1,4.667965E2,1.495859E1],"tree_param":{"num_deleted":"0","num_feature":"25","num_nodes":"7","size_leaf_vector":"1"}},{"base_weights":[1.876541E-6,-4.9513057E-1,3.5229087E-1,-5.772654E-1,3.4896073E-1,3.4339336E-1,-6.1711085E-1,-1.8545145E-1,-2.574189E-1,5.0285056E-2,-1.3219249E-1],"categories":[],"categories_nodes":[],"categories_segments":[],"categories_sizes":[],"default_left":[0,0,0,0,0,0,0,0,0,0,0],"id":6,"left_children":[1,3,-1,5,-1,-1,7,-1,9,-1,-1],"loss_changes":[7.884457E2,1.3059276E2,0E0,6.310791E1,0E0,0E0,1.8026733E-1,0E0,4.1098204E-1,0E0,0E0],"parents":[2147483647,0,0,1,1,3,3,6,6,8,8],"right_children":[2,4,-1,6,-1,-1,8,-1,10,-1,-1],"split_conditions":[-8.0662113E-1,3.9870802E-1,3.5229087E-1,7.546499E-2,3.4896073E-1,3.4339336E-1,3.5147114E0,-1.8545145E-1,-1.3450519E-2,5.0285056E-2,-1.3219249E-1],"split_indices":[5,15,0,2,0,0,14,0,6,0,0],"split_type":[0,0,0,0,0,0,0,0,0,0,0],"sum_hessian":[1.354035E3,9.5285254E2,4.0118253E2,9.085074E2,4.4345142E1,1.9920536E1,8.8858685E2,8.8525793E2,3.3289618E0,1.0284235E0,2.3005383E0],"tree_param":{"num_deleted":"0","num_feature":"25","num_nodes":"11","size_leaf_vector":"1"}},{"base_weights":[6.682168E-4,-5.028329E-1,9.728743E-1,-5.7161516E-1,1.3929261E-1,-1.7722821E-1,1.0458639E0,1.9080962E-1,-6.105385E-1,-1.8204796E-1,1.1024189E0,1.099783E0,-1.7398462E-1,-1.774781E-1,3.3851925E-1,-6.152463E-1,-1.2386012E-1,3.5349888E-1,-1.16263546E-1,1.1536981E0,3.7090027E-1,-1.8530315E-1,-2.7274597E-1,-1.5967508E-1,2.6502317E-1,3.4797773E-1,-1.11615956E-1,1.0068004E0,-1.7290293E-1,1.7341936E-1,-1.5880246E-1,5.6981374E-2,3.2686272E-1],"categories":[],"categories_nodes":[],"categories_segments":[],"categories_sizes":[],"default_left":[0,0,0,0,0,0,0,0,0,0,0,0,0,0,0,0,0,0,0,0,0,0,0,0,0,0,0,0,0,0,0,0,0],"id":7,"left_children":[1,3,5,7,9,-1,11,13,15,-1,17,19,-1,-1,-1,21,23,-1,-1,25,27,-1,29,-1,-1,-1,-1,31,-1,-1,-1,-1,-1],"loss_changes":[6.6400824E2,3.954985E1,5.343936E1,2.4076782E1,6.3380604E1,0E0,3.943219E1,2.9994926E1,1.6843872E0,0E0,4.8054314E0,1.6418335E1,0E0,0E0,0E0,4.649353E-1,4.0136366E0,0E0,0E0,4.2197876E0,1.9252762E1,0E0,1.8674468E0,0E0,0E0,0E0,0E0,1.0712852E0,0E0,0E0,0E0,0E0,0E0],"parents":[2147483647,0,0,1,1,2,2,3,3,4,4,6,6,7,7,8,8,10,10,11,11,15,15,16,16,19,19,20,20,22,22,27,27],"right_children":[2,4,6,8,10,-1,12,14,16,-1,18,20,-1,-1,-1,22,24,-1,-1,26,28,-1,30,-1,-1,-1,-1,32,-1,-1,-1,-1,-1],"split_conditions":[6.716708E-1,1.4467686E-1,1.501213E-1,-1.1890723E0,1.6375059E-1,-1.7722821E-1,1.382158E0,7.713847E-1,4.9071813E0,-1.8204796E-1,-7.0793647E-1,1.0089408E-1,-1.7398462E-1,-1.774781E-1,3.3851925E-1,2.742423E0,-1.4944011E0,3.5349888E-1,-1.16263546E-1,1.6489557E0,2.1418008E-1,-1.8530315E-1,-3.7813368E-1,-1.5967508E-1,2.6502317E-1,3.4797773E-1,-1.11615956E-1,1.4133052E0,-1.7290293E-1,1.7341936E-1,-1.5880246E-1,5.6981374E-2,3.2686272E-1],"split_indices":[6,6,11,7,11,0,10,2,4,0,8,1,0,0,0,13,0,0,0,14,0,0,1,0,0,0,0,2,0,0,0,0,0],"split_type":[0,0,0,0,0,0,0,0,0,0,0,0,0,0,0,0,0,0,0,0,0,0,0,0,0,0,0,0,0,0,0,0,0],"sum_hessian":[1.3544847E3,8.92662E2,4.6182275E2,8.063936E2,8.6268326E1,2.0279833E1,4.4154294E2,3.897887E1,7.674148E2,4.8818962E1,3.744936E1,4.2768265E2,1.3860281E1,2.144901E1,1.752986E1,7.598008E2,7.6139774E0,3.5832905E1,1.6164576E0,3.9768335E2,2.9999306E1,7.536485E2,6.152322E0,5.7530427E0,1.8609351E0,3.963055E2,1.3778236E0,1.7911884E1,1.208742E1,1.1352562E0,5.017066E0,1.9505726E0,1.5961312E1],"tree_param":{"num_deleted":"0","num_feature":"25","num_nodes":"33","size_leaf_vector":"1"}},{"base_weights":[7.2710443E-4,-5.1399606E-1,8.24176E-1,-5.512048E-1,4.8034123E-1,8.8143164E-1,-1.6676469E-1,-5.791788E-1,-1.7612684E-1,-1.552886E-1,2.607181E-1,-1.4041418E-1,8.9397794E-1,-1.752529E-1,2.2759832E-2,-1.7254047E-1,8.796362E-1,2.685675E-1,8.4507905E-2,-1.3721958E-1,2.170039E-1,2.805513E-1,6.883559E-2],"categories":[],"categories_nodes":[],"categories_segments":[],"categories_sizes":[],"default_left":[0,0,0,0,0,0,0,0,0,0,0,0,0,0,0,0,0,0,0,0,0,0,0],"id":8,"left_children":[1,3,5,7,9,11,-1,13,15,-1,-1,-1,17,-1,19,-1,21,-1,-1,-1,-1,-1,-1],"loss_changes":[5.0621948E2,2.7456223E1,3.6789917E1,7.3360596E0,1.0941172E1,7.8931885E0,0E0,1.9964752E0,2.1837759E1,0E0,0E0,0E0,8.203125E-2,0E0,2.4806836E0,0E0,3.011961E-1,0E0,0E0,0E0,0E0,0E0,0E0],"parents":[2147483647,0,0,1,1,2,2,3,3,4,4,5,5,7,7,8,8,12,12,14,14,16,16],"right_children":[2,4,6,8,10,12,-1,14,16,-1,-1,-1,18,-1,20,-1,22,-1,-1,-1,-1,-1,-1],"split_conditions":[5.188194E-1,1.382158E0,-8.0662113E-1,-1.5351835E-1,9.5853853E-1,-7.2848815E-1,-1.6676469E-1,1.6489557E0,1.1465356E0,-1.552886E-1,2.607181E-1,-1.4041418E-1,1.073391E1,-1.752529E-1,8.0578005E-1,-1.7254047E-1,2.2744777E0,2.685675E-1,8.4507905E-2,-1.3721958E-1,2.170039E-1,2.805513E-1,6.883559E-2],"split_indices":[1,10,5,1,2,3,0,14,6,0,0,0,21,0,2,0,7,0,0,0,0,0,0],"split_type":[0,0,0,0,0,0,0,0,0,0,0,0,0,0,0,0,0,0,0,0,0,0,0],"sum_hessian":[1.192342E3,7.339431E2,4.583989E2,7.0789874E2,2.604437E1,4.404854E2,1.7913477E1,6.5826025E2,4.9638454E1,7.2078424E0,1.8836529E1,3.7231069E0,4.367623E2,6.5286945E2,5.3908257E0,3.6354225E1,1.3284229E1,4.354134E2,1.3489335E0,3.404569E0,1.9862567E0,1.1835035E1,1.4491937E0],"tree_param":{"num_deleted":"0","num_feature":"25","num_nodes":"23","size_leaf_vector":"1"}},{"base_weights":[-1.6920465E-3,-1.7572543E-1,7.5779706E-1,8.539694E-1,-1.717234E-1,8.913984E-1,-1.6317773E-1,4.2843622E-1,2.6802367E-1,1.60242E-1,4.520673E-2],"categories":[],"categories_nodes":[],"categories_segments":[],"categories_sizes":[],"default_left":[0,0,0,0,0,0,0,0,0,0,0],"id":9,"left_children":[1,-1,3,5,-1,7,-1,9,-1,-1,-1],"loss_changes":[5.2939404E2,0E0,6.685928E1,2.5820465E1,0E0,5.7281494E-2,0E0,3.5936296E-2,0E0,0E0,0E0],"parents":[2147483647,0,0,2,2,3,3,5,5,7,7],"right_children":[2,-1,4,6,-1,8,-1,10,-1,-1,-1],"split_conditions":[1.3395318E0,-1.7572543E-1,-3.5521638E-1,3.9870802E-1,-1.717234E-1,2.1510583E-1,-1.6317773E-1,-1.4944011E0,2.6802367E-1,1.60242E-1,4.520673E-2],"split_indices":[9,0,6,15,0,3,0,0,0,0,0],"split_type":[0,0,0,0,0,0,0,0,0,0,0],"sum_hessian":[1.1914392E3,6.7363324E2,5.17806E2,4.8322733E2,3.4578686E1,4.709791E2,1.224824E1,2.965588E0,4.6801352E2,1.479435E0,1.4861531E0],"tree_param":{"num_deleted":"0","num_feature":"25","num_nodes":"11","size_leaf_vector":"1"}},{"base_weights":[2.3393577E-4,-4.6067753E-1,2.6830778E-1,-5.435148E-1,2.65871E-1,2.622182E-1,-5.8462304E-1,-1.7577006E-1,-2.034934E-1,5.3171944E-2,-1.1854661E-1],"categories":[],"categories_nodes":[],"categories_segments":[],"categories_sizes":[],"default_left":[0,0,0,0,0,0,0,0,0,0,0],"id":10,"left_children":[1,3,-1,5,-1,-1,7,-1,9,-1,-1],"loss_changes":[4.918369E2,8.834717E1,0E0,4.377928E1,0E0,0E0,2.322998E-1,0E0,3.5784692E-1,0E0,0E0],"parents":[2147483647,0,0,1,1,3,3,6,6,8,8],"right_children":[2,4,-1,6,-1,-1,8,-1,10,-1,-1],"split_conditions":[-8.0662113E-1,3.9870802E-1,2.6830778E-1,7.546499E-2,2.65871E-1,2.622182E-1,3.5147114E0,-1.7577006E-1,9.519126E-1,5.3171944E-2,-1.1854661E-1],"split_indices":[5,15,0,2,0,0,14,0,1,0,0],"split_type":[0,0,0,0,0,0,0,0,0,0,0],"sum_hessian":[1.191453E3,7.865039E2,4.049491E2,7.4149713E2,4.5006733E1,2.0325624E1,7.211715E2,7.182274E2,2.9441066E0,1.0110068E0,1.9330997E0],"tree_param":{"num_deleted":"0","num_feature":"25","num_nodes":"11","size_leaf_vector":"1"}},{"base_weights":[7.286693E-4,-5.3732806E-1,6.6062623E-1,1.6428469E-1,-5.7731515E-1,-1.7310268E-1,8.049723E-1,-1.6669951E-1,2.587196E-1,-5.8244497E-1,-9.643247E-2,8.388688E-1,-1.6289319E-1,-1.7558181E-1,-2.2366986E-1,-1.4733285E-1,2.0938073E-1,8.766621E-1,3.5513294E-1,-1.4667015E-1,1.5383598E-1,8.8308805E-1,-1.170311E-1,-1.7029084E-1,8.162917E-1,2.6623133E-1,-1.0342561E-1,2.7181664E-1,-5.3788405E-2],"categories":[],"categories_nodes":[],"categories_segments":[],"categories_sizes":[],"default_left":[0,0,0,0,0,0,0,0,0,0,0,0,0,0,0,0,0,0,0,0,0,0,0,0,0,0,0,0,0],"id":11,"left_children":[1,3,5,7,9,-1,11,-1,-1,13,15,17,-1,-1,19,-1,-1,21,23,-1,-1,25,-1,-1,27,-1,-1,-1,-1],"loss_changes":[4.247678E2,1.8583313E1,9.6455826E1,1.8729694E1,1.4823608E0,0E0,2.2460938E1,0E0,0E0,4.9493408E-1,2.7823563E0,8.28479E0,0E0,0E0,1.5091645E0,0E0,0E0,3.8890686E0,1.5678349E1,0E0,0E0,2.6213684E0,0E0,0E0,2.3296356E0,0E0,0E0,0E0,0E0],"parents":[2147483647,0,0,1,1,2,2,3,3,4,4,6,6,9,9,10,10,11,11,14,14,17,17,18,18,21,21,24,24],"right_children":[2,4,6,8,10,-1,12,-1,-1,14,16,18,-1,-1,20,-1,-1,22,24,-1,-1,26,-1,-1,28,-1,-1,-1,-1],"split_conditions":[1.4467686E-1,-1.1890723E0,1.501213E-1,7.713847E-1,4.9071813E0,-1.7310268E-1,1.382158E0,-1.6669951E-1,2.587196E-1,2.742423E0,-1.4944011E0,-4.931113E-2,-1.6289319E-1,-1.7558181E-1,5.0137407E-1,-1.4733285E-1,2.0938073E-1,-7.0793647E-1,8.823114E-1,-1.4667015E-1,1.5383598E-1,1.6489557E0,-1.170311E-1,-1.7029084E-1,-1.3728164E-1,2.6623133E-1,-1.0342561E-1,2.7181664E-1,-5.3788405E-2],"split_indices":[6,7,11,2,4,0,10,0,0,13,0,1,0,0,0,0,0,8,12,0,0,14,0,0,20,0,0,0,0],"split_type":[0,0,0,0,0,0,0,0,0,0,0,0,0,0,0,0,0,0,0,0,0,0,0,0,0,0,0,0,0],"sum_hessian":[1.1943193E3,6.579975E2,5.363218E2,3.5311653E1,6.2268585E2,5.570501E1,4.8061676E2,1.7484411E1,1.7827244E1,6.1590454E2,6.7813277E0,4.691957E2,1.1421069E1,6.104618E2,5.4427266E0,4.7854614E0,1.9958664E0,4.344414E2,3.47543E1,4.248719E0,1.1940074E0,4.3255008E2,1.891331E0,1.1504048E1,2.3250252E1,4.3129944E2,1.2506402E0,2.1409834E1,1.8404176E0],"tree_param":{"num_deleted":"0","num_feature":"25","num_nodes":"29","size_leaf_vector":"1"}},{"base_weights":[1.0906379E-3,-4.9657434E-1,6.857751E-1,-5.340246E-1,4.253588E-1,7.3732334E-1,-1.597154E-1,-5.5502087E-1,-2.0794173E-1,-1.4354701E-1,2.1791387E-1,-1.4129117E-1,7.527968E-1,-1.6816443E-1,3.6869273E-2,-1.6495968E-1,2.3604989E-1,2.2616515E-1,7.087936E-2,-1.2623888E-1,1.8301088E-1],"categories":[],"categories_nodes":[],"categories_segments":[],"categories_sizes":[],"default_left":[0,0,0,0,0,0,0,0,0,0,0,0,0,0,0,0,0,0,0,0,0],"id":12,"left_children":[1,3,5,7,9,11,-1,13,15,-1,-1,-1,17,-1,19,-1,-1,-1,-1,-1,-1],"loss_changes":[3.4210153E2,2.0300842E1,2.6928635E1,3.712799E0,6.6738853E0,7.9425507E0,0E0,1.7372894E0,1.2481736E1,0E0,0E0,0E0,4.7073364E-2,0E0,1.7762831E0,0E0,0E0,0E0,0E0,0E0,0E0],"parents":[2147483647,0,0,1,1,2,2,3,3,4,4,5,5,7,7,8,8,12,12,14,14],"right_children":[2,4,6,8,10,12,-1,14,16,-1,-1,-1,18,-1,20,-1,-1,-1,-1,-1,-1],"split_conditions":[4.02959E-1,1.382158E0,-8.0662113E-1,-1.5351835E-1,9.5853853E-1,-7.2848815E-1,-1.597154E-1,1.6489557E0,1.6593944E0,-1.4354701E-1,2.1791387E-1,-1.4129117E-1,1.073391E1,-1.6816443E-1,8.0578005E-1,-1.6495968E-1,2.3604989E-1,2.2616515E-1,7.087936E-2,-1.2623888E-1,1.8301088E-1],"split_indices":[1,10,5,1,2,3,0,14,6,0,0,0,21,0,2,0,0,0,0,0,0],"split_type":[0,0,0,0,0,0,0,0,0,0,0,0,0,0,0,0,0,0,0,0,0],"sum_hessian":[1.0019862E3,5.8039734E2,4.2158887E2,5.5814545E2,2.2251926E1,4.0485165E2,1.6737188E1,5.2372125E2,3.4424183E1,5.4120555E0,1.683987E1,4.746796E0,4.0010486E2,5.1892834E2,4.792884E0,2.5951412E1,8.472773E0,3.9880618E2,1.298687E0,2.812769E0,1.9801152E0],"tree_param":{"num_deleted":"0","num_feature":"25","num_nodes":"21","size_leaf_vector":"1"}},{"base_weights":[-2.0936844E-3,-1.6874856E-1,6.437891E-1,7.204804E-1,-1.6388422E-1,7.500947E-1,-1.5405217E-1,3.4570175E-1,2.2559285E-1,1.3627876E-1,2.9609574E-2],"categories":[],"categories_nodes":[],"categories_segments":[],"categories_sizes":[],"default_left":[0,0,0,0,0,0,0,0,0,0,0],"id":13,"left_children":[1,-1,3,5,-1,7,-1,9,-1,-1,-1],"loss_changes":[3.6249988E2,0E0,4.285791E1,1.6374283E1,0E0,6.5460205E-2,0E0,5.7905525E-2,0E0,0E0,0E0],"parents":[2147483647,0,0,2,2,3,3,5,5,7,7],"right_children":[2,-1,4,6,-1,8,-1,10,-1,-1,-1],"split_conditions":[1.3395318E0,-1.6874856E-1,-3.5521638E-1,3.9870802E-1,-1.6388422E-1,2.1510583E-1,-1.5405217E-1,-1.4944011E0,2.2559285E-1,1.3627876E-1,2.9609574E-2],"split_indices":[9,0,6,15,0,3,0,0,0,0,0],"split_type":[0,0,0,0,0,0,0,0,0,0,0],"sum_hessian":[9.9950854E2,5.352377E2,4.642709E2,4.365341E2,2.7736834E1,4.2668622E2,9.847847E0,2.8314815E0,4.2385474E2,1.3840706E0,1.447411E0],"tree_param":{"num_deleted":"0","num_feature":"25","num_nodes":"11","size_leaf_vector":"1"}},{"base_weights":[4.7698623E-4,-4.3618417E-1,2.2588913E-1,-5.191521E-1,2.232275E-1,2.1956709E-1,-5.610822E-1,-1.6879627E-1,-1.5796272E-1,-1.1059957E-1,5.6871854E-2],"categories":[],"categories_nodes":[],"categories_segments":[],"categories_sizes":[],"default_left":[0,0,0,0,0,0,0,0,0,0,0],"id":14,"left_children":[1,3,-1,5,-1,-1,7,-1,9,-1,-1],"loss_changes":[3.293207E2,6.249218E1,0E0,3.1525238E1,0E0,0E0,2.7520752E-1,0E0,3.3511063E-1,0E0,0E0],"parents":[2147483647,0,0,1,1,3,3,6,6,8,8],"right_children":[2,4,-1,6,-1,-1,8,-1,10,-1,-1],"split_conditions":[-8.0662113E-1,3.9870802E-1,2.2588913E-1,7.546499E-2,2.232275E-1,2.1956709E-1,3.5147114E0,-1.6879627E-1,2.5960817E0,-1.1059957E-1,5.6871854E-2],"split_indices":[5,15,0,2,0,0,14,0,4,0,0],"split_type":[0,0,0,0,0,0,0,0,0,0,0],"sum_hessian":[1.0002493E3,6.332187E2,3.6703064E2,5.921532E2,4.1065502E1,1.8669418E1,5.7348376E2,5.708618E2,2.6219313E0,1.5944538E0,1.0274775E0],"tree_param":{"num_deleted":"0","num_feature":"25","num_nodes":"11","size_leaf_vector":"1"}},{"base_weights":[5.201979E-4,-5.125248E-1,5.6261903E-1,1.4749262E-1,-5.5314696E-1,-1.6551381E-1,6.7716175E-1,-1.580792E-1,2.1665768E-1,-5.5870074E-1,-7.6484814E-2,7.0410717E-1,-1.5367757E-1,-1.6860116E-1,-1.8299848E-1,-1.3642494E-1,1.7338315E-1,7.3483145E-1,3.0267513E-1,-1.358038E-1,1.3598776E-1,7.4009395E-1,-1.0575657E-1,-1.5951079E-1,6.729625E-1,2.23166E-1,-9.485286E-2,2.250274E-1,-4.846228E-2],"categories":[],"categories_nodes":[],"categories_segments":[],"categories_sizes":[],"default_left":[0,0,0,0,0,0,0,0,0,0,0,0,0,0,0,0,0,0,0,0,0,0,0,0,0,0,0,0,0],"id":15,"left_children":[1,3,5,7,9,-1,11,-1,-1,13,15,17,-1,-1,19,-1,-1,21,23,-1,-1,25,-1,-1,27,-1,-1,-1,-1],"loss_changes":[2.903916E2,1.4196579E1,6.170546E1,1.2517079E1,1.2707062E0,0E0,1.4339783E1,0E0,0E0,5.055847E-1,1.9641615E0,5.043228E0,0E0,0E0,1.1928431E0,0E0,0E0,2.5262299E0,1.0260959E1,0E0,0E0,1.8148041E0,0E0,0E0,1.5785141E0,0E0,0E0,0E0,0E0],"parents":[2147483647,0,0,1,1,2,2,3,3,4,4,6,6,9,9,10,10,11,11,14,14,17,17,18,18,21,21,24,24],"right_children":[2,4,6,8,10,-1,12,-1,-1,14,16,18,-1,-1,20,-1,-1,22,24,-1,-1,26,-1,-1,28,-1,-1,-1,-1],"split_conditions":[1.4467686E-1,-1.1890723E0,1.501213E-1,7.713847E-1,4.9071813E0,-1.6551381E-1,1.382158E0,-1.580792E-1,2.1665768E-1,2.742423E0,-1.4944011E0,-4.931113E-2,-1.5367757E-1,-1.6860116E-1,7.858098E-3,-1.3642494E-1,1.7338315E-1,-7.0793647E-1,8.823114E-1,-1.358038E-1,1.3598776E-1,1.6489557E0,-1.0575657E-1,-1.5951079E-1,-1.3728164E-1,2.23166E-1,-9.485286E-2,2.250274E-1,-4.846228E-2],"split_indices":[6,7,11,2,4,0,10,0,0,13,0,1,0,0,7,0,0,8,12,0,0,14,0,0,20,0,0,0,0],"split_type":[0,0,0,0,0,0,0,0,0,0,0,0,0,0,0,0,0,0,0,0,0,0,0,0,0,0,0,0,0],"sum_hessian":[1.0049686E3,5.254564E2,4.7951215E2,3.031275E1,4.951437E2,4.4339302E1,4.3517285E2,1.3984609E1,1.6328142E1,4.892709E2,5.8727913E0,4.259317E2,9.241142E0,4.8451523E2,4.7556696E0,3.915006E0,1.9577856E0,3.948785E2,3.1053204E1,3.5427163E0,1.2129531E0,3.932944E2,1.5840914E0,9.411075E0,2.1642128E1,3.9218195E2,1.1124539E0,1.9903687E1,1.7384429E0],"tree_param":{"num_deleted":"0","num_feature":"25","num_nodes":"29","size_leaf_vector":"1"}},{"base_weights":[1.5039254E-3,-4.7666332E-1,6.1200035E-1,-5.1438946E-1,3.8088793E-1,6.5617996E-1,-1.5268031E-1,-5.3022546E-1,-2.4842223E-2,-1.3413717E-1,1.9201535E-1,-1.3164188E-1,6.69735E-1,-1.6372575E-1,-1.9339879E-1,-3.7947965E-1,7.984149E-1,6.606664E-2,2.0131175E-1,-1.5391248E-1,1.7978968E-1,-1.4697959E-1,6.488742E-2,6.33974E-2,2.7872905E-1],"categories":[],"categories_nodes":[],"categories_segments":[],"categories_sizes":[],"default_left":[0,0,0,0,0,0,0,0,0,0,0,0,0,0,0,0,0,0,0,0,0,0,0,0,0],"id":16,"left_children":[1,3,5,7,9,11,-1,13,15,-1,-1,-1,17,-1,19,21,23,-1,-1,-1,-1,-1,-1,-1,-1],"loss_changes":[2.384888E2,1.5017632E1,1.8104126E1,3.3921738E0,4.552243E0,5.424408E0,0E0,2.119484E0,4.6277924E0,0E0,0E0,0E0,5.2612305E-2,0E0,5.4502616E0,8.3185935E-1,1.7054892E-1,0E0,0E0,0E0,0E0,0E0,0E0,0E0,0E0],"parents":[2147483647,0,0,1,1,2,2,3,3,4,4,5,5,7,7,8,8,12,12,14,14,15,15,16,16],"right_children":[2,4,6,8,10,12,-1,14,16,-1,-1,-1,18,-1,20,22,24,-1,-1,-1,-1,-1,-1,-1,-1],"split_conditions":[4.02959E-1,1.382158E0,-8.0662113E-1,3.2608523E0,9.5853853E-1,-7.2848815E-1,-1.5268031E-1,-4.931113E-2,-2.6779145E-1,-1.3413717E-1,1.9201535E-1,-1.3164188E-1,-2.9005277E-1,-1.6372575E-1,1.1227868E0,1.9148146E0,-3.5136268E-1,6.606664E-2,2.0131175E-1,-1.5391248E-1,1.7978968E-1,-1.4697959E-1,6.488742E-2,6.33974E-2,2.7872905E-1],"split_indices":[1,10,5,6,2,3,0,1,1,0,0,0,6,0,6,18,13,0,0,0,0,0,0,0,0],"split_type":[0,0,0,0,0,0,0,0,0,0,0,0,0,0,0,0,0,0,0,0,0,0,0,0,0],"sum_hessian":[8.149687E2,4.571378E2,3.578309E2,4.3825775E2,1.8880033E1,3.4466132E2,1.3169587E1,4.244446E2,1.3813136E1,4.3277755E0,1.4552258E1,3.8308442E0,3.4083047E2,4.0514786E2,1.929676E1,1.0031068E1,3.7820683E0,1.4773437E0,3.3935312E2,1.4003045E1,5.2937164E0,8.61209E0,1.4189773E0,1.1650696E0,2.616999E0],"tree_param":{"num_deleted":"0","num_feature":"25","num_nodes":"25","size_leaf_vector":"1"}},{"base_weights":[-2.5496238E-3,-1.6365293E-1,5.7548296E-1,6.491004E-1,-1.5810983E-1,6.6721797E-1,-1.3935134E-1,2.785991E-1,2.0078558E-1,1.1785307E-1,1.654274E-2],"categories":[],"categories_nodes":[],"categories_segments":[],"categories_sizes":[],"default_left":[0,0,0,0,0,0,0,0,0,0,0],"id":17,"left_children":[1,-1,3,5,-1,7,-1,9,-1,-1,-1],"loss_changes":[2.5525299E2,0E0,3.2315125E1,7.769333E0,0E0,1.0612488E-1,0E0,7.1269274E-2,0E0,0E0,0E0],"parents":[2147483647,0,0,2,2,3,3,5,5,7,7],"right_children":[2,-1,4,6,-1,8,-1,10,-1,-1,-1],"split_conditions":[1.1114244E0,-1.6365293E-1,-3.5521638E-1,-7.078091E-1,-1.5810983E-1,2.1510583E-1,-1.3935134E-1,-1.4944011E0,2.0078558E-1,1.1785307E-1,1.654274E-2],"split_indices":[11,0,6,8,0,3,0,0,0,0,0],"split_type":[0,0,0,0,0,0,0,0,0,0,0],"sum_hessian":[8.112994E2,4.1837024E2,3.9292914E2,3.6872012E2,2.4209013E1,3.6321176E2,5.508355E0,2.6402848E0,3.6057147E2,1.2454871E0,1.3947978E0],"tree_param":{"num_deleted":"0","num_feature":"25","num_nodes":"11","size_leaf_vector":"1"}},{"base_weights":[8.437334E-4,-4.1810757E-1,2.010995E-1,-5.0110316E-1,1.9791503E-1,1.9364195E-1,-5.436605E-1,-1.6369745E-1,-1.1455554E-1,-9.982671E-2,5.9611227E-2],"categories":[],"categories_nodes":[],"categories_segments":[],"categories_sizes":[],"default_left":[0,0,0,0,0,0,0,0,0,0,0],"id":18,"left_children":[1,3,-1,5,-1,-1,7,-1,9,-1,-1],"loss_changes":[2.2850171E2,4.515615E1,0E0,2.3081657E1,0E0,0E0,3.2299805E-1,0E0,2.9507697E-1,0E0,0E0],"parents":[2147483647,0,0,1,1,3,3,6,6,8,8],"right_children":[2,4,-1,6,-1,-1,8,-1,10,-1,-1],"split_conditions":[-8.0662113E-1,3.9870802E-1,2.010995E-1,7.546499E-2,1.9791503E-1,1.9364195E-1,3.5147114E0,-1.6369745E-1,2.5960817E0,-9.982671E-2,5.9611227E-2],"split_indices":[5,15,0,2,0,0,14,0,4,0,0],"split_type":[0,0,0,0,0,0,0,0,0,0,0],"sum_hessian":[8.1267346E2,5.0009814E2,3.1257532E2,4.6483926E2,3.5258896E1,1.612889E1,4.4871036E2,4.4636075E2,2.349612E0,1.3482535E0,1.0013585E0],"tree_param":{"num_deleted":"0","num_feature":"25","num_nodes":"11","size_leaf_vector":"1"}},{"base_weights":[1.9198339E-4,-4.9407822E-1,5.020571E-1,1.3597557E-1,-5.351441E-1,-1.5959544E-1,5.999242E-1,-1.5072146E-1,1.9089526E-1,-5.4113793E-1,-6.1131794E-2,6.231858E-1,-1.4554541E-1,-1.6349682E-1,-1.4929296E-1,-1.2627597E-1,1.4799395E-1,6.571844E-1,3.114609E-1,-1.24918945E-1,1.145224E-1,1.9862399E-1,-9.527973E-2,5.906571E-1,-4.945574E-1,-2.3620452E-3,1.9030066E-1,2.2307202E-2,-1.6940077E-1],"categories":[],"categories_nodes":[],"categories_segments":[],"categories_sizes":[],"default_left":[0,0,0,0,0,0,0,0,0,0,0,0,0,0,0,0,0,0,0,0,0,0,0,0,0,0,0,0,0],"id":19,"left_children":[1,3,5,7,9,-1,11,-1,-1,13,15,17,-1,-1,19,-1,-1,21,23,-1,-1,-1,-1,25,27,-1,-1,-1,-1],"loss_changes":[2.0354987E2,1.0769394E1,4.152323E1,8.654471E0,1.0702057E0,0E0,9.702606E0,0E0,0E0,4.9718475E-1,1.3998199E0,3.6641693E0,0E0,0E0,8.8355935E-1,0E0,0E0,1.7766876E0,8.798487E0,0E0,0E0,0E0,0E0,7.5086784E-1,4.5159912E-1,0E0,0E0,0E0,0E0],"parents":[2147483647,0,0,1,1,2,2,3,3,4,4,6,6,9,9,10,10,11,11,14,14,17,17,18,18,23,23,24,24],"right_children":[2,4,6,8,10,-1,12,-1,-1,14,16,18,-1,-1,20,-1,-1,22,24,-1,-1,-1,-1,26,28,-1,-1,-1,-1],"split_conditions":[1.4467686E-1,-1.1890723E0,1.501213E-1,7.713847E-1,4.9071813E0,-1.5959544E-1,1.382158E0,-1.5072146E-1,1.9089526E-1,2.742423E0,-1.4944011E0,-1.5351835E-1,-1.4554541E-1,-1.6349682E-1,7.858098E-3,-1.2627597E-1,1.4799395E-1,-7.0793647E-1,1.1465356E0,-1.24918945E-1,1.145224E-1,1.9862399E-1,-9.527973E-2,8.823114E-1,-5.1557595E-1,-2.3620452E-3,1.9030066E-1,2.2307202E-2,-1.6940077E-1],"split_indices":[6,7,11,2,4,0,10,0,0,13,0,1,0,0,7,0,0,8,6,0,0,0,0,12,13,0,0,0,0],"split_type":[0,0,0,0,0,0,0,0,0,0,0,0,0,0,0,0,0,0,0,0,0,0,0,0,0,0,0,0,0],"sum_hessian":[8.1857715E2,4.1241693E2,4.061602E2,2.5094427E1,3.873225E2,3.4733894E1,3.714263E2,1.1024401E1,1.4070027E1,3.823462E2,4.9763308E0,3.640476E2,7.3787E0,3.782376E2,4.108558E0,3.1639926E0,1.8123382E0,3.2724774E2,3.6799843E1,2.8772264E0,1.2313318E0,3.2593167E2,1.3160872E0,2.7530693E1,9.269149E0,1.9281907E0,2.5602503E1,1.0103352E0,8.258814E0],"tree_param":{"num_deleted":"0","num_feature":"25","num_nodes":"29","size_leaf_vector":"1"}},{"base_weights":[1.9688779E-3,-4.6088147E-1,5.647095E-1,-4.988087E-1,3.4912688E-1,6.0455453E-1,-1.4634985E-1,-5.1712674E-1,1.2964702E-2,-1.2507333E-1,1.745135E-1,-1.2256022E-1,6.1716837E-1,-1.5994075E-1,-1.8029183E-1,-3.401214E-1,7.044858E-1,1.8554452E-1,4.3770555E-2,-1.4770967E-1,1.5987484E-1,6.654746E-2,-1.3992779E-1,6.0431127E-2,2.4154295E-1],"categories":[],"categories_nodes":[],"categories_segments":[],"categories_sizes":[],"default_left":[0,0,0,0,0,0,0,0,0,0,0,0,0,0,0,0,0,0,0,0,0,0,0,0,0],"id":20,"left_children":[1,3,5,7,9,11,-1,13,15,-1,-1,-1,17,-1,19,21,23,-1,-1,-1,-1,-1,-1,-1,-1],"loss_changes":[1.6929494E2,1.1130661E1,1.259684E1,3.2044144E0,3.189513E0,3.8695908E0,0E0,1.6798096E0,3.355847E0,0E0,0E0,0E0,8.305359E-2,0E0,3.9245157E0,7.509991E-1,7.273841E-2,0E0,0E0,0E0,0E0,0E0,0E0,0E0,0E0],"parents":[2147483647,0,0,1,1,2,2,3,3,4,4,5,5,7,7,8,8,12,12,14,14,15,15,16,16],"right_children":[2,4,6,8,10,12,-1,14,16,-1,-1,-1,18,-1,20,22,24,-1,-1,-1,-1,-1,-1,-1,-1],"split_conditions":[4.02959E-1,1.382158E0,-8.0662113E-1,3.2608523E0,9.5853853E-1,-7.2848815E-1,-1.4634985E-1,-4.931113E-2,-2.6779145E-1,-1.2507333E-1,1.745135E-1,-1.2256022E-1,1.073391E1,-1.5994075E-1,1.1227868E0,-1.1126431E0,-3.5136268E-1,1.8554452E-1,4.3770555E-2,-1.4770967E-1,1.5987484E-1,6.654746E-2,-1.3992779E-1,6.0431127E-2,2.4154295E-1],"split_indices":[1,10,5,6,2,3,0,1,1,0,0,0,21,0,6,19,13,0,0,0,0,0,0,0,0],"split_type":[0,0,0,0,0,0,0,0,0,0,0,0,0,0,0,0,0,0,0,0,0,0,0,0,0],"sum_hessian":[6.4797345E2,3.556416E2,2.9233182E2,3.4010117E2,1.5540449E1,2.8207907E2,1.025276E1,3.283384E2,1.1762751E1,3.434876E0,1.2105573E1,3.0829494E0,2.7899612E2,3.1288486E2,1.5453562E1,8.123235E0,3.6395156E0,2.7790927E2,1.086861E0,1.0965227E1,4.4883356E0,1.351951E0,6.771284E0,1.1072248E0,2.5322907E0],"tree_param":{"num_deleted":"0","num_feature":"25","num_nodes":"25","size_leaf_vector":"1"}},{"base_weights":[-3.203945E-3,-1.5987262E-1,5.311218E-1,5.9119594E-1,-1.5212916E-1,6.1433536E-1,-1.3838048E-1,2.4421331E-1,1.851712E-1,-2.577162E-2,1.2075603E-1],"categories":[],"categories_nodes":[],"categories_segments":[],"categories_sizes":[],"default_left":[0,0,0,0,0,0,0,0,0,0,0],"id":21,"left_children":[1,-1,3,5,-1,7,-1,9,-1,-1,-1],"loss_changes":[1.8264052E2,0E0,2.0336113E1,7.690178E0,0E0,1.693573E-1,0E0,2.4221803E-1,0E0,0E0,0E0],"parents":[2147483647,0,0,2,2,3,3,5,5,7,7],"right_children":[2,-1,4,6,-1,8,-1,10,-1,-1,-1],"split_conditions":[1.3395318E0,-1.5987262E-1,-3.5521638E-1,3.9870802E-1,-1.5212916E-1,-5.6062967E-1,-1.3838048E-1,1.9064006E0,1.851712E-1,-2.577162E-2,1.2075603E-1],"split_indices":[9,0,6,15,0,21,0,0,0,0,0],"split_type":[0,0,0,0,0,0,0,0,0,0,0],"sum_hessian":[6.432932E2,3.230448E2,3.202484E2,3.0313855E2,1.7109863E1,2.9702448E2,6.114068E0,2.9731967E0,2.940513E2,1.1118965E0,1.8613003E0],"tree_param":{"num_deleted":"0","num_feature":"25","num_nodes":"11","size_leaf_vector":"1"}},{"base_weights":[1.2716631E-3,-4.0435255E-1,1.8539523E-1,-4.8740843E-1,1.8140239E-1,1.7625909E-1,-5.305265E-1,-1.5992776E-1,-7.553973E-2,-8.842547E-2,5.7959847E-2],"categories":[],"categories_nodes":[],"categories_segments":[],"categories_sizes":[],"default_left":[0,0,0,0,0,0,0,0,0,0,0],"id":22,"left_children":[1,3,-1,5,-1,-1,7,-1,9,-1,-1],"loss_changes":[1.6189284E2,3.3012615E1,0E0,1.705606E1,0E0,0E0,3.658371E-1,0E0,2.4050447E-1,0E0,0E0],"parents":[2147483647,0,0,1,1,3,3,6,6,8,8],"right_children":[2,4,-1,6,-1,-1,8,-1,10,-1,-1],"split_conditions":[-8.0662113E-1,3.9870802E-1,1.8539523E-1,7.546499E-2,1.8140239E-1,1.7625909E-1,3.5147114E0,-1.5992776E-1,-7.517039E-2,-8.842547E-2,5.7959847E-2],"split_indices":[5,15,0,2,0,0,14,0,7,0,0],"split_type":[0,0,0,0,0,0,0,0,0,0,0],"sum_hessian":[6.451751E2,3.8940195E2,2.557732E2,3.602645E2,2.9137442E1,1.3406754E1,3.4685776E2,3.4474188E2,2.1158726E0,1.1120082E0,1.0038643E0],"tree_param":{"num_deleted":"0","num_feature":"25","num_nodes":"11","size_leaf_vector":"1"}},{"base_weights":[-5.3878903E-5,-4.800405E-1,4.6120813E-1,1.274054E-1,-5.214625E-1,-1.5474248E-1,5.4856676E-1,-1.4399931E-1,1.7340523E-1,-5.2792186E-1,-4.8968203E-2,5.6967807E-1,-1.3793874E-1,-1.5971844E-1,-1.21793896E-1,-1.16490014E-1,1.286952E-1,6.0234666E-1,2.7766222E-1,-1.1549415E-1,1.02510266E-1,6.0722995E-1,-9.3676545E-2,-1.5693596E-1,5.0230825E-1,1.835779E-1,-8.547751E-2,1.7306887E-1,-1.4079964E-2],"categories":[],"categories_nodes":[],"categories_segments":[],"categories_sizes":[],"default_left":[0,0,0,0,0,0,0,0,0,0,0,0,0,0,0,0,0,0,0,0,0,0,0,0,0,0,0,0,0],"id":23,"left_children":[1,3,5,7,9,-1,11,-1,-1,13,15,17,-1,-1,19,-1,-1,21,23,-1,-1,25,-1,-1,27,-1,-1,-1,-1],"loss_changes":[1.4480386E2,8.131081E0,2.8749588E1,6.0975776E0,8.905258E-1,0E0,6.789551E0,0E0,0E0,4.730301E-1,1.002073E0,2.7022476E0,0E0,0E0,6.8318707E-1,0E0,0E0,1.3940582E0,6.0409074E0,0E0,0E0,1.299675E0,0E0,0E0,1.0755548E0,0E0,0E0,0E0,0E0],"parents":[2147483647,0,0,1,1,2,2,3,3,4,4,6,6,9,9,10,10,11,11,14,14,17,17,18,18,21,21,24,24],"right_children":[2,4,6,8,10,-1,12,-1,-1,14,16,18,-1,-1,20,-1,-1,22,24,-1,-1,26,-1,-1,28,-1,-1,-1,-1],"split_conditions":[1.4467686E-1,-1.1890723E0,1.501213E-1,7.713847E-1,4.9071813E0,-1.5474248E-1,1.382158E0,-1.4399931E-1,1.7340523E-1,2.742423E0,-1.4944011E0,-1.5351835E-1,-1.3793874E-1,-1.5971844E-1,5.0137407E-1,-1.16490014E-1,1.286952E-1,1.6489557E0,1.2231914E0,-1.1549415E-1,1.02510266E-1,-7.0793647E-1,-9.3676545E-2,-1.5693596E-1,-1.3453509E-1,1.835779E-1,-8.547751E-2,1.7306887E-1,-1.4079964E-2],"split_indices":[6,7,11,2,4,0,10,0,0,13,0,1,0,0,0,0,0,14,2,0,0,8,0,0,20,0,0,0,0],"split_type":[0,0,0,0,0,0,0,0,0,0,0,0,0,0,0,0,0,0,0,0,0,0,0,0,0,0,0,0,0],"sum_hessian":[6.520386E2,3.195137E2,3.3252487E2,2.0264393E1,2.9924933E2,2.6889465E1,3.056354E2,8.602896E0,1.1661498E1,2.9509778E2,4.151535E0,2.9979388E2,5.8415065E0,2.9157562E2,3.5221639E0,2.5375357E0,1.6139992E0,2.6867392E2,3.1119959E1,2.3545654E0,1.1675984E0,2.675813E2,1.092621E0,6.5265436E0,2.4593414E1,2.6649258E2,1.0887358E0,2.1608582E1,2.984833E0],"tree_param":{"num_deleted":"0","num_feature":"25","num_nodes":"29","size_leaf_vector":"1"}},{"base_weights":[2.559523E-3,-4.48211E-1,5.325975E-1,-4.8638445E-1,3.245813E-1,5.697544E-1,-1.4024961E-1,-5.0711775E-1,4.0886775E-2,-1.1605719E-1,1.6163397E-1,-1.1363986E-1,5.819556E-1,-1.5709715E-1,-1.6940497E-1,-3.0550888E-1,6.4083004E-1,4.1240923E-2,1.7507267E-1,-1.4192095E-1,1.444593E-1,-1.328096E-1,6.1546788E-2,5.3219795E-2,2.1914904E-1],"categories":[],"categories_nodes":[],"categories_segments":[],"categories_sizes":[],"default_left":[0,0,0,0,0,0,0,0,0,0,0,0,0,0,0,0,0,0,0,0,0,0,0,0,0],"id":24,"left_children":[1,3,5,7,9,11,-1,13,15,-1,-1,-1,17,-1,19,21,23,-1,-1,-1,-1,-1,-1,-1,-1],"loss_changes":[1.21581955E2,8.2704315E0,8.957069E0,2.8899307E0,2.2724628E0,2.8353958E0,0E0,1.3222122E0,2.451683E0,0E0,0E0,0E0,8.067322E-2,0E0,2.85117E0,6.203875E-1,4.8937917E-2,0E0,0E0,0E0,0E0,0E0,0E0,0E0,0E0],"parents":[2147483647,0,0,1,1,2,2,3,3,4,4,5,5,7,7,8,8,12,12,14,14,15,15,16,16],"right_children":[2,4,6,8,10,12,-1,14,16,-1,-1,-1,18,-1,20,22,24,-1,-1,-1,-1,-1,-1,-1,-1],"split_conditions":[4.02959E-1,1.382158E0,-8.0662113E-1,3.2608523E0,9.5853853E-1,-7.2848815E-1,-1.4024961E-1,-4.931113E-2,-2.6779145E-1,-1.1605719E-1,1.6163397E-1,-1.1363986E-1,-2.9005277E-1,-1.5709715E-1,1.1227868E0,1.9148146E0,-3.5136268E-1,4.1240923E-2,1.7507267E-1,-1.4192095E-1,1.444593E-1,-1.328096E-1,6.1546788E-2,5.3219795E-2,2.1914904E-1],"split_indices":[1,10,5,6,2,3,0,1,1,0,0,0,6,0,6,18,13,0,0,0,0,0,0,0,0],"split_type":[0,0,0,0,0,0,0,0,0,0,0,0,0,0,0,0,0,0,0,0,0,0,0,0,0],"sum_hessian":[5.0687054E2,2.7400095E2,2.328696E2,2.6145648E2,1.2544482E1,2.2494254E2,7.927068E0,2.5160126E2,9.855204E0,2.7163465E0,9.8281355E0,2.475105E0,2.2246742E2,2.3932954E2,1.2271717E1,6.558958E0,3.2962453E0,1.1196356E0,2.213478E2,8.554328E0,3.7173893E0,5.2749424E0,1.2840157E0,1.0172341E0,2.2790112E0],"tree_param":{"num_deleted":"0","num_feature":"25","num_nodes":"25","size_leaf_vector":"1"}},{"base_weights":[-3.950477E-3,-1.5704446E-1,5.0059325E-1,5.6298774E-1,-1.4807448E-1,5.785925E-1,-1.2234596E-1,4.3621942E-2,1.7455441E-1],"categories":[],"categories_nodes":[],"categories_segments":[],"categories_sizes":[],"default_left":[0,0,0,0,0,0,0,0,0],"id":25,"left_children":[1,-1,3,5,-1,7,-1,-1,-1],"loss_changes":[1.320028E2,0E0,1.6125656E1,3.884819E0,0E0,2.502823E-1,0E0,0E0,0E0],"parents":[2147483647,0,0,2,2,3,3,5,5],"right_children":[2,-1,4,6,-1,8,-1,-1,-1],"split_conditions":[1.1114244E0,-1.5704446E-1,-3.5521638E-1,-7.078091E-1,-1.4807448E-1,2.1510583E-1,-1.2234596E-1,4.3621942E-2,1.7455441E-1],"split_indices":[11,0,6,8,0,3,0,0,0],"split_type":[0,0,0,0,0,0,0,0,0],"sum_hessian":[5.015854E2,2.4710387E2,2.5448152E2,2.3986151E2,1.4620008E1,2.364646E2,3.3969119E0,2.1045089E0,2.3436009E2],"tree_param":{"num_deleted":"0","num_feature":"25","num_nodes":"9","size_leaf_vector":"1"}},{"base_weights":[1.8469951E-3,-3.9350566E-1,1.7492291E-1,-4.7667116E-1,1.6975766E-1,1.6356257E-1,-5.2036726E-1,-1.5710035E-1,-1.3311875E-2],"categories":[],"categories_nodes":[],"categories_segments":[],"categories_sizes":[],"default_left":[0,0,0,0,0,0,0,0,0],"id":26,"left_children":[1,3,-1,5,-1,-1,7,-1,-1],"loss_changes":[1.16216705E2,2.4286022E1,0E0,1.2676437E1,0E0,0E0,3.957138E-1,0E0,0E0],"parents":[2147483647,0,0,1,1,3,3,6,6],"right_children":[2,4,-1,6,-1,-1,8,-1,-1],"split_conditions":[-8.0662113E-1,3.9870802E-1,1.7492291E-1,7.546499E-2,1.6975766E-1,1.6356257E-1,3.5147114E0,-1.5710035E-1,-1.3311875E-2],"split_indices":[5,15,0,2,0,0,14,0,0],"split_type":[0,0,0,0,0,0,0,0,0],"sum_hessian":[5.0375208E2,3.0000882E2,2.0374326E2,2.765393E2,2.346953E1,1.0869404E1,2.656699E2,2.6374094E2,1.928948E0],"tree_param":{"num_deleted":"0","num_feature":"25","num_nodes":"9","size_leaf_vector":"1"}},{"base_weights":[-4.8192448E-4,-4.6900988E-1,4.3205547E-1,1.2068621E-1,-5.107893E-1,-1.5049618E-1,5.124274E-1,-1.3744211E-1,1.6047353E-1,-5.17754E-1,-3.9021578E-2,5.322988E-1,-1.3046765E-1,-1.5687671E-1,-9.923883E-2,-1.06859535E-1,1.1314585E-1,5.6497777E-1,2.502343E-1,9.159091E-2,-1.06177814E-1,5.695747E-1,-4.6455197E-2,-1.4551006E-1,4.5478064E-1,1.7371367E-1,1.18450254E-1,-3.9628996E-3,1.5598498E-1],"categories":[],"categories_nodes":[],"categories_segments":[],"categories_sizes":[],"default_left":[0,0,0,0,0,0,0,0,0,0,0,0,0,0,0,0,0,0,0,0,0,0,0,0,0,0,0,0,0],"id":27,"left_children":[1,3,5,7,9,-1,11,-1,-1,13,15,17,-1,-1,19,-1,-1,21,23,-1,-1,25,-1,-1,27,-1,-1,-1,-1],"loss_changes":[1.0392735E2,6.1265984E0,2.0267971E1,4.3440723E0,7.3576355E-1,0E0,4.862648E0,0E0,0E0,4.3833923E-1,7.1893376E-1,2.083847E0,0E0,0E0,5.2007556E-1,0E0,0E0,8.014679E-1,4.260249E0,0E0,0E0,1.2618256E-1,0E0,0E0,6.635108E-1,0E0,0E0,0E0,0E0],"parents":[2147483647,0,0,1,1,2,2,3,3,4,4,6,6,9,9,10,10,11,11,14,14,17,17,18,18,21,21,24,24],"right_children":[2,4,6,8,10,-1,12,-1,-1,14,16,18,-1,-1,20,-1,-1,22,24,-1,-1,26,-1,-1,28,-1,-1,-1,-1],"split_conditions":[1.4467686E-1,-1.1890723E0,1.501213E-1,7.713847E-1,4.9071813E0,-1.5049618E-1,1.382158E0,-1.3744211E-1,1.6047353E-1,2.742423E0,-1.4944011E0,-1.5351835E-1,-1.3046765E-1,-1.5687671E-1,-3.7813368E-1,-1.06859535E-1,1.1314585E-1,-7.080015E-1,5.959398E-1,9.159091E-2,-1.06177814E-1,3.3748872E0,-4.6455197E-2,-1.4551006E-1,8.823114E-1,1.7371367E-1,1.18450254E-1,-3.9628996E-3,1.5598498E-1],"split_indices":[6,7,11,2,4,0,10,0,0,13,0,1,0,0,1,0,0,8,22,0,0,6,0,0,12,0,0,0,0],"split_type":[0,0,0,0,0,0,0,0,0,0,0,0,0,0,0,0,0,0,0,0,0,0,0,0,0,0,0,0,0],"sum_hessian":[5.1082684E2,2.4517116E2,2.6565567E2,1.6095957E1,2.2907521E2,2.0639347E1,2.4501634E2,6.669782E0,9.426174E0,2.2564651E2,3.4287012E0,2.4041145E2,4.6048784E0,2.2264754E2,2.998974E0,2.0275598E0,1.4011413E0,2.1455133E2,2.5860134E1,1.0818464E0,1.9171278E0,2.1339726E2,1.1540588E0,5.329892E0,2.0530243E1,2.0023111E2,1.31661625E1,2.6069138E0,1.7923328E1],"tree_param":{"num_deleted":"0","num_feature":"25","num_nodes":"29","size_leaf_vector":"1"}},{"base_weights":[3.2749798E-3,-4.3678313E-1,5.09847E-1,-4.9258283E-1,1.0046778E-1,5.4533994E-1,-1.3401653E-1,-5.042433E-1,1.5285067E-2,-3.5828832E-1,3.029206E-1,-1.0491154E-1,5.575305E-1,-1.5492634E-1,-1.5447904E-1,-1.0696356E-1,1.1579107E-1,-2.4000767E-3,-1.2850986E-1,-1.5071099E-1,5.672602E-1,4.860904E-2,1.6781142E-1,-1.2829919E-1,1.1581417E-1,1.21355794E-1,-1.23704575E-1,2.0540677E-2,1.8525676E-1],"categories":[],"categories_nodes":[],"categories_segments":[],"categories_sizes":[],"default_left":[0,0,0,0,0,0,0,0,0,0,0,0,0,0,0,0,0,0,0,0,0,0,0,0,0,0,0,0,0],"id":28,"left_children":[1,3,5,7,9,11,-1,13,15,17,19,-1,21,-1,23,-1,-1,-1,-1,25,27,-1,-1,-1,-1,-1,-1,-1,-1],"loss_changes":[8.787713E1,6.373646E0,6.465267E0,1.1404533E0,2.0291605E0,2.127819E0,0E0,7.167816E-1,8.6311877E-1,1.6324687E-1,1.8709356E0,0E0,3.6891937E-2,0E0,1.3049214E0,0E0,0E0,0E0,0E0,1.0779375E0,1.9883275E-1,0E0,0E0,0E0,0E0,0E0,0E0,0E0,0E0],"parents":[2147483647,0,0,1,1,2,2,3,3,4,4,5,5,7,7,8,8,9,9,10,10,12,12,14,14,19,19,20,20],"right_children":[2,4,6,8,10,12,-1,14,16,18,20,-1,22,-1,24,-1,-1,-1,-1,26,28,-1,-1,-1,-1,-1,-1,-1,-1],"split_conditions":[4.02959E-1,2.8224928E0,-8.0662113E-1,1.382158E0,-5.793515E-1,-7.2848815E-1,-1.3401653E-1,1.0089408E-1,9.5853853E-1,-6.511853E-1,-3.1552178E-1,-1.0491154E-1,-4.5338494E-1,-1.5492634E-1,2.1418008E-1,-1.0696356E-1,1.1579107E-1,-2.4000767E-3,-1.2850986E-1,3.1712662E-2,6.1244965E-1,4.860904E-2,1.6781142E-1,-1.2829919E-1,1.1581417E-1,1.21355794E-1,-1.23704575E-1,2.0540677E-2,1.8525676E-1],"split_indices":[1,6,5,10,18,3,0,1,2,23,1,0,7,0,0,0,0,0,0,3,10,0,0,0,0,0,0,0,0],"split_type":[0,0,0,0,0,0,0,0,0,0,0,0,0,0,0,0,0,0,0,0,0,0,0,0,0,0,0,0,0],"sum_hessian":[3.922083E2,2.0995691E2,1.8225139E2,1.9027754E2,1.9679379E1,1.7614551E2,6.1058826E0,1.8601385E2,4.2636776E0,5.7898655E0,1.3889514E1,1.9948475E0,1.7415067E2,1.7929482E2,6.719051E0,2.1475945E0,2.1160831E0,1.150949E0,4.6389165E0,5.2720456E0,8.617468E0,1.2192618E0,1.729314E2,4.601984E0,2.1170669E0,1.5136888E0,3.758357E0,1.0051214E0,7.612347E0],"tree_param":{"num_deleted":"0","num_feature":"25","num_nodes":"29","size_leaf_vector":"1"}},{"base_weights":[-5.088972E-3,-1.548779E-1,4.7818503E-1,5.3800166E-1,-1.4348225E-1,5.532601E-1,-1.138717E-1,2.8198138E-2,1.6725427E-1],"categories":[],"categories_nodes":[],"categories_segments":[],"categories_sizes":[],"default_left":[0,0,0,0,0,0,0,0,0],"id":29,"left_children":[1,-1,3,5,-1,7,-1,-1,-1],"loss_changes":[9.5993805E1,0E0,1.1685295E1,2.8485909E0,0E0,3.105812E-1,0E0,0E0,0E0],"parents":[2147483647,0,0,2,2,3,3,5,5],"right_children":[2,-1,4,6,-1,8,-1,-1,-1],"split_conditions":[1.1114244E0,-1.548779E-1,-3.5521638E-1,-7.078091E-1,-1.4348225E-1,2.1510583E-1,-1.138717E-1,2.8198138E-2,1.6725427E-1],"split_indices":[11,0,6,8,0,3,0,0,0],"split_type":[0,0,0,0,0,0,0,0,0],"sum_hessian":[3.8658374E2,1.8783636E2,1.9874736E2,1.874611E2,1.1286254E1,1.8478534E2,2.6757681E0,1.9078956E0,1.8287744E2],"tree_param":{"num_deleted":"0","num_feature":"25","num_nodes":"9","size_leaf_vector":"1"}},{"base_weights":[2.6201296E-3,-3.8440844E-1,1.6770475E-1,-4.6782413E-1,1.6105226E-1,1.5352748E-1,-5.121401E-1,-1.5494594E-1,-2.5876758E-3],"categories":[],"categories_nodes":[],"categories_segments":[],"categories_sizes":[],"default_left":[0,0,0,0,0,0,0,0,0],"id":30,"left_children":[1,3,-1,5,-1,-1,7,-1,-1],"loss_changes":[8.4196915E1,1.797176E1,0E0,9.464619E0,0E0,0E0,4.404831E-1,0E0,0E0],"parents":[2147483647,0,0,1,1,3,3,6,6],"right_children":[2,4,-1,6,-1,-1,8,-1,-1],"split_conditions":[-8.0662113E-1,3.9870802E-1,1.6770475E-1,7.546499E-2,1.6105226E-1,1.5352748E-1,3.5147114E0,-1.5494594E-1,-2.5876758E-3],"split_indices":[5,15,0,2,0,0,14,0,0],"split_type":[0,0,0,0,0,0,0,0,0],"sum_hessian":[3.889955E2,2.2959703E2,1.5939848E2,2.1098528E2,1.8611748E1,8.675253E0,2.0231003E2,2.0055309E2,1.7569371E0],"tree_param":{"num_deleted":"0","num_feature":"25","num_nodes":"9","size_leaf_vector":"1"}},{"base_weights":[-8.487913E-4,-4.6001714E-1,4.0909493E-1,1.1487175E-1,-5.021867E-1,-1.4649908E-1,4.842502E-1,-1.3070926E-1,1.5005963E-1,-5.097068E-1,-3.081753E-2,5.0337225E-1,-1.2288655E-1,-1.5469359E-1,-8.0833465E-2,-9.732642E-2,1.0000674E-1,5.1853627E-1,-5.418238E-2,7.936041E-2,-9.6376695E-2,5.2466434E-1,-8.9679144E-2,1.18732296E-1,-1.2867266E-1,1.6302456E-1,9.3329675E-2],"categories":[],"categories_nodes":[],"categories_segments":[],"categories_sizes":[],"default_left":[0,0,0,0,0,0,0,0,0,0,0,0,0,0,0,0,0,0,0,0,0,0,0,0,0,0,0],"id":31,"left_children":[1,3,5,7,9,-1,11,-1,-1,13,15,17,-1,-1,19,-1,-1,21,23,-1,-1,25,-1,-1,-1,-1,-1],"loss_changes":[7.4963394E1,4.61158E0,1.4427349E1,3.114007E0,6.0530853E-1,0E0,3.5332184E0,0E0,0E0,3.9734268E-1,5.161052E-1,1.6431084E0,0E0,0E0,3.789383E-1,0E0,0E0,1.0888748E0,1.1751816E0,0E0,0E0,5.719185E-1,0E0,0E0,0E0,0E0,0E0],"parents":[2147483647,0,0,1,1,2,2,3,3,4,4,6,6,9,9,10,10,11,11,14,14,17,17,18,18,21,21],"right_children":[2,4,6,8,10,-1,12,-1,-1,14,16,18,-1,-1,20,-1,-1,22,24,-1,-1,26,-1,-1,-1,-1,-1],"split_conditions":[1.4467686E-1,-1.1890723E0,1.501213E-1,7.713847E-1,4.9071813E0,-1.4649908E-1,1.382158E0,-1.3070926E-1,1.5005963E-1,2.742423E0,-1.4944011E0,4.821072E-1,-1.2288655E-1,-1.5469359E-1,-3.7813368E-1,-9.732642E-2,1.0000674E-1,1.6489557E0,8.3863035E-2,7.936041E-2,-9.6376695E-2,-1.5351835E-1,-8.9679144E-2,1.18732296E-1,-1.2867266E-1,1.6302456E-1,9.3329675E-2],"split_indices":[6,7,11,2,4,0,10,0,0,13,0,1,0,0,1,0,0,14,0,0,0,1,0,0,0,0,0],"split_type":[0,0,0,0,0,0,0,0,0,0,0,0,0,0,0,0,0,0,0,0,0,0,0,0,0,0,0],"sum_hessian":[3.9624774E2,1.8684496E2,2.0940279E2,1.2651109E1,1.7419385E2,1.5756579E1,1.9364621E2,5.1548905E0,7.4962177E0,1.713784E2,2.8154433E0,1.9001813E2,3.628085E0,1.6883823E2,2.54017E0,1.6191825E0,1.1962608E0,1.850551E2,4.9630294E0,1.0013832E0,1.5387866E0,1.8403369E2,1.0214045E0,2.229621E0,2.7334087E0,1.6776004E2,1.6273655E1],"tree_param":{"num_deleted":"0","num_feature":"25","num_nodes":"27","size_leaf_vector":"1"}},{"base_weights":[4.2643417E-3,-4.240394E-1,4.923029E-1,-4.847613E-1,1.17496274E-1,5.2677923E-1,-1.273892E-1,-5.026866E-1,-1.1521599E-1,3.9711463E-1,-2.2368047E-1,-9.725282E-2,5.395386E-1,-1.5317957E-1,-7.36897E-2,-1.2697895E-1,1.1949745E-1,-8.6996E-2,5.335931E-1,-1.3108584E-1,1.06089555E-1,4.1253906E-2,1.625182E-1,-9.6390344E-2,8.466574E-2,5.1160846E-2,1.8549599E-1],"categories":[],"categories_nodes":[],"categories_segments":[],"categories_sizes":[],"default_left":[0,0,0,0,0,0,0,0,0,0,0,0,0,0,0,0,0,0,0,0,0,0,0,0,0,0,0],"id":32,"left_children":[1,3,5,7,9,11,-1,13,15,17,19,-1,21,-1,23,-1,-1,-1,25,-1,-1,-1,-1,-1,-1,-1,-1],"loss_changes":[6.3490105E1,5.3766136E0,4.7115593E0,9.0696335E-1,1.7216481E0,1.6653137E0,0E0,4.3288422E-1,1.4398346E0,1.0706067E0,1.1824785E0,0E0,4.4834137E-2,0E0,4.148935E-1,0E0,0E0,0E0,1.560309E-1,0E0,0E0,0E0,0E0,0E0,0E0,0E0,0E0],"parents":[2147483647,0,0,1,1,2,2,3,3,4,4,5,5,7,7,8,8,9,9,10,10,12,12,14,14,18,18],"right_children":[2,4,6,8,10,12,-1,14,16,18,20,-1,22,-1,24,-1,-1,-1,26,-1,-1,-1,-1,-1,-1,-1,-1],"split_conditions":[4.02959E-1,2.8224928E0,-8.0662113E-1,-1.5452715E-2,-2.0706171E-1,-7.2848815E-1,-1.273892E-1,1.382158E0,1.1227868E0,-3.7191385E-1,1.382158E0,-9.725282E-2,-4.5338494E-1,-1.5317957E-1,9.5853853E-1,-1.2697895E-1,1.1949745E-1,-8.6996E-2,-3.1552178E-1,-1.3108584E-1,1.06089555E-1,4.1253906E-2,1.625182E-1,-9.6390344E-2,8.466574E-2,5.1160846E-2,1.8549599E-1],"split_indices":[1,6,5,1,21,3,0,10,6,1,10,0,7,0,2,0,0,0,1,0,0,0,0,0,0,0,0],"split_type":[0,0,0,0,0,0,0,0,0,0,0,0,0,0,0,0,0,0,0,0,0,0,0,0,0,0,0],"sum_hessian":[3.0173996E2,1.6077478E2,1.4096518E2,1.4465912E2,1.6115658E1,1.3626709E2,4.6980877E0,1.3762321E2,7.0359054E0,8.766741E0,7.3489165E0,1.6524808E0,1.3461461E2,1.3494426E2,2.6789615E0,4.5077367E0,2.528169E0,1.266378E0,7.5003624E0,5.5439725E0,1.804944E0,1.0745031E0,1.335401E2,1.637184E0,1.0417774E0,1.9892297E0,5.5111327E0],"tree_param":{"num_deleted":"0","num_feature":"25","num_nodes":"27","size_leaf_vector":"1"}},{"base_weights":[-6.6684033E-3,-1.5317267E-1,4.6114165E-1,5.137885E-1,-1.373475E-1,5.344717E-1,-1.1495384E-1,1.0598078E-2,1.6213046E-1],"categories":[],"categories_nodes":[],"categories_segments":[],"categories_sizes":[],"default_left":[0,0,0,0,0,0,0,0,0],"id":33,"left_children":[1,-1,3,5,-1,7,-1,-1,-1],"loss_changes":[7.016082E1,0E0,7.7027817E0,2.9219055E0,0E0,4.0825272E-1,0E0,0E0,0E0],"parents":[2147483647,0,0,2,2,3,3,5,5],"right_children":[2,-1,4,6,-1,8,-1,-1,-1],"split_conditions":[1.3395318E0,-1.5317267E-1,-3.5521638E-1,3.9870802E-1,-1.373475E-1,-5.6062967E-1,-1.1495384E-1,1.0598078E-2,1.6213046E-1],"split_indices":[9,0,6,15,0,21,0,0,0],"split_type":[0,0,0,0,0,0,0,0,0],"sum_hessian":[2.956298E2,1.422799E2,1.5334988E2,1.4545764E2,7.8922415E0,1.4257416E2,2.883489E0,1.7649174E0,1.4080923E2],"tree_param":{"num_deleted":"0","num_feature":"25","num_nodes":"9","size_leaf_vector":"1"}},{"base_weights":[3.7814663E-3,-3.757179E-1,1.6258481E-1,-4.601088E-1,1.5430766E-1,1.4496356E-1,-5.051249E-1,-1.5325716E-1,7.1670874E-3],"categories":[],"categories_nodes":[],"categories_segments":[],"categories_sizes":[],"default_left":[0,0,0,0,0,0,0,0,0],"id":34,"left_children":[1,3,-1,5,-1,-1,7,-1,-1],"loss_changes":[6.133572E1,1.3466499E1,0E0,7.098057E0,0E0,0E0,4.8083878E-1,0E0,0E0],"parents":[2147483647,0,0,1,1,3,3,6,6],"right_children":[2,4,-1,6,-1,-1,8,-1,-1],"split_conditions":[-8.0662113E-1,3.9870802E-1,1.6258481E-1,7.546499E-2,1.5430766E-1,1.4496356E-1,3.5147114E0,-1.5325716E-1,7.1670874E-3],"split_indices":[5,15,0,2,0,0,14,0,0],"split_type":[0,0,0,0,0,0,0,0,0],"sum_hessian":[2.983233E2,1.7512933E2,1.23193954E2,1.6040402E2,1.472532E1,6.8626165E0,1.535414E2,1.5192947E2,1.6119286E0],"tree_param":{"num_deleted":"0","num_feature":"25","num_nodes":"9","size_leaf_vector":"1"}},{"base_weights":[-1.4484517E-3,-4.5229548E-1,3.8790703E-1,1.0951681E-1,-4.9492872E-1,-1.4245032E-1,4.5849335E-1,-1.2356983E-1,1.4098029E-1,-5.030673E-1,-2.3961011E-2,4.7702783E-1,-1.1498163E-1,-1.5295824E-1,-6.610978E-2,-8.7946944E-2,8.856385E-2,5.141887E-1,1.958008E-1,-8.271243E-2,5.4696783E-2,5.194892E-1,-2.5863314E-2,4.4709936E-1,-3.2626447E-1,1.6003846E-1,8.795325E-2,-2.125977E-2,1.5353093E-1,-1.4117216E-1,3.48446E-2],"categories":[],"categories_nodes":[],"categories_segments":[],"categories_sizes":[],"default_left":[0,0,0,0,0,0,0,0,0,0,0,0,0,0,0,0,0,0,0,0,0,0,0,0,0,0,0,0,0,0,0],"id":35,"left_children":[1,3,5,7,9,-1,11,-1,-1,13,15,17,-1,-1,19,-1,-1,21,23,-1,-1,25,-1,27,29,-1,-1,-1,-1,-1,-1],"loss_changes":[5.4071095E1,3.4731026E0,1.0283348E1,2.2394772E0,4.9718094E-1,0E0,2.5745087E0,0E0,0E0,3.5381317E-1,3.7066486E-1,1.4715004E0,0E0,0E0,2.141644E-1,0E0,0E0,4.657135E-1,2.661331E0,0E0,0E0,2.5862503E-1,0E0,4.8395824E-1,4.8933524E-1,0E0,0E0,0E0,0E0,0E0,0E0],"parents":[2147483647,0,0,1,1,2,2,3,3,4,4,6,6,9,9,10,10,11,11,14,14,17,17,18,18,21,21,23,23,24,24],"right_children":[2,4,6,8,10,-1,12,-1,-1,14,16,18,-1,-1,20,-1,-1,22,24,-1,-1,26,-1,28,30,-1,-1,-1,-1,-1,-1],"split_conditions":[1.4467686E-1,-1.1890723E0,1.501213E-1,7.713847E-1,4.9071813E0,-1.4245032E-1,1.382158E0,-1.2356983E-1,1.4098029E-1,2.742423E0,-1.4944011E0,-1.5351835E-1,-1.1498163E-1,-1.5295824E-1,3.1175482E-1,-8.7946944E-2,8.856385E-2,6.8835443E-1,-1.3453509E-1,-8.271243E-2,5.4696783E-2,3.3748872E0,-2.5863314E-2,8.823114E-1,-3.7912548E-2,1.6003846E-1,8.795325E-2,-2.125977E-2,1.5353093E-1,-1.4117216E-1,3.48446E-2],"split_indices":[6,7,11,2,4,0,10,0,0,13,0,1,0,0,0,0,0,24,20,0,0,6,0,12,17,0,0,0,0,0,0],"split_type":[0,0,0,0,0,0,0,0,0,0,0,0,0,0,0,0,0,0,0,0,0,0,0,0,0,0,0,0,0,0,0],"sum_hessian":[3.0602814E2,1.4174057E2,1.6428755E2,9.886705E0,1.3185387E2,1.1991723E1,1.5229584E2,3.982451E0,5.9042544E0,1.2954706E2,2.306806E0,1.494387E2,2.8571293E0,1.27399506E2,2.14756E0,1.2955971E0,1.011209E0,1.3126517E2,1.8173538E1,1.1052704E0,1.0422895E0,1.3025003E2,1.0151258E0,1.2365123E1,5.8084154E0,1.21397835E2,8.8522005E0,1.3618484E0,1.1003275E1,4.3317904E0,1.4766251E0],"tree_param":{"num_deleted":"0","num_feature":"25","num_nodes":"31","size_leaf_vector":"1"}},{"base_weights":[4.9818335E-3,-4.1331828E-1,4.7886539E-1,-4.78623E-1,1.2283009E-1,5.128221E-1,-1.2020813E-1,-4.916193E-1,1.9104758E-2,3.9703208E-1,-1.9278266E-1,-8.845397E-2,5.25977E-1,-1.5176533E-1,-1.2079454E-1,-8.86836E-2,9.530222E-2,-8.0595925E-2,1.625041E-1,-1.1328607E-1,9.618685E-2,1.5860383E-1,4.03467E-2,-1.1348369E-1,9.737627E-2],"categories":[],"categories_nodes":[],"categories_segments":[],"categories_sizes":[],"default_left":[0,0,0,0,0,0,0,0,0,0,0,0,0,0,0,0,0,0,0,0,0,0,0,0,0],"id":36,"left_children":[1,3,5,7,9,11,-1,13,15,17,19,-1,21,-1,23,-1,-1,-1,-1,-1,-1,-1,-1,-1,-1],"loss_changes":[4.6156937E1,4.3893757E0,3.4659672E0,7.239113E-1,1.30762E0,1.2765102E0,0E0,5.085373E-1,4.4847834E-1,9.0995955E-1,8.125294E-1,0E0,3.9157867E-2,0E0,7.309006E-1,0E0,0E0,0E0,0E0,0E0,0E0,0E0,0E0,0E0,0E0],"parents":[2147483647,0,0,1,1,2,2,3,3,4,4,5,5,7,7,8,8,9,9,10,10,12,12,14,14],"right_children":[2,4,6,8,10,12,-1,14,16,18,20,-1,22,-1,24,-1,-1,-1,-1,-1,-1,-1,-1,-1,-1],"split_conditions":[4.02959E-1,2.8224928E0,-8.0662113E-1,1.382158E0,-2.4611275E-1,-7.2848815E-1,-1.2020813E-1,1.0089408E-1,9.5853853E-1,-3.7191385E-1,1.382158E0,-8.845397E-2,6.4265866E0,-1.5176533E-1,2.1418008E-1,-8.86836E-2,9.530222E-2,-8.0595925E-2,1.625041E-1,-1.1328607E-1,9.618685E-2,1.5860383E-1,4.03467E-2,-1.1348369E-1,9.737627E-2],"split_indices":[1,6,5,10,21,3,0,1,2,1,10,0,21,0,0,0,0,0,0,0,0,0,0,0,0],"split_type":[0,0,0,0,0,0,0,0,0,0,0,0,0,0,0,0,0,0,0,0,0,0,0,0,0],"sum_hessian":[2.3085208E2,1.2268502E2,1.0816707E2,1.0945974E2,1.322528E1,1.045478E2,3.6192658E0,1.066863E2,2.7734375E0,6.93887E0,6.28641E0,1.3323586E0,1.0321545E2,1.0238354E2,4.3027697E0,1.3550293E0,1.4184082E0,1.0855911E0,5.8532786E0,4.8167505E0,1.4696594E0,1.02159805E2,1.0556384E0,2.8219864E0,1.4807832E0],"tree_param":{"num_deleted":"0","num_feature":"25","num_nodes":"25","size_leaf_vector":"1"}},{"base_weights":[-8.437434E-3,-1.5176201E-1,4.4684127E-1,5.0441366E-1,-1.3367711E-1,5.196791E-1,-9.583033E-2,-6.887317E-3,1.5816928E-1],"categories":[],"categories_nodes":[],"categories_segments":[],"categories_sizes":[],"default_left":[0,0,0,0,0,0,0,0,0],"id":37,"left_children":[1,-1,3,5,-1,7,-1,-1,-1],"loss_changes":[5.136546E1,0E0,6.309702E0,1.5710793E0,0E0,4.6316147E-1,0E0,0E0,0E0],"parents":[2147483647,0,0,2,2,3,3,5,5],"right_children":[2,-1,4,6,-1,8,-1,-1,-1],"split_conditions":[1.1114244E0,-1.5176201E-1,-3.5521638E-1,-7.078091E-1,-1.3367711E-1,2.1510583E-1,-9.583033E-2,-6.887317E-3,1.5816928E-1],"split_indices":[11,0,6,8,0,3,0,0,0],"split_type":[0,0,0,0,0,0,0,0,0],"sum_hessian":[2.24809E2,1.0737755E2,1.1743146E2,1.1072328E2,6.708173E0,1.0907146E2,1.6518282E0,1.4690919E0,1.0760236E2],"tree_param":{"num_deleted":"0","num_feature":"25","num_nodes":"9","size_leaf_vector":"1"}},{"base_weights":[5.250904E-3,-3.6771676E-1,1.5884647E-1,-4.528024E-1,1.482726E-1,1.3708912E-1,-4.986658E-1,-1.5186438E-1,1.5244468E-2],"categories":[],"categories_nodes":[],"categories_segments":[],"categories_sizes":[],"default_left":[0,0,0,0,0,0,0,0,0],"id":38,"left_children":[1,3,-1,5,-1,-1,7,-1,-1],"loss_changes":[4.4881084E1,1.0060961E1,0E0,5.343422E0,0E0,0E0,5.11837E-1,0E0,0E0],"parents":[2147483647,0,0,1,1,3,3,6,6],"right_children":[2,4,-1,6,-1,-1,8,-1,-1],"split_conditions":[-8.0662113E-1,3.9870802E-1,1.5884647E-1,7.546499E-2,1.482726E-1,1.3708912E-1,3.5147114E0,-1.5186438E-1,1.5244468E-2],"split_indices":[5,15,0,2,0,0,14,0,0],"split_type":[0,0,0,0,0,0,0,0,0],"sum_hessian":[2.275473E2,1.3313045E2,9.441685E1,1.216016E2,1.1528848E1,5.405823E0,1.1619578E2,1.1469879E2,1.4969877E0],"tree_param":{"num_deleted":"0","num_feature":"25","num_nodes":"9","size_leaf_vector":"1"}},{"base_weights":[-1.9073496E-3,-4.4517156E-1,3.7121338E-1,1.0442181E-1,-4.8837274E-1,-1.38098E-1,4.3850803E-1,-1.1590732E-1,1.3251494E-1,-4.9720484E-1,-5.4419935E-3,4.571855E-1,-1.0742142E-1,-1.515058E-1,-1.6616473E-2,4.9470755E-1,1.8182057E-1,5.014151E-1,-9.340304E-3,-1.2446592E-1,3.7335154E-1,1.557678E-1,7.476586E-2,1.452116E-1,-7.986452E-5],"categories":[],"categories_nodes":[],"categories_segments":[],"categories_sizes":[],"default_left":[0,0,0,0,0,0,0,0,0,0,0,0,0,0,0,0,0,0,0,0,0,0,0,0,0],"id":39,"left_children":[1,3,5,7,9,-1,11,-1,-1,13,-1,15,-1,-1,-1,17,19,21,-1,-1,23,-1,-1,-1,-1],"loss_changes":[3.917499E1,2.6212769E0,7.3986263E0,1.6130002E0,4.0854073E-1,0E0,1.9415379E0,0E0,0E0,3.1262207E-1,0E0,1.1209354E0,0E0,0E0,0E0,3.7734795E-1,1.9418266E0,3.25737E-1,0E0,0E0,5.1137626E-1,0E0,0E0,0E0,0E0],"parents":[2147483647,0,0,1,1,2,2,3,3,4,4,6,6,9,9,11,11,15,15,16,16,17,17,20,20],"right_children":[2,4,6,8,10,-1,12,-1,-1,14,-1,16,-1,-1,-1,18,20,22,-1,-1,24,-1,-1,-1,-1],"split_conditions":[1.4467686E-1,-1.1890723E0,1.501213E-1,7.713847E-1,4.9071813E0,-1.38098E-1,1.382158E0,-1.1590732E-1,1.3251494E-1,2.742423E0,-5.4419935E-3,-1.5351835E-1,-1.0742142E-1,-1.515058E-1,-1.6616473E-2,-6.389457E-1,1.2231914E0,3.3748872E0,-9.340304E-3,-1.2446592E-1,4.821072E-1,1.557678E-1,7.476586E-2,1.452116E-1,-7.986452E-5],"split_indices":[6,7,11,2,4,0,10,0,0,13,0,1,0,0,0,16,2,6,0,0,1,0,0,0,0],"split_type":[0,0,0,0,0,0,0,0,0,0,0,0,0,0,0,0,0,0,0,0,0,0,0,0,0],"sum_hessian":[2.3486362E2,1.0725386E2,1.27609764E2,7.7130795E0,9.954078E1,9.116716E0,1.1849304E2,3.082474E0,4.630605E0,9.764933E1,1.8914468E0,1.1619468E2,2.2983654E0,9.581164E1,1.8376908E0,1.0155935E2,1.4635326E1,1.00326065E2,1.2332878E0,3.2728224E0,1.1362504E1,9.271912E1,7.60695E0,8.537623E0,2.8248813E0],"tree_param":{"num_deleted":"0","num_feature":"25","num_nodes":"25","size_leaf_vector":"1"}},{"base_weights":[5.962055E-3,-4.0178698E-1,4.670752E-1,-4.726342E-1,1.2587392E-1,5.00791E-1,-1.12426706E-1,-4.9531543E-1,-1.2925349E-1,-1.9912624E-1,3.7674087E-1,-8.260496E-2,5.15464E-1,-1.5043838E-1,-3.3480987E-2,-1.200608E-1,1.0487645E-1,1.0007994E-1,-1.2092321E-1,1.7367801E-1,-8.7055825E-2,4.2400934E-2,1.5561996E-1],"categories":[],"categories_nodes":[],"categories_segments":[],"categories_sizes":[],"default_left":[0,0,0,0,0,0,0,0,0,0,0,0,0,0,0,0,0,0,0,0,0,0,0],"id":40,"left_children":[1,3,5,7,9,11,-1,13,15,17,19,-1,21,-1,-1,-1,-1,-1,-1,-1,-1,-1,-1],"loss_changes":[3.3559708E1,3.6009998E0,2.564989E0,5.8810043E-1,1.0537066E0,1.0639458E0,0E0,1.284275E-1,9.885584E-1,7.7370393E-1,1.1281204E0,0E0,2.4297714E-2,0E0,0E0,0E0,0E0,0E0,0E0,0E0,0E0,0E0,0E0],"parents":[2147483647,0,0,1,1,2,2,3,3,4,4,5,5,7,7,8,8,9,9,10,10,12,12],"right_children":[2,4,6,8,10,12,-1,14,16,18,20,-1,22,-1,-1,-1,-1,-1,-1,-1,-1,-1,-1],"split_conditions":[4.02959E-1,2.8224928E0,-8.0662113E-1,-1.0434047E-1,-2.899365E-1,-7.2848815E-1,-1.12426706E-1,1.382158E0,1.1227868E0,8.474743E-2,3.653762E-1,-8.260496E-2,-3.3434E-1,-1.5043838E-1,-3.3480987E-2,-1.200608E-1,1.0487645E-1,1.0007994E-1,-1.2092321E-1,1.7367801E-1,-8.7055825E-2,4.2400934E-2,1.5561996E-1],"split_indices":[1,6,5,1,1,3,0,10,6,3,3,0,9,0,0,0,0,0,0,0,0,0,0],"split_type":[0,0,0,0,0,0,0,0,0,0,0,0,0,0,0,0,0,0,0,0,0,0,0],"sum_hessian":[1.7649345E2,9.373498E1,8.275848E1,8.2731224E1,1.1003753E1,7.9961105E1,2.7973685E0,7.719014E1,5.541088E0,4.8834505E0,6.120302E0,1.1539944E0,7.880711E1,7.5671265E1,1.5188737E0,3.6436067E0,1.8974816E0,1.1760058E0,3.707445E0,4.7977605E0,1.3225421E0,1.0658286E0,7.774128E1],"tree_param":{"num_deleted":"0","num_feature":"25","num_nodes":"23","size_leaf_vector":"1"}},{"base_weights":[-1.0780458E-2,-1.505206E-1,4.338532E-1,4.8636863E-1,-1.2639175E-1,5.073377E-1,-9.765337E-2,-2.18357E-2,1.5526226E-1],"categories":[],"categories_nodes":[],"categories_segments":[],"categories_sizes":[],"default_left":[0,0,0,0,0,0,0,0,0],"id":41,"left_children":[1,-1,3,5,-1,7,-1,-1,-1],"loss_changes":[3.764293E1,0E0,4.269272E0,1.6246433E0,0E0,5.346527E-1,0E0,0E0,0E0],"parents":[2147483647,0,0,2,2,3,3,5,5],"right_children":[2,-1,4,6,-1,8,-1,-1,-1],"split_conditions":[1.3395318E0,-1.505206E-1,-3.5521638E-1,3.9870802E-1,-1.2639175E-1,-5.6062967E-1,-9.765337E-2,-2.18357E-2,1.5526226E-1],"split_indices":[9,0,6,15,0,21,0,0,0],"split_type":[0,0,0,0,0,0,0,0,0],"sum_hessian":[1.7044342E2,8.094134E1,8.950209E1,8.473006E1,4.77203E0,8.2962425E1,1.7676294E0,1.327906E0,8.163452E1],"tree_param":{"num_deleted":"0","num_feature":"25","num_nodes":"9","size_leaf_vector":"1"}},{"base_weights":[7.0833936E-3,-3.5943103E-1,1.5603933E-1,-4.454085E-1,1.4268759E-1,1.2945528E-1,-4.9225336E-1,-1.5065601E-1,2.3341207E-2],"categories":[],"categories_nodes":[],"categories_segments":[],"categories_sizes":[],"default_left":[0,0,0,0,0,0,0,0,0],"id":42,"left_children":[1,3,-1,5,-1,-1,7,-1,-1],"loss_changes":[3.2940403E1,7.5488777E0,0E0,4.039774E0,0E0,0E0,5.425415E-1,0E0,0E0],"parents":[2147483647,0,0,1,1,3,3,6,6],"right_children":[2,4,-1,6,-1,-1,8,-1,-1],"split_conditions":[-8.0662113E-1,3.9870802E-1,1.5603933E-1,7.546499E-2,1.4268759E-1,1.2945528E-1,3.5147114E0,-1.5065601E-1,2.3341207E-2],"split_indices":[5,15,0,2,0,0,14,0,0],"split_type":[0,0,0,0,0,0,0,0,0],"sum_hessian":[1.73184E2,1.0119271E2,7.19913E1,9.216954E1,9.023171E0,4.2575455E0,8.7911995E1,8.652337E1,1.3886231E0],"tree_param":{"num_deleted":"0","num_feature":"25","num_nodes":"9","size_leaf_vector":"1"}},{"base_weights":[-2.4483544E-3,-4.3734884E-1,3.549367E-1,9.9142775E-2,-4.8105422E-1,-1.3323863E-1,4.1922903E-1,-1.0772956E-1,1.2419322E-1,-4.9132767E-1,-3.936339E-3,4.3814942E-1,-9.9650405E-2,-1.5020984E-1,-1.3115218E-2,4.9107942E-1,2.2002894E-1,4.977196E-1,2.8382612E-2,3.037549E-1,-1.8093446E-1,5.822416E-2,1.5226753E-1,1.12324215E-1,-1.5549357E-2],"categories":[],"categories_nodes":[],"categories_segments":[],"categories_sizes":[],"default_left":[0,0,0,0,0,0,0,0,0,0,0,0,0,0,0,0,0,0,0,0,0,0,0,0,0],"id":43,"left_children":[1,3,5,7,9,-1,11,-1,-1,13,-1,15,-1,-1,-1,17,19,21,-1,23,-1,-1,-1,-1,-1],"loss_changes":[2.8332977E1,1.9756851E0,5.32701E0,1.1618768E0,3.5988235E-1,0E0,1.4695358E0,0E0,0E0,2.9078865E-1,0E0,9.4571114E-1,0E0,0E0,0E0,1.4414024E-1,1.5364398E0,1.1421585E-1,0E0,4.839152E-1,0E0,0E0,0E0,0E0,0E0],"parents":[2147483647,0,0,1,1,2,2,3,3,4,4,6,6,9,9,11,11,15,15,16,16,17,17,19,19],"right_children":[2,4,6,8,10,-1,12,-1,-1,14,-1,16,-1,-1,-1,18,20,22,-1,24,-1,-1,-1,-1,-1],"split_conditions":[1.4467686E-1,-1.1890723E0,1.501213E-1,7.713847E-1,4.9071813E0,-1.3323863E-1,1.382158E0,-1.0772956E-1,1.2419322E-1,2.742423E0,-3.936339E-3,-1.8062034E-1,-9.9650405E-2,-1.5020984E-1,-1.3115218E-2,2.0566344E0,3.2608523E0,-1.3598698E0,2.8382612E-2,4.821072E-1,-1.8093446E-1,5.822416E-2,1.5226753E-1,1.12324215E-1,-1.5549357E-2],"split_indices":[6,7,11,2,4,0,10,0,0,13,0,1,0,0,0,18,6,1,0,1,0,0,0,0,0],"split_type":[0,0,0,0,0,0,0,0,0,0,0,0,0,0,0,0,0,0,0,0,0,0,0,0,0],"sum_hessian":[1.8029259E2,8.1225655E1,9.906693E1,6.023058E0,7.520259E1,6.9373436E0,9.2129585E1,2.3956292E0,3.6274285E0,7.353807E1,1.664524E0,9.027337E1,1.8562202E0,7.191379E1,1.6242864E0,7.1637985E1,1.863538E1,7.020677E1,1.4312139E0,1.7487612E1,1.1477679E0,2.8540099E0,6.735277E1,1.4544499E1,2.9431129E0],"tree_param":{"num_deleted":"0","num_feature":"25","num_nodes":"25","size_leaf_vector":"1"}},{"base_weights":[7.4819345E-3,-3.8860586E-1,4.5617715E-1,-1.4823143E-1,1.1251902E-2,4.8987898E-1,-1.0410805E-1,-2.9786336E-1,2.8195414E-1,-7.773651E-2,5.066672E-1,9.384255E-2,-1.3044998E-1,-1.8830612E-1,1.6374314E-1,4.6550587E-2,1.531835E-1,2.7591724E-2,-9.9372156E-2],"categories":[],"categories_nodes":[],"categories_segments":[],"categories_sizes":[],"default_left":[0,0,0,0,0,0,0,0,0,0,0,0,0,0,0,0,0,0,0],"id":44,"left_children":[1,3,5,-1,7,9,-1,11,13,-1,15,-1,-1,17,-1,-1,-1,-1,-1],"loss_changes":[2.4360462E1,3.0771513E0,1.9094687E0,0E0,1.4377546E0,9.119854E-1,0E0,8.084745E-1,1.2367293E0,0E0,5.4330826E-3,0E0,0E0,1.9183862E-1,0E0,0E0,0E0,0E0,0E0],"parents":[2147483647,0,0,1,1,2,2,4,4,5,5,7,7,8,8,10,10,13,13],"right_children":[2,4,6,-1,8,10,-1,12,14,-1,16,-1,-1,18,-1,-1,-1,-1,-1],"split_conditions":[4.02959E-1,1.7718544E0,-8.0662113E-1,-1.4823143E-1,-2.899365E-1,-7.2848815E-1,-1.0410805E-1,8.474743E-2,-5.025106E-1,-7.773651E-2,-2.8347337E-1,9.384255E-2,-1.3044998E-1,-7.094153E-1,1.6374314E-1,4.6550587E-2,1.531835E-1,2.7591724E-2,-9.9372156E-2],"split_indices":[1,6,5,0,1,3,0,3,10,0,6,0,0,8,0,0,0,0,0],"split_type":[0,0,0,0,0,0,0,0,0,0,0,0,0,0,0,0,0,0,0],"sum_hessian":[1.350726E2,7.181313E1,6.325946E1,5.6634834E1,1.51783E1,6.1086414E1,2.173045E0,7.0395226E0,8.138777E0,1.0227326E0,6.0063683E1,1.0544673E0,5.9850554E0,3.0281541E0,5.1106234E0,1.1141961E0,5.8949486E1,1.1431345E0,1.8850195E0],"tree_param":{"num_deleted":"0","num_feature":"25","num_nodes":"19","size_leaf_vector":"1"}},{"base_weights":[-1.3819197E-2,-1.4935097E-1,4.2159104E-1,4.7991434E-1,-1.22259595E-1,4.9607494E-1,-7.788958E-2,-3.4411184E-2,1.5276557E-1],"categories":[],"categories_nodes":[],"categories_segments":[],"categories_sizes":[],"default_left":[0,0,0,0,0,0,0,0,0],"id":45,"left_children":[1,-1,3,5,-1,7,-1,-1,-1],"loss_changes":[2.7627136E1,0E0,3.5335999E0,9.0506077E-1,0E0,5.71434E-1,0E0,0E0,0E0],"parents":[2147483647,0,0,2,2,3,3,5,5],"right_children":[2,-1,4,6,-1,8,-1,-1,-1],"split_conditions":[1.1114244E0,-1.4935097E-1,-3.5521638E-1,-7.078091E-1,-1.22259595E-1,2.1510583E-1,-7.788958E-2,-3.4411184E-2,1.5276557E-1],"split_indices":[11,0,6,8,0,3,0,0,0],"split_type":[0,0,0,0,0,0,0,0,0],"sum_hessian":[1.2909613E2,6.1067722E1,6.8028404E1,6.3951054E1,4.077352E0,6.290565E1,1.0454029E0,1.1624014E0,6.1743248E1],"tree_param":{"num_deleted":"0","num_feature":"25","num_nodes":"9","size_leaf_vector":"1"}},{"base_weights":[9.669023E-3,-3.496987E-1,1.5374804E-1,-4.3742293E-1,1.374693E-1,1.2184239E-1,-4.8543894E-1,-1.4952156E-1,2.9149327E-2],"categories":[],"categories_nodes":[],"categories_segments":[],"categories_sizes":[],"default_left":[0,0,0,0,0,0,0,0,0],"id":46,"left_children":[1,3,-1,5,-1,-1,7,-1,-1],"loss_changes":[2.419699E1,5.736496E0,0E0,3.0718184E0,0E0,0E0,5.5912495E-1,0E0,0E0],"parents":[2147483647,0,0,1,1,3,3,6,6],"right_children":[2,4,-1,6,-1,-1,8,-1,-1],"split_conditions":[-8.0662113E-1,3.9870802E-1,1.5374804E-1,7.546499E-2,1.374693E-1,1.2184239E-1,3.5147114E0,-1.4952156E-1,2.9149327E-2],"split_indices":[5,15,0,2,0,0,14,0,0],"split_type":[0,0,0,0,0,0,0,0,0],"sum_hessian":[1.31916E2,7.711009E1,5.4805916E1,6.997127E1,7.1388273E0,3.3666244E0,6.6604645E1,6.529596E1,1.3086851E0],"tree_param":{"num_deleted":"0","num_feature":"25","num_nodes":"9","size_leaf_vector":"1"}},{"base_weights":[-3.6129607E-3,-4.2909226E-1,3.360956E-1,9.387561E-2,-4.7342733E-1,-1.2772153E-1,3.971203E-1,-9.914278E-2,1.1582312E-1,-4.853447E-1,-2.6093184E-3,4.161119E-1,-9.161589E-2,-1.4895159E-1,-1.02699455E-2,4.757311E-1,1.8907982E-1,4.8378253E-1,2.2104237E-2,2.8222394E-1,-1.2335799E-1,6.2471725E-2,1.50195E-1,1.3655527E-1,2.7105918E-2],"categories":[],"categories_nodes":[],"categories_segments":[],"categories_sizes":[],"default_left":[0,0,0,0,0,0,0,0,0,0,0,0,0,0,0,0,0,0,0,0,0,0,0,0,0],"id":47,"left_children":[1,3,5,7,9,-1,11,-1,-1,13,-1,15,-1,-1,-1,17,19,21,-1,23,-1,-1,-1,-1,-1],"loss_changes":[2.0364529E1,1.4946318E0,3.8115625E0,8.371643E-1,3.1602573E-1,0E0,1.1017647E0,0E0,0E0,2.6675797E-1,0E0,8.785944E-1,0E0,0E0,0E0,1.456747E-1,1.0409553E0,1.5013695E-1,0E0,4.5378137E-1,0E0,0E0,0E0,0E0,0E0],"parents":[2147483647,0,0,1,1,2,2,3,3,4,4,6,6,9,9,11,11,15,15,16,16,17,17,19,19],"right_children":[2,4,6,8,10,-1,12,-1,-1,14,-1,16,-1,-1,-1,18,20,22,-1,24,-1,-1,-1,-1,-1],"split_conditions":[1.4467686E-1,-1.1890723E0,1.501213E-1,7.713847E-1,4.9071813E0,-1.2772153E-1,1.382158E0,-9.914278E-2,1.1582312E-1,2.742423E0,-2.6093184E-3,-1.8062034E-1,-9.161589E-2,-1.4895159E-1,-1.02699455E-2,2.0566344E0,-7.089305E-1,1.1305879E-1,2.2104237E-2,-4.931113E-2,-1.2335799E-1,6.2471725E-2,1.50195E-1,1.3655527E-1,2.7105918E-2],"split_indices":[6,7,11,2,4,0,10,0,0,13,0,1,0,0,0,18,8,0,0,1,0,0,0,0,0],"split_type":[0,0,0,0,0,0,0,0,0,0,0,0,0,0,0,0,0,0,0,0,0,0,0,0,0],"sum_hessian":[1.3889523E2,6.1546345E1,7.734889E1,4.722558E0,5.6823788E1,5.2931066E0,7.2055786E1,1.872386E0,2.850172E0,5.5359802E1,1.4639859E0,7.0556046E1,1.4997387E0,5.3925056E1,1.4347435E0,5.5013832E1,1.55422125E1,5.3734463E1,1.2793698E0,1.3913156E1,1.6290573E0,3.8694544E0,4.9865005E1,6.595423E0,7.317732E0],"tree_param":{"num_deleted":"0","num_feature":"25","num_nodes":"25","size_leaf_vector":"1"}},{"base_weights":[9.418727E-3,-3.7398133E-1,4.4564223E-1,-4.8205248E-1,5.6604095E-2,4.795173E-1,-9.5413E-2,-1.479799E-1,-1.14546865E-2,-2.3906401E-1,3.2008657E-1,-3.5196647E-2,1.5111545E-1,-1.2281228E-1,9.208341E-2,1.5104252E-1,-8.420066E-2],"categories":[],"categories_nodes":[],"categories_segments":[],"categories_sizes":[],"default_left":[0,0,0,0,0,0,0,0,0,0,0,0,0,0,0,0,0],"id":48,"left_children":[1,3,5,7,9,11,-1,-1,-1,13,15,-1,-1,-1,-1,-1,-1],"loss_changes":[1.7663391E1,2.64354E0,1.430296E0,2.0538998E-1,1.0249869E0,7.4798584E-1,0E0,0E0,0E0,7.123809E-1,8.976821E-1,0E0,0E0,0E0,0E0,0E0,0E0],"parents":[2147483647,0,0,1,1,2,2,3,3,4,4,5,5,9,9,10,10],"right_children":[2,4,6,8,10,12,-1,-1,-1,14,16,-1,-1,-1,-1,-1,-1],"split_conditions":[4.02959E-1,1.924469E0,-8.0662113E-1,1.382158E0,-2.6779145E-1,-7.1813184E-1,-9.5413E-2,-1.479799E-1,-1.14546865E-2,1.6489557E0,4.4442624E-1,-3.5196647E-2,1.5111545E-1,-1.2281228E-1,9.208341E-2,1.5104252E-1,-8.420066E-2],"split_indices":[1,6,5,10,1,3,0,0,0,14,3,0,0,0,0,0,0],"split_type":[0,0,0,0,0,0,0,0,0,0,0,0,0,0,0,0,0],"sum_hessian":[1.0361541E2,5.522257E1,4.839284E1,4.404767E1,1.1174899E1,4.669373E1,1.6991098E0,4.2853737E1,1.1939328E0,5.309498E0,5.8654017E0,1.669629E0,4.50241E1,4.2378697E0,1.0716279E0,4.6177144E0,1.2476877E0],"tree_param":{"num_deleted":"0","num_feature":"25","num_nodes":"17","size_leaf_vector":"1"}},{"base_weights":[-1.7549336E-2,-1.4815041E-1,4.0823668E-1,4.628811E-1,-1.1364675E-1,4.8505408E-1,-7.997366E-2,-4.5783915E-2,1.5071894E-1],"categories":[],"categories_nodes":[],"categories_segments":[],"categories_sizes":[],"default_left":[0,0,0,0,0,0,0,0,0],"id":49,"left_children":[1,-1,3,5,-1,7,-1,-1,-1],"loss_changes":[2.024393E1,0E0,2.4431314E0,9.3407154E-1,0E0,6.1459446E-1,0E0,0E0,0E0],"parents":[2147483647,0,0,2,2,3,3,5,5],"right_children":[2,-1,4,6,-1,8,-1,-1,-1],"split_conditions":[1.3395318E0,-1.4815041E-1,-3.5521638E-1,3.9870802E-1,-1.1364675E-1,-5.6062967E-1,-7.997366E-2,-4.5783915E-2,1.5071894E-1],"split_indices":[9,0,6,15,0,21,0,0,0],"split_type":[0,0,0,0,0,0,0,0,0],"sum_hessian":[9.7830185E1,4.6101315E1,5.1728867E1,4.8755714E1,2.973154E0,4.7642597E1,1.1131154E0,1.0548952E0,4.6587704E1],"tree_param":{"num_deleted":"0","num_feature":"25","num_nodes":"9","size_leaf_vector":"1"}},{"base_weights":[1.1810415E-2,-3.3990726E-1,1.5177588E-1,-4.285444E-1,1.3177316E-1,1.1404956E-1,-4.777885E-1,-1.4837487E-1,3.3598505E-2],"categories":[],"categories_nodes":[],"categories_segments":[],"categories_sizes":[],"default_left":[0,0,0,0,0,0,0,0,0],"id":50,"left_children":[1,3,-1,5,-1,-1,7,-1,-1],"loss_changes":[1.7804977E1,4.322982E0,0E0,2.3425493E0,0E0,0E0,5.6639004E-1,0E0,0E0],"parents":[2147483647,0,0,1,1,3,3,6,6],"right_children":[2,4,-1,6,-1,-1,8,-1,-1],"split_conditions":[-8.0662113E-1,3.9870802E-1,1.5177588E-1,7.546499E-2,1.3177316E-1,1.1404956E-1,3.5147114E0,-1.4837487E-1,3.3598505E-2],"split_indices":[5,15,0,2,0,0,14,0,0],"split_type":[0,0,0,0,0,0,0,0,0],"sum_hessian":[1.004634E2,5.887031E1,4.159309E1,5.326124E1,5.609074E0,2.6713347E0,5.05899E1,4.934616E1,1.2437408E0],"tree_param":{"num_deleted":"0","num_feature":"25","num_nodes":"9","size_leaf_vector":"1"}},{"base_weights":[-4.1443715E-3,-4.2011476E-1,3.176743E-1,8.8400066E-2,-4.65171E-1,3.738513E-1,-1.3178034E-1,-9.0342E-2,1.0731267E-1,-4.7892675E-1,-1.4756349E-3,4.608375E-1,1.630414E-1,-1.4765061E-1,-6.2626745E-3,4.837864E-1,-6.292081E-2,2.5886863E-1,-1.412972E-1,1.4935023E-1,5.8921212E-3,3.2805175E-1,-8.066798E-2,4.296062E-3,1.0847458E-1,8.12339E-2,-9.842749E-2],"categories":[],"categories_nodes":[],"categories_segments":[],"categories_sizes":[],"default_left":[0,0,0,0,0,0,0,0,0,0,0,0,0,0,0,0,0,0,0,0,0,0,0,0,0,0,0],"id":51,"left_children":[1,3,5,7,9,11,-1,-1,-1,13,-1,15,17,-1,-1,19,-1,21,-1,-1,-1,23,25,-1,-1,-1,-1],"loss_changes":[1.4645031E1,1.1343603E0,2.7873483E0,6.032931E-1,2.7615738E-1,9.878187E-1,0E0,0E0,0E0,2.4874878E-1,0E0,7.2451305E-1,1.2446855E0,0E0,0E0,2.4743748E-1,0E0,4.1871238E-1,0E0,0E0,0E0,1.4282358E-1,4.0441748E-1,0E0,0E0,0E0,0E0],"parents":[2147483647,0,0,1,1,2,2,3,3,4,4,5,5,9,9,11,11,12,12,15,15,17,17,21,21,22,22],"right_children":[2,4,6,8,10,12,-1,-1,-1,14,-1,16,18,-1,-1,20,-1,22,-1,-1,-1,24,26,-1,-1,-1,-1],"split_conditions":[1.4467686E-1,-1.1890723E0,-8.0662113E-1,7.713847E-1,4.9071813E0,-2.6171452E-1,-1.3178034E-1,-9.0342E-2,1.0731267E-1,2.1990907E0,-1.4756349E-3,-7.080015E-1,3.2608523E0,-1.4765061E-1,-6.2626745E-3,6.3080635E0,-6.292081E-2,4.821072E-1,-1.412972E-1,1.4935023E-1,5.8921212E-3,-8.5209304E-1,-8.2532364E-1,4.296062E-3,1.0847458E-1,8.12339E-2,-9.842749E-2],"split_indices":[6,7,5,2,4,1,0,0,0,19,0,8,6,0,0,6,0,1,0,0,0,12,3,0,0,0,0],"split_type":[0,0,0,0,0,0,0,0,0,0,0,0,0,0,0,0,0,0,0,0,0,0,0,0,0,0,0],"sum_hessian":[1.07402855E2,4.6715183E1,6.0687675E1,3.7239423E0,4.299124E1,5.6966007E1,3.7216678E0,1.4738728E0,2.2500694E0,4.1704235E1,1.287006E0,3.948665E1,1.7479362E1,4.0460075E1,1.2441572E0,3.8449352E1,1.0372944E0,1.56984215E1,1.78094E0,3.7249397E1,1.1999565E0,1.30692835E1,2.6291382E0,1.3997098E0,1.1669574E1,1.0472283E0,1.5819098E0],"tree_param":{"num_deleted":"0","num_feature":"25","num_nodes":"27","size_leaf_vector":"1"}},{"base_weights":[1.11879865E-2,-3.9191142E-1,3.999204E-1,-4.7207075E-1,2.4718387E-1,-1.0996748E-1,4.610924E-1,-1.4674522E-1,4.2394036E-3,-4.9948473E-2,1.4060444E-1,4.7438702E-1,-6.051099E-3,5.9289344E-2,-7.9149544E-2,1.4584684E-1,4.7567416E-2],"categories":[],"categories_nodes":[],"categories_segments":[],"categories_sizes":[],"default_left":[0,0,0,0,0,0,0,0,0,0,0,0,0,0,0,0,0],"id":52,"left_children":[1,3,5,7,9,-1,11,-1,-1,13,-1,15,-1,-1,-1,-1,-1],"loss_changes":[1.2796086E1,2.1711764E0,2.1175041E0,3.0568314E-1,3.6075953E-1,0E0,2.586403E-1,0E0,0E0,2.1591634E-1,0E0,6.38752E-2,0E0,0E0,0E0,0E0,0E0],"parents":[2147483647,0,0,1,1,2,2,3,3,4,4,6,6,9,9,11,11],"right_children":[2,4,6,8,10,-1,12,-1,-1,14,-1,16,-1,-1,-1,-1,-1],"split_conditions":[-1.0434047E-1,3.2608523E0,-7.2848815E-1,1.382158E0,-3.1552178E-1,-1.0996748E-1,4.3998975E-1,-1.4674522E-1,4.2394036E-3,2.2252916E-1,1.4060444E-1,1.6605318E0,-6.051099E-3,5.9289344E-2,-7.9149544E-2,1.4584684E-1,4.7567416E-2],"split_indices":[1,6,3,10,1,0,3,0,0,3,0,23,0,0,0,0,0],"split_type":[0,0,0,0,0,0,0,0,0,0,0,0,0,0,0,0,0],"sum_hessian":[7.96607E1,3.910365E1,4.0557045E1,3.4977856E1,4.1257963E0,2.6286085E0,3.7928436E1,3.3784946E1,1.1929073E0,2.0928276E0,2.0329688E0,3.6922752E1,1.0056826E0,1.0052229E0,1.0876046E0,3.507636E1,1.8463956E0],"tree_param":{"num_deleted":"0","num_feature":"25","num_nodes":"17","size_leaf_vector":"1"}},{"base_weights":[-2.1647083E-2,-1.4682192E-1,3.938331E-1,4.5551306E-1,-1.0933738E-1,-5.6506198E-2,4.7860113E-1,1.4856772E-1,1.572673E-2],"categories":[],"categories_nodes":[],"categories_segments":[],"categories_sizes":[],"default_left":[0,0,0,0,0,0,0,0,0],"id":53,"left_children":[1,-1,3,5,-1,-1,7,-1,-1],"loss_changes":[1.480206E1,0E0,2.0539374E0,6.516671E-1,0E0,0E0,2.3439884E-1,0E0,0E0],"parents":[2147483647,0,0,2,2,3,3,6,6],"right_children":[2,-1,4,6,-1,-1,8,-1,-1],"split_conditions":[1.1114244E0,-1.4682192E-1,-3.5521638E-1,2.1510583E-1,-1.0933738E-1,-5.6506198E-2,-7.0790106E-1,1.4856772E-1,1.572673E-2],"split_indices":[11,0,6,3,0,0,8,0,0],"split_type":[0,0,0,0,0,0,0,0,0],"sum_hessian":[7.417219E1,3.4807262E1,3.936492E1,3.6773064E1,2.5918586E0,1.025186E0,3.574788E1,3.4249832E1,1.4980454E0],"tree_param":{"num_deleted":"0","num_feature":"25","num_nodes":"9","size_leaf_vector":"1"}},{"base_weights":[1.5193773E-2,-3.264238E-1,1.4960687E-1,-4.1810086E-1,1.264281E-1,1.0599E-1,-4.6878284E-1,-1.4711198E-1,3.680621E-2],"categories":[],"categories_nodes":[],"categories_segments":[],"categories_sizes":[],"default_left":[0,0,0,0,0,0,0,0,0],"id":54,"left_children":[1,3,-1,5,-1,-1,7,-1,-1],"loss_changes":[1.3001537E1,3.3404398E0,0E0,1.7925844E0,0E0,0E0,5.6430817E-1,0E0,0E0],"parents":[2147483647,0,0,1,1,3,3,6,6],"right_children":[2,4,-1,6,-1,-1,8,-1,-1],"split_conditions":[-8.0662113E-1,3.9870802E-1,1.4960687E-1,7.546499E-2,1.264281E-1,1.0599E-1,3.5147114E0,-1.4711198E-1,3.680621E-2],"split_indices":[5,15,0,2,0,0,14,0,0],"split_type":[0,0,0,0,0,0,0,0,0],"sum_hessian":[7.6730225E1,4.5152355E1,3.1577868E1,4.0614464E1,4.5378904E0,2.1357985E0,3.847867E1,3.7288452E1,1.190214E0],"tree_param":{"num_deleted":"0","num_feature":"25","num_nodes":"9","size_leaf_vector":"1"}},{"base_weights":[-5.4221908E-3,-4.1007242E-1,2.9920265E-1,-4.6588007E-1,2.2065714E-2,3.5367453E-1,-1.232907E-1,-1.4436373E-1,1.4675404E-3,2.6248643E-1,-9.3207225E-2,4.4842127E-1,1.4289054E-1,2.0907361E-2,9.361162E-2,4.7272983E-1,-3.6618054E-2,2.3633645E-1,-1.289495E-1,1.4695328E-1,2.642985E-3,3.527607E-1,4.7652137E-2,1.1796246E-1,8.286752E-3,1.112966E-1,-7.799832E-2],"categories":[],"categories_nodes":[],"categories_segments":[],"categories_sizes":[],"default_left":[0,0,0,0,0,0,0,0,0,0,0,0,0,0,0,0,0,0,0,0,0,0,0,0,0,0,0],"id":55,"left_children":[1,3,5,7,9,11,-1,-1,-1,13,-1,15,17,-1,-1,19,-1,21,-1,-1,-1,23,25,-1,-1,-1,-1],"loss_changes":[1.0494968E1,8.9201164E-1,2.0247912E0,2.3639631E-1,4.9246985E-1,8.478136E-1,0E0,0E0,0E0,1.1919588E-2,0E0,4.8805666E-1,9.3793124E-1,0E0,0E0,2.3363924E-1,0E0,2.9249954E-1,0E0,0E0,0E0,1.01597786E-1,7.4591744E-1,0E0,0E0,0E0,0E0],"parents":[2147483647,0,0,1,1,2,2,3,3,4,4,5,5,9,9,11,11,12,12,15,15,17,17,21,21,22,22],"right_children":[2,4,6,8,10,12,-1,-1,-1,14,-1,16,18,-1,-1,20,-1,22,-1,-1,-1,24,26,-1,-1,-1,-1],"split_conditions":[1.4467686E-1,1.7762077E0,-8.0662113E-1,2.1990907E0,-1.0076447E0,-2.6779145E-1,-1.232907E-1,-1.4436373E-1,1.4675404E-3,2.5450319E-2,-9.3207225E-2,6.6749305E-1,3.2608523E0,2.0907361E-2,9.361162E-2,6.3080635E0,-3.6618054E-2,-4.931113E-2,-1.289495E-1,1.4695328E-1,2.642985E-3,-7.0889175E-1,-2.9919274E-2,1.1796246E-1,8.286752E-3,1.112966E-1,-7.799832E-2],"split_indices":[6,0,5,19,7,1,0,0,0,6,0,24,6,0,0,6,0,1,0,0,0,8,3,0,0,0,0],"split_type":[0,0,0,0,0,0,0,0,0,0,0,0,0,0,0,0,0,0,0,0,0,0,0,0,0,0,0],"sum_hessian":[8.314511E1,3.5561127E1,4.758399E1,3.1424753E1,4.1363726E0,4.466041E1,2.9235744E0,3.0412098E1,1.012654E0,2.5239573E0,1.6124153E0,3.003319E1,1.4627223E1,1.0081034E0,1.515854E0,2.8970106E1,1.0630844E0,1.3080363E1,1.5468599E0,2.7885502E1,1.0846026E0,7.551355E0,5.5290084E0,6.529698E0,1.021657E0,2.5953758E0,2.9336329E0],"tree_param":{"num_deleted":"0","num_feature":"25","num_nodes":"27","size_leaf_vector":"1"}},{"base_weights":[1.2583762E-2,-3.4006387E-1,4.2296365E-1,-1.4318337E-1,6.9109835E-2,4.6025136E-1,-8.0473624E-2,-2.0114331E-1,2.709789E-1,-3.4074314E-2,1.470348E-1,5.7675343E-2,-1.0933977E-1,-4.1757055E-2,1.4469074E-1],"categories":[],"categories_nodes":[],"categories_segments":[],"categories_sizes":[],"default_left":[0,0,0,0,0,0,0,0,0,0,0,0,0,0,0],"id":56,"left_children":[1,3,5,-1,7,9,-1,11,13,-1,-1,-1,-1,-1,-1],"loss_changes":[9.232189E0,1.9604201E0,8.8300276E-1,0E0,5.725008E-1,5.411606E-1,0E0,3.6778647E-1,5.751594E-1,0E0,0E0,0E0,0E0,0E0,0E0],"parents":[2147483647,0,0,1,1,2,2,4,4,5,5,7,7,8,8],"right_children":[2,4,6,-1,8,10,-1,12,14,-1,-1,-1,-1,-1,-1],"split_conditions":[4.02959E-1,1.7718544E0,-8.0662113E-1,-1.4318337E-1,-2.899365E-1,-7.1813184E-1,-8.0473624E-2,2.1510583E-1,-5.025106E-1,-3.4074314E-2,1.470348E-1,5.7675343E-2,-1.0933977E-1,-4.1757055E-2,1.4469074E-1],"split_indices":[1,6,5,0,1,3,0,3,10,0,0,0,0,0,0],"split_type":[0,0,0,0,0,0,0,0,0,0,0,0,0,0,0],"sum_hessian":[6.179979E1,3.3329998E1,2.846979E1,2.4835213E1,8.494786E0,2.7329613E1,1.1401775E0,3.6337209E0,4.8610654E0,1.2133095E0,2.6116302E1,1.0140523E0,2.6196687E0,1.7689526E0,3.092113E0],"tree_param":{"num_deleted":"0","num_feature":"25","num_nodes":"15","size_leaf_vector":"1"}},{"base_weights":[-2.621548E-2,-1.45295E-1,3.764046E-1,4.353763E-1,-1.0020722E-1,-5.9651896E-2,4.655381E-1,1.4658186E-1,-2.127282E-2],"categories":[],"categories_nodes":[],"categories_segments":[],"categories_sizes":[],"default_left":[0,0,0,0,0,0,0,0,0],"id":57,"left_children":[1,-1,3,5,-1,-1,7,-1,-1],"loss_changes":[1.08101425E1,0E0,1.4538455E0,6.5250015E-1,0E0,0E0,3.8413095E-1,0E0,0E0],"parents":[2147483647,0,0,2,2,3,3,6,6],"right_children":[2,-1,4,6,-1,-1,8,-1,-1],"split_conditions":[1.3395318E0,-1.45295E-1,-3.5521638E-1,2.1510583E-1,-1.0020722E-1,-5.9651896E-2,1.7105306E0,1.4658186E-1,-2.127282E-2],"split_indices":[9,0,6,3,0,0,9,0,0],"split_type":[0,0,0,0,0,0,0,0,0],"sum_hessian":[5.662199E1,2.6391186E1,3.0230804E1,2.8271215E1,1.959589E0,1.0295854E0,2.724163E1,2.6204E1,1.0376291E0],"tree_param":{"num_deleted":"0","num_feature":"25","num_nodes":"9","size_leaf_vector":"1"}},{"base_weights":[1.948885E-2,-3.1106576E-1,1.4740327E-1,-4.0609694E-1,1.21016376E-1,9.8103374E-2,-4.582706E-1,-1.4568086E-1,3.8322926E-2],"categories":[],"categories_nodes":[],"categories_segments":[],"categories_sizes":[],"default_left":[0,0,0,0,0,0,0,0,0],"id":58,"left_children":[1,3,-1,5,-1,-1,7,-1,-1],"loss_changes":[9.522824E0,2.6038885E0,0E0,1.3821616E0,0E0,0E0,5.504546E-1,0E0,0E0],"parents":[2147483647,0,0,1,1,3,3,6,6],"right_children":[2,4,-1,6,-1,-1,8,-1,-1],"split_conditions":[-8.0662113E-1,3.9870802E-1,1.4740327E-1,7.546499E-2,1.21016376E-1,9.8103374E-2,3.5147114E0,-1.4568086E-1,3.8322926E-2],"split_indices":[5,15,0,2,0,0,14,0,0],"split_type":[0,0,0,0,0,0,0,0,0],"sum_hessian":[5.9074028E1,3.4938732E1,2.4135296E1,3.1217955E1,3.720777E0,1.7241162E0,2.949384E1,2.834323E1,1.1506088E0],"tree_param":{"num_deleted":"0","num_feature":"25","num_nodes":"9","size_leaf_vector":"1"}},{"base_weights":[-6.847348E-3,-3.9788565E-1,2.8091127E-1,-4.6293762E-1,-1.6162285E-3,-1.0798459E-1,3.3574778E-1,-1.4429328E-1,-6.4844494E-3,2.2610581E-1,-9.191094E-2,4.3213713E-1,1.3177627E-1,4.9249036E-3,9.1688894E-2,4.509927E-1,1.310882E-3,-2.3795302E-1,2.7168906E-1,1.5139356E-2,1.416552E-1,1.6846426E-2,-1.24066286E-1,1.0831419E-1,1.1564236E-1,8.348772E-2,-8.308655E-2],"categories":[],"categories_nodes":[],"categories_segments":[],"categories_sizes":[],"default_left":[0,0,0,0,0,0,0,0,0,0,0,0,0,0,0,0,0,0,0,0,0,0,0,0,0,0,0],"id":59,"left_children":[1,3,5,7,9,-1,11,-1,-1,13,-1,15,17,-1,-1,19,-1,21,23,-1,-1,-1,-1,25,-1,-1,-1],"loss_changes":[7.516212E0,7.2901106E-1,1.4736128E0,1.83177E-1,4.1595232E-1,0E0,6.5038395E-1,0E0,0E0,5.2252978E-2,0E0,1.9154978E-1,7.3631555E-1,0E0,0E0,1.71134E-1,0E0,2.3484874E-1,1.4203405E-1,0E0,0E0,0E0,0E0,4.339541E-1,0E0,0E0,0E0],"parents":[2147483647,0,0,1,1,2,2,3,3,4,4,6,6,9,9,11,11,12,12,15,15,17,17,18,18,23,23],"right_children":[2,4,6,8,10,-1,12,-1,-1,14,-1,16,18,-1,-1,20,-1,22,24,-1,-1,-1,-1,26,-1,-1,-1],"split_conditions":[1.4467686E-1,1.6129149E0,1.501213E-1,2.5204003E0,-8.983846E-1,-1.0798459E-1,-2.6779145E-1,-1.4429328E-1,-6.4844494E-3,4.2488962E-1,-9.191094E-2,6.3080635E0,-3.1160918E-1,4.9249036E-3,9.1688894E-2,2.1365027E-1,1.310882E-3,2.3629493E-1,-8.4305674E-2,1.5139356E-2,1.416552E-1,1.6846426E-2,-1.24066286E-1,-1.2486574E-1,1.1564236E-1,8.348772E-2,-8.308655E-2],"split_indices":[6,0,11,13,7,0,1,0,0,18,0,6,19,0,0,11,0,10,12,0,0,0,0,1,0,0,0],"split_type":[0,0,0,0,0,0,0,0,0,0,0,0,0,0,0,0,0,0,0,0,0,0,0,0,0,0,0],"sum_hessian":[6.480285E1,2.7309273E1,3.7493576E1,2.3313814E1,3.9954584E0,2.5167656E0,3.497681E1,2.2311914E1,1.0019003E0,2.4344363E0,1.5610219E0,2.2992697E1,1.1984113E1,1.0011154E0,1.433321E0,2.1969988E1,1.022708E0,3.0976453E0,8.886468E0,1.2739007E0,2.0696087E1,1.4123572E0,1.6852881E0,4.449592E0,4.4368753E0,3.2801018E0,1.1694906E0],"tree_param":{"num_deleted":"0","num_feature":"25","num_nodes":"27","size_leaf_vector":"1"}},{"base_weights":[1.358675E-2,-3.573749E-1,3.7547803E-1,-4.5571536E-1,2.3401283E-1,-9.4982535E-2,4.3826333E-1,-1.4055337E-1,-4.300403E-2,3.5347748E-1,-2.0387158E-2,4.540347E-1,1.5766641E-2,3.2367583E-2,1.2695901E-1,1.4066705E-1,3.2309767E-2],"categories":[],"categories_nodes":[],"categories_segments":[],"categories_sizes":[],"default_left":[0,0,0,0,0,0,0,0,0,0,0,0,0,0,0,0,0],"id":60,"left_children":[1,3,5,7,9,-1,11,-1,-1,13,-1,15,-1,-1,-1,-1,-1],"loss_changes":[6.7258573E0,1.5465543E0,1.2399356E0,1.9048214E-2,1.7520343E-1,0E0,1.20025635E-1,0E0,0E0,8.516043E-3,0E0,6.574345E-2,0E0,0E0,0E0,0E0,0E0],"parents":[2147483647,0,0,1,1,2,2,3,3,4,4,6,6,9,9,11,11],"right_children":[2,4,6,8,10,-1,12,-1,-1,14,-1,16,-1,-1,-1,-1,-1],"split_conditions":[-1.0434047E-1,3.2608523E0,-7.2848815E-1,2.6383846E0,-3.490337E-1,-9.4982535E-2,4.2366856E-1,-1.4055337E-1,-4.300403E-2,-3.1552178E-1,-2.0387158E-2,1.6605318E0,1.5766641E-2,3.2367583E-2,1.2695901E-1,1.4066705E-1,3.2309767E-2],"split_indices":[1,6,3,6,21,0,3,0,0,1,0,23,0,0,0,0,0],"split_type":[0,0,0,0,0,0,0,0,0,0,0,0,0,0,0,0,0],"sum_hessian":[4.8100777E1,2.3758884E1,2.4341892E1,2.056808E1,3.190803E0,1.6883533E0,2.265354E1,1.9278492E1,1.2895881E0,2.1640828E0,1.0267204E0,2.159345E1,1.0600892E0,1.0418152E0,1.1222675E0,2.0366026E1,1.227425E0],"tree_param":{"num_deleted":"0","num_feature":"25","num_nodes":"17","size_leaf_vector":"1"}},{"base_weights":[-3.1356014E-2,-1.4348067E-1,3.5776535E-1,4.23846E-1,-9.577272E-2,-5.0647337E-2,4.5932886E-1,1.4404468E-1,5.908418E-3],"categories":[],"categories_nodes":[],"categories_segments":[],"categories_sizes":[],"default_left":[0,0,0,0,0,0,0,0,0],"id":61,"left_children":[1,-1,3,5,-1,-1,7,-1,-1],"loss_changes":[7.8906827E0,0E0,1.2224808E0,5.5218315E-1,0E0,0E0,1.8792105E-1,0E0,0E0],"parents":[2147483647,0,0,2,2,3,3,6,6],"right_children":[2,-1,4,6,-1,-1,8,-1,-1],"split_conditions":[1.1114244E0,-1.4348067E-1,-3.5521638E-1,-5.393076E-1,-9.577272E-2,-5.0647337E-2,-6.373679E-1,1.4404468E-1,5.908418E-3],"split_indices":[11,0,6,21,0,0,16,0,0],"split_type":[0,0,0,0,0,0,0,0,0],"sum_hessian":[4.3390026E1,2.0088697E1,2.330133E1,2.15699E1,1.7314293E0,1.0061556E0,2.0563745E1,1.9545937E1,1.0178075E0],"tree_param":{"num_deleted":"0","num_feature":"25","num_nodes":"9","size_leaf_vector":"1"}},{"base_weights":[2.385922E-2,-2.9433134E-1,1.45196E-1,-3.922698E-1,1.1532926E-1,8.997915E-2,-4.4572076E-1,-1.442154E-1,4.5755595E-2],"categories":[],"categories_nodes":[],"categories_segments":[],"categories_sizes":[],"default_left":[0,0,0,0,0,0,0,0,0],"id":62,"left_children":[1,3,-1,5,-1,-1,7,-1,-1],"loss_changes":[6.9654703E0,2.0236223E0,0E0,1.0629108E0,0E0,0E0,5.6987333E-1,0E0,0E0],"parents":[2147483647,0,0,1,1,3,3,6,6],"right_children":[2,4,-1,6,-1,-1,8,-1,-1],"split_conditions":[-8.0662113E-1,3.9870802E-1,1.45196E-1,7.546499E-2,1.1532926E-1,8.997915E-2,4.663092E0,-1.442154E-1,4.5755595E-2],"split_indices":[5,15,0,2,0,0,7,0,0],"split_type":[0,0,0,0,0,0,0,0,0],"sum_hessian":[4.5602707E1,2.7172508E1,1.8430199E1,2.4115036E1,3.0574732E0,1.3980966E0,2.271694E1,2.1647026E1,1.0699135E0],"tree_param":{"num_deleted":"0","num_feature":"25","num_nodes":"9","size_leaf_vector":"1"}},{"base_weights":[-7.448741E-3,-3.8513446E-1,2.6138955E-1,-4.5322794E-1,2.827745E-3,3.1361327E-1,-1.068868E-1,-1.4207764E-1,-1.5365648E-2,2.0766334E-1,-8.324237E-2,4.1810137E-1,1.0866336E-1,7.825771E-2,1.5588333E-2,4.4566843E-1,-1.1003209E-2,2.0200959E-1,-1.0518125E-1,1.4073217E-1,1.3967236E-2,2.5431785E-1,-2.4006076E-2,3.3489294E-2,1.0913411E-1],"categories":[],"categories_nodes":[],"categories_segments":[],"categories_sizes":[],"default_left":[0,0,0,0,0,0,0,0,0,0,0,0,0,0,0,0,0,0,0,0,0,0,0,0,0],"id":63,"left_children":[1,3,5,7,9,11,-1,-1,-1,13,-1,15,17,-1,-1,19,-1,21,-1,-1,-1,23,-1,-1,-1],"loss_changes":[5.377143E0,5.8281446E-1,1.1102138E0,1.2909818E-1,3.0339295E-1,5.771432E-1,0E0,0E0,0E0,1.16675645E-2,0E0,2.533455E-1,5.4960644E-1,0E0,0E0,1.4560628E-1,0E0,1.666356E-1,0E0,0E0,0E0,9.377414E-2,0E0,0E0,0E0],"parents":[2147483647,0,0,1,1,2,2,3,3,4,4,5,5,9,9,11,11,12,12,15,15,17,17,21,21],"right_children":[2,4,6,8,10,12,-1,-1,-1,14,-1,16,18,-1,-1,20,-1,22,-1,-1,-1,24,-1,-1,-1],"split_conditions":[1.4467686E-1,1.6129149E0,-8.0662113E-1,2.0292602E0,-8.983846E-1,-2.6779145E-1,-1.068868E-1,-1.4207764E-1,-1.5365648E-2,-3.0207062E-1,-8.324237E-2,3.5003328E-1,3.2608523E0,7.825771E-2,1.5588333E-2,1.7649409E0,-1.1003209E-2,5.188194E-1,-1.0518125E-1,1.4073217E-1,1.3967236E-2,2.0013063E-1,-2.4006076E-2,3.3489294E-2,1.0913411E-1],"split_indices":[6,0,5,13,7,1,0,0,0,19,0,15,6,0,0,18,0,1,0,0,0,12,0,0,0],"split_type":[0,0,0,0,0,0,0,0,0,0,0,0,0,0,0,0,0,0,0,0,0,0,0,0,0],"sum_hessian":[5.096633E1,2.1012995E1,2.9953337E1,1.7732443E1,3.2805507E0,2.8072155E1,1.8811823E0,1.6708017E1,1.0244255E0,2.0451605E0,1.2353902E0,1.7904179E1,1.0167975E1,1.0209738E0,1.0241867E0,1.6899807E1,1.0043724E0,8.915954E0,1.2520214E0,1.5796723E1,1.1030829E0,7.6039104E0,1.3120435E0,4.1778274E0,3.426083E0],"tree_param":{"num_deleted":"0","num_feature":"25","num_nodes":"25","size_leaf_vector":"1"}},{"base_weights":[1.4977532E-2,-3.332158E-1,3.5888207E-1,-4.416389E-1,2.2152492E-1,-7.119433E-2,4.3081534E-1,-1.3722049E-1,-3.7530035E-2,-1.1410741E-2,9.7534485E-2,1.3539559E-1,2.5204213E-2],"categories":[],"categories_nodes":[],"categories_segments":[],"categories_sizes":[],"default_left":[0,0,0,0,0,0,0,0,0,0,0,0,0],"id":64,"left_children":[1,3,5,7,9,-1,11,-1,-1,-1,-1,-1,-1],"loss_changes":[4.8090467E0,1.2994568E0,9.6784806E-1,2.7829647E-2,1.1809637E-1,0E0,9.267545E-2,0E0,0E0,0E0,0E0,0E0,0E0],"parents":[2147483647,0,0,1,1,2,2,3,3,4,4,6,6],"right_children":[2,4,6,8,10,-1,12,-1,-1,-1,-1,-1,-1],"split_conditions":[-1.0434047E-1,3.2608523E0,-7.1813184E-1,2.6383846E0,2.3719119E-1,-7.119433E-2,4.0092832E-1,-1.3722049E-1,-3.7530035E-2,-1.1410741E-2,9.7534485E-2,1.3539559E-1,2.5204213E-2],"split_indices":[1,6,3,6,18,0,3,0,0,0,0,0,0],"split_type":[0,0,0,0,0,0,0,0,0,0,0,0,0],"sum_hessian":[3.8161983E1,1.8978195E1,1.918379E1,1.6045929E1,2.9322658E0,1.8178678E0,1.7365921E1,1.486089E1,1.1850389E0,1.0169541E0,1.9153116E0,1.6111986E1,1.2539346E0],"tree_param":{"num_deleted":"0","num_feature":"25","num_nodes":"13","size_leaf_vector":"1"}},{"base_weights":[-3.6878668E-2,-1.4132725E-1,3.3638895E-1,3.9980623E-1,-8.6673394E-2,-4.9256884E-2,4.4416544E-1,1.415985E-1,9.808348E-4],"categories":[],"categories_nodes":[],"categories_segments":[],"categories_sizes":[],"default_left":[0,0,0,0,0,0,0,0,0],"id":65,"left_children":[1,-1,3,5,-1,-1,7,-1,-1],"loss_changes":[5.7692394E0,0E0,8.7683105E-1,5.19516E-1,0E0,0E0,2.0482087E-1,0E0,0E0],"parents":[2147483647,0,0,2,2,3,3,6,6],"right_children":[2,-1,4,6,-1,-1,8,-1,-1],"split_conditions":[1.3395318E0,-1.4132725E-1,-3.5521638E-1,-5.393076E-1,-8.6673394E-2,-4.9256884E-2,-7.0790106E-1,1.415985E-1,9.808348E-4],"split_indices":[9,0,6,21,0,0,8,0,0],"split_type":[0,0,0,0,0,0,0,0,0],"sum_hessian":[3.3617855E1,1.5419127E1,1.8198729E1,1.6850397E1,1.3483315E0,1.0317003E0,1.5818696E1,1.4813149E1,1.0055463E0],"tree_param":{"num_deleted":"0","num_feature":"25","num_nodes":"9","size_leaf_vector":"1"}},{"base_weights":[2.84924E-2,-2.7478063E-1,1.4248638E-1,-3.7642536E-1,1.0995317E-1,8.230517E-2,-4.3098748E-1,4.5894593E-2,-1.4219369E-1],"categories":[],"categories_nodes":[],"categories_segments":[],"categories_sizes":[],"default_left":[0,0,0,0,0,0,0,0,0],"id":66,"left_children":[1,3,-1,5,-1,-1,7,-1,-1],"loss_changes":[5.0878444E0,1.6004301E0,0E0,8.2341623E-1,0E0,0E0,5.422993E-1,0E0,0E0],"parents":[2147483647,0,0,1,1,3,3,6,6],"right_children":[2,4,-1,6,-1,-1,8,-1,-1],"split_conditions":[-8.0662113E-1,3.9870802E-1,1.4248638E-1,7.546499E-2,1.0995317E-1,8.230517E-2,-6.204817E-1,4.5894593E-2,-1.4219369E-1],"split_indices":[5,15,0,2,0,0,21,0,0],"split_type":[0,0,0,0,0,0,0,0,0],"sum_hessian":[3.5612545E1,2.1436014E1,1.4176529E1,1.885976E1,2.5762544E0,1.1473079E0,1.7712452E1,1.0391302E0,1.6673323E1],"tree_param":{"num_deleted":"0","num_feature":"25","num_nodes":"9","size_leaf_vector":"1"}},{"base_weights":[-8.440727E-3,-4.4002426E-1,2.0042E-1,-1.3887353E-1,-2.1578476E-2,-1.1786631E-1,3.0061132E-1,3.5388502E-1,-4.50487E-2,4.1422144E-1,1.6823404E-2,5.103502E-2,-9.147342E-2,9.714615E-3,1.3512503E-1,-8.6132996E-2,7.099919E-2],"categories":[],"categories_nodes":[],"categories_segments":[],"categories_sizes":[],"default_left":[0,0,0,0,0,0,0,0,0,0,0,0,0,0,0,0,0],"id":67,"left_children":[1,3,5,-1,-1,-1,7,9,11,13,15,-1,-1,-1,-1,-1,-1],"loss_changes":[3.8589146E0,8.427119E-2,1.83465E0,0E0,0E0,0E0,4.813006E-1,4.4063878E-1,2.901624E-1,2.4283242E-1,3.6087322E-1,0E0,0E0,0E0,0E0,0E0,0E0],"parents":[2147483647,0,0,1,1,2,2,6,6,7,7,8,8,9,9,10,10],"right_children":[2,4,6,-1,-1,-1,8,10,12,14,16,-1,-1,-1,-1,-1,-1],"split_conditions":[-5.876794E-3,2.3900242E0,1.501213E-1,-1.3887353E-1,-2.1578476E-2,-1.1786631E-1,3.2608523E0,-4.931113E-2,-3.1552178E-1,1.1305879E-1,8.823114E-1,5.103502E-2,-9.147342E-2,9.714615E-3,1.3512503E-1,-8.6132996E-2,7.099919E-2],"split_indices":[6,4,11,0,0,0,6,1,1,0,12,0,0,0,0,0,0],"split_type":[0,0,0,0,0,0,0,0,0,0,0,0,0,0,0,0,0],"sum_hessian":[4.0831474E1,1.2954957E1,2.7876516E1,1.195409E1,1.0008663E0,3.6053233E0,2.4271193E1,2.1009396E1,3.261798E0,1.7625402E1,3.383992E0,1.9732845E0,1.2885135E0,1.690133E0,1.593527E1,1.2919109E0,2.0920813E0],"tree_param":{"num_deleted":"0","num_feature":"25","num_nodes":"17","size_leaf_vector":"1"}},{"base_weights":[1.6419955E-2,-3.147433E-1,3.323191E-1,-4.256415E-1,2.1693268E-1,-8.2286395E-2,3.9713115E-1,-1.357117E-1,-4.0246624E-2,1.1774752E-4,1.08884215E-1,1.3778034E-1,1.7864928E-1,-5.9326254E-3,9.545395E-2,3.339085E-2,-3.3634562E-2],"categories":[],"categories_nodes":[],"categories_segments":[],"categories_sizes":[],"default_left":[0,0,0,0,0,0,0,0,0,0,0,0,0,0,0,0,0],"id":68,"left_children":[1,3,5,7,9,-1,11,-1,-1,-1,-1,-1,13,15,-1,-1,-1],"loss_changes":[3.4084537E0,1.0317026E0,7.635144E-1,4.4653177E-2,1.0773741E-1,0E0,1.2770987E-1,0E0,0E0,0E0,0E0,0E0,1.3215256E-1,5.1804584E-2,0E0,0E0,0E0],"parents":[2147483647,0,0,1,1,2,2,3,3,4,4,6,6,12,12,13,13],"right_children":[2,4,6,8,10,-1,12,-1,-1,-1,-1,-1,14,16,-1,-1,-1],"split_conditions":[-1.5351835E-1,3.3748872E0,-7.2848815E-1,2.4479375E0,-3.1552178E-1,-8.2286395E-2,-1.0376529E0,-1.357117E-1,-4.0246624E-2,1.1774752E-4,1.08884215E-1,1.3778034E-1,1.1465356E0,-6.598705E-1,9.545395E-2,3.339085E-2,-3.3634562E-2],"split_indices":[1,6,3,6,1,0,5,0,0,0,0,0,6,16,0,0,0],"split_type":[0,0,0,0,0,0,0,0,0,0,0,0,0,0,0,0,0],"sum_hessian":[3.0581358E1,1.4931761E1,1.5649598E1,1.2519789E1,2.4119718E0,1.1986645E0,1.4450933E1,1.0962518E1,1.5572717E0,1.3752139E0,1.0367578E0,1.0393046E1,4.0578866E0,2.159118E0,1.8987687E0,1.0032336E0,1.1558844E0],"tree_param":{"num_deleted":"0","num_feature":"25","num_nodes":"17","size_leaf_vector":"1"}},{"base_weights":[-4.294475E-2,-1.3870744E-1,3.1349564E-1,3.828204E-1,-8.2114175E-2,-3.1930625E-2,1.3830222E-1,7.92651E-2,-9.889079E-2],"categories":[],"categories_nodes":[],"categories_segments":[],"categories_sizes":[],"default_left":[0,0,0,0,0,0,0,0,0],"id":69,"left_children":[1,-1,3,5,-1,7,-1,-1,-1],"loss_changes":[4.2038517E0,0E0,7.265229E-1,4.712205E-1,0E0,3.6640853E-1,0E0,0E0,0E0],"parents":[2147483647,0,0,2,2,3,3,5,5],"right_children":[2,-1,4,6,-1,8,-1,-1,-1],"split_conditions":[1.1114244E0,-1.3870744E-1,-3.5521638E-1,-1.644885E-1,-8.2114175E-2,-1.7173469E0,1.3830222E-1,7.92651E-2,-9.889079E-2],"split_indices":[11,0,6,17,0,4,0,0,0],"split_type":[0,0,0,0,0,0,0,0,0],"sum_hessian":[2.6150612E1,1.1877517E1,1.4273095E1,1.3077286E1,1.195809E0,2.168082E0,1.0909204E1,1.1432761E0,1.0248059E0],"tree_param":{"num_deleted":"0","num_feature":"25","num_nodes":"9","size_leaf_vector":"1"}},{"base_weights":[3.432071E-2,-2.550382E-1,1.3958538E-1,-3.5836658E-1,1.03830755E-1,6.726339E-2,-4.1309556E-1,4.5558788E-2,-1.3966122E-1],"categories":[],"categories_nodes":[],"categories_segments":[],"categories_sizes":[],"default_left":[0,0,0,0,0,0,0,0,0],"id":70,"left_children":[1,3,-1,5,-1,-1,7,-1,-1],"loss_changes":[3.727604E0,1.2396556E0,0E0,5.969465E-1,0E0,0E0,5.0951076E-1,0E0,0E0],"parents":[2147483647,0,0,1,1,3,3,6,6],"right_children":[2,4,-1,6,-1,-1,8,-1,-1],"split_conditions":[-8.0662113E-1,3.9870802E-1,1.3958538E-1,-3.3434E-1,1.03830755E-1,6.726339E-2,-6.204817E-1,4.5558788E-2,-1.3966122E-1],"split_indices":[5,15,0,9,0,0,21,0,0],"split_type":[0,0,0,0,0,0,0,0,0],"sum_hessian":[2.7940216E1,1.6960659E1,1.0979556E1,1.4817566E1,2.1430933E0,1.0065293E0,1.3811036E1,1.0120751E0,1.2798962E1],"tree_param":{"num_deleted":"0","num_feature":"25","num_nodes":"9","size_leaf_vector":"1"}},{"base_weights":[-1.0223389E-2,-4.262551E-1,1.8297558E-1,-1.3531686E-1,-2.9048296E-2,-1.1095973E-1,2.74626E-1,3.8397795E-1,7.727373E-2,1.4848824E-2,4.1651732E-1,-2.3475736E-1,2.1701692E-1,1.3604254E-1,1.5247061E-2,-9.913606E-2,-4.7798203E-3,-2.0005095E-3,2.6673895E-1,9.6782796E-2,1.6220782E-2],"categories":[],"categories_nodes":[],"categories_segments":[],"categories_sizes":[],"default_left":[0,0,0,0,0,0,0,0,0,0,0,0,0,0,0,0,0,0,0,0,0],"id":71,"left_children":[1,3,5,-1,-1,-1,7,9,11,-1,13,15,17,-1,-1,-1,-1,-1,19,-1,-1],"loss_changes":[2.7970836E0,4.6428204E-2,1.3075264E0,0E0,0E0,0E0,4.2331588E-1,1.236434E-1,4.318634E-1,0E0,1.3838482E-1,6.137921E-2,7.466462E-2,0E0,0E0,0E0,0E0,0E0,4.6551257E-2,0E0,0E0],"parents":[2147483647,0,0,1,1,2,2,6,6,7,7,8,8,10,10,11,11,12,12,18,18],"right_children":[2,4,6,-1,-1,-1,8,10,12,-1,14,16,18,-1,-1,-1,-1,-1,20,-1,-1],"split_conditions":[-5.876794E-3,2.111672E0,1.501213E-1,-1.3531686E-1,-2.9048296E-2,-1.1095973E-1,-2.6779145E-1,1.1305879E-1,-3.238202E-1,1.4848824E-2,4.7968373E0,-3.490337E-1,-3.79081E-1,1.3604254E-1,1.5247061E-2,-9.913606E-2,-4.7798203E-3,-2.0005095E-3,1.924469E0,9.6782796E-2,1.6220782E-2],"split_indices":[6,4,11,0,0,0,1,0,19,0,6,21,17,0,0,0,0,0,6,0,0],"split_type":[0,0,0,0,0,0,0,0,0,0,0,0,0,0,0,0,0,0,0,0,0],"sum_hessian":[3.282924E1,1.0028253E1,2.2800987E1,8.982768E0,1.0454842E0,2.8107483E0,1.9990238E1,1.2254455E1,7.7357845E0,1.3099725E0,1.0944482E1,2.182526E0,5.5532584E0,9.721924E0,1.2225581E0,1.1635529E0,1.0189731E0,1.1673899E0,4.3858685E0,3.0639815E0,1.3218871E0],"tree_param":{"num_deleted":"0","num_feature":"25","num_nodes":"21","size_leaf_vector":"1"}},{"base_weights":[1.94239E-2,-2.3852883E-1,3.7594655E-1,-1.3323656E-1,9.815318E-2,1.3199767E-1,7.3652424E-2,-1.2961689E-1,2.4164788E-1,-2.174716E-2,5.2646972E-2,3.0437514E-2,-8.349363E-2,1.16778985E-1,-2.868177E-2],"categories":[],"categories_nodes":[],"categories_segments":[],"categories_sizes":[],"default_left":[0,0,0,0,0,0,0,0,0,0,0,0,0,0,0],"id":72,